<?xml version="1.0"?>
<opencv_storage>
<opencv_ml_svm>
  <format>3</format>
  <svmType>C_SVC</svmType>
  <kernel>
    <type>INTER</type>
    <gamma>1.0000000000000001e-05</gamma></kernel>
  <C>1.0000000000000001e-01</C>
  <term_criteria><iterations>10000</iterations></term_criteria>
  <var_count>576</var_count>
  <class_count>2</class_count>
  <class_labels type_id="opencv-matrix">
    <rows>2</rows>
    <cols>1</cols>
    <dt>i</dt>
    <data>
      0 1</data></class_labels>
  <sv_total>17</sv_total>
  <support_vectors>
    <_>
      5.40268943e-02 1.57196730e-01 2.64985770e-01 6.39479905e-02
      3.73948738e-02 2.72505060e-02 3.11841331e-02 4.69413847e-02
      2.26076469e-02 8.04623812e-02 3.61313015e-01 3.61313015e-01
      1.05134971e-01 2.63656117e-02 1.34348990e-02 1.54387103e-02
      3.05416118e-02 2.66729929e-02 4.90095131e-02 2.58292794e-01
      3.61313015e-01 2.67710268e-01 4.80325222e-02 3.85870114e-02
      1.27502503e-02 9.85698868e-03 1.11658061e-02 5.28504699e-02
      3.61313015e-01 3.61313015e-01 2.56915748e-01 2.08528973e-02
      3.55621502e-02 6.65405020e-03 5.93999261e-03 7.74162216e-03
      1.26101643e-01 3.20288807e-01 3.20288807e-01 7.53376782e-02
      3.37127484e-02 6.96778856e-03 3.84876784e-03 4.79067676e-03
      3.21464948e-02 3.20288807e-01 3.20288807e-01 1.41723111e-01
      3.20549831e-02 3.65891047e-02 9.87649988e-03 5.69229294e-03
      7.38004921e-03 9.80905294e-02 6.51211441e-02 3.20288807e-01
      3.20288807e-01 9.20560807e-02 9.78378579e-03 1.57529656e-02
      4.63377777e-03 4.42717457e-03 1.68135744e-02 3.07733417e-01
      3.20288807e-01 3.20288807e-01 2.91358009e-02 5.84753137e-03
      5.57279028e-03 6.19801320e-03 2.90817525e-02 1.00737020e-01
      2.73692876e-01 2.49418378e-01 3.36384065e-02 5.48820710e-03
      2.79596467e-02 8.13114084e-03 1.12636415e-02 7.01922923e-02
      2.73692876e-01 2.02021956e-01 8.58698189e-02 1.57068446e-02
      1.62489824e-02 3.46602388e-02 4.73053306e-02 2.32738882e-01
      2.73692876e-01 2.73692876e-01 2.73692876e-01 2.73692876e-01
      7.55722225e-02 1.17676733e-02 1.32535780e-02 1.92011171e-03
      4.65490073e-02 1.85140103e-01 2.73692876e-01 1.33829951e-01
      4.80816998e-02 8.44484288e-03 8.13799817e-03 2.05420479e-02
      9.67264026e-02 2.73692876e-01 2.73692876e-01 2.73692876e-01
      5.26065864e-02 3.20890583e-02 7.33437808e-03 8.41908157e-03
      2.85519026e-02 9.73939449e-02 3.18159819e-01 3.18159819e-01
      9.59222913e-02 2.21338309e-02 1.83095001e-02 1.30677940e-02
      5.32472832e-03 2.94838864e-02 1.48033291e-01 3.18159819e-01
      2.53968477e-01 6.08321540e-02 2.95649953e-02 2.64881272e-02
      9.58112348e-03 5.15236869e-04 2.59617008e-02 2.80148596e-01
      3.18159819e-01 3.18159819e-01 1.01321593e-01 2.31904797e-02
      1.40136816e-02 5.23136044e-03 5.52674755e-05 7.84189478e-02
      3.18159819e-01 3.18159819e-01 2.71446705e-01 3.35255824e-02
      1.87212229e-02 1.17096364e-01 3.15014482e-01 3.15014482e-01
      6.38833195e-02 1.67934559e-02 3.39774415e-03 4.99383139e-04
      8.18325300e-03 1.36512471e-02 1.39385045e-01 3.15014482e-01
      3.15014482e-01 3.23803574e-02 1.45638678e-02 2.05035252e-03
      1.01618445e-03 2.33736099e-03 1.94557924e-02 5.64620458e-02
      2.25603282e-01 3.15014482e-01 3.15014482e-01 6.26749098e-02
      1.27701871e-02 8.37109983e-03 5.37879253e-03 8.00129864e-03
      2.39566732e-02 3.15014482e-01 3.15014482e-01 3.15014482e-01
      7.06537217e-02 8.41070153e-03 8.02282011e-04 8.35146231e-04
      3.26773264e-02 3.21679056e-01 3.21679056e-01 2.60221452e-01
      2.46903468e-02 1.64838713e-02 2.77602416e-03 3.10632470e-03
      3.88851250e-03 1.29436269e-01 3.21679056e-01 3.21679056e-01
      6.53403997e-02 7.97898881e-03 5.21019427e-03 8.19653366e-03
      2.84469500e-02 5.32652177e-02 3.07407100e-02 1.19423449e-01
      3.21679056e-01 3.21679056e-01 3.21679056e-01 8.33115578e-02
      2.57381182e-02 2.03696522e-03 1.06510357e-03 4.11777124e-02
      1.94500133e-01 2.57191628e-01 1.73575535e-01 1.29839748e-01
      3.38146128e-02 2.54086889e-02 1.76835749e-02 1.84963550e-02
      2.29951233e-01 2.75755256e-01 1.64641112e-01 2.33899970e-02
      1.15041686e-02 7.27934018e-03 1.31003067e-01 2.31882274e-01
      2.64920026e-01 6.62667677e-02 4.49941047e-02 1.28572686e-02
      2.51661371e-02 8.22196305e-02 2.75755256e-01 2.75755256e-01
      2.75755256e-01 2.53451079e-01 5.39053343e-02 9.85377207e-02
      9.38887149e-02 4.39656451e-02 3.24023552e-02 1.89615358e-02
      8.92883241e-02 7.95899630e-02 7.05110282e-02 2.66285613e-02
      5.39313667e-02 1.47925049e-01 2.75755256e-01 2.75755256e-01
      2.65428215e-01 2.75755256e-01 1.50384948e-01 4.79186140e-02
      6.28221454e-03 1.01104183e-02 4.19536093e-03 1.13490559e-02
      1.35972530e-01 2.91933149e-01 2.91933149e-01 1.39085203e-01
      2.75037494e-02 9.70725901e-03 1.57536031e-03 1.92091020e-03
      2.36180630e-02 2.52083927e-01 2.91933149e-01 2.91933149e-01
      7.06570297e-02 1.13844415e-02 3.36988037e-03 1.85476877e-02
      7.15404823e-02 2.91933149e-01 2.91933149e-01 2.91933149e-01
      1.47720680e-01 2.90780291e-02 3.06426291e-03 1.55844269e-02
      4.51361621e-03 6.89264163e-02 2.91933149e-01 2.91933149e-01
      2.91933149e-01 5.77488281e-02 2.10341671e-03 1.12133259e-02
      9.76840779e-03 1.89503003e-02 5.19019663e-02 2.42922723e-01
      2.93573052e-01 1.99297383e-01 6.00841939e-02 1.09976586e-02
      3.69041762e-03 1.59203482e-03 4.27257689e-03 5.06418943e-02
      2.89524257e-01 2.93573052e-01 2.93573052e-01 1.00945309e-01
      5.96271968e-03 3.34824814e-04 6.31204620e-03 1.99592635e-02
      3.76416147e-02 5.47478758e-02 2.91748971e-01 2.93573052e-01
      2.93573052e-01 6.09602667e-02 8.98068212e-03 1.23112311e-03
      4.00480442e-03 2.42532301e-03 2.23531052e-02 2.93573052e-01
      2.93573052e-01 2.93573052e-01 1.04778580e-01 7.60275312e-03
      9.89220757e-03 1.75970830e-02 8.07065964e-02 2.88306892e-01
      2.88306892e-01 2.88306892e-01 2.20569193e-01 4.61346507e-02
      4.96482057e-03 4.49956581e-02 2.51466949e-02 4.19538170e-02
      1.05635509e-01 1.80582881e-01 1.26039356e-01 1.34778857e-01
      7.04199672e-02 4.26054038e-02 1.27987294e-02 7.47253746e-03
      1.42358737e-02 1.57571286e-02 1.98919117e-01 2.88306892e-01
      2.88306892e-01 2.88306892e-01 8.75704885e-02 2.10590452e-01
      4.41473909e-02 4.33432870e-02 1.05467970e-02 4.72769812e-02
      1.27084076e-01 2.66148716e-01 2.88306892e-01 2.88306892e-01
      4.69165333e-02 5.26445620e-02 1.36680260e-01 5.10485433e-02
      2.45189704e-02 1.11120818e-02 2.49477010e-02 3.16249020e-02
      3.91651317e-02 2.80020088e-02 1.42347217e-01 3.47691983e-01
      3.47691983e-01 1.69852361e-01 3.21409963e-02 2.41002664e-02
      1.29473926e-02 1.24570848e-02 2.77404815e-01 2.34889910e-01
      3.47691983e-01 4.54337746e-02 7.48192333e-03 6.79602660e-03
      2.73050312e-02 1.00707814e-01 2.05405310e-01 1.45786241e-01
      3.47691983e-01 3.47691983e-01 3.16902459e-01 1.27265761e-02
      9.09403898e-04 3.03066080e-03 5.45959361e-03 2.91269254e-02
      7.81083619e-03 4.41862457e-02 3.10311109e-01 3.10311109e-01
      2.16726780e-01 5.17681763e-02 1.47474278e-02 1.65123609e-03
      2.19543022e-03 3.00742872e-02 3.59503850e-02 3.04392934e-01
      3.10311109e-01 2.81164944e-01 8.81110281e-02 8.68964940e-03
      2.01935414e-03 8.84596910e-03 2.45804600e-02 2.08833173e-01
      3.10311109e-01 3.08155149e-01 3.64925712e-02 3.96715710e-03
      3.63719603e-03 4.12229728e-03 1.31699373e-03 3.84501852e-02
      1.89061403e-01 3.10311109e-01 3.10311109e-01 8.21455196e-02
      1.06833987e-02 1.88117363e-02 1.98713653e-02 6.13722578e-03
      1.58004947e-02 3.34571451e-02 3.92857641e-02 2.66684704e-02
      8.87958407e-02 2.91251004e-01 3.07240456e-01 1.79122314e-01
      2.13024318e-02 1.78684536e-02 6.38471311e-03 4.18436481e-03
      1.22419270e-02 5.61565906e-02 3.07240456e-01 3.07240456e-01
      2.64198750e-01 4.45830077e-02 2.68394034e-02 1.13228839e-02
      2.11904645e-02 3.89076173e-02 1.46068171e-01 3.02546144e-01
      3.07240456e-01 2.16887519e-01 3.65680270e-02 4.69951183e-02
      3.86049412e-03 1.04985097e-02 2.59543508e-02 3.49228308e-02
      2.15562284e-01 3.07240456e-01 3.07240456e-01 1.07019797e-01
      3.22015025e-02 5.13312547e-03 7.27284094e-03 5.33083733e-03
      1.64388120e-02 1.30203128e-01 2.84076780e-01 2.84076780e-01
      1.96179971e-01 2.84076780e-01 8.05289149e-02 2.12290660e-02
      2.33020517e-03 2.49954546e-03 2.32999176e-02 1.63890794e-01
      2.84076780e-01 2.84076780e-01 7.50833005e-02 3.26567590e-02
      6.04942208e-03 1.46418912e-02 2.20708046e-02 5.74376360e-02
      2.84076780e-01 2.84076780e-01 2.37965196e-01 2.84076780e-01
      1.31689444e-01 1.59401894e-02 1.18899709e-02 3.26523110e-02
      2.08579525e-02 1.11144744e-01 2.84076780e-01 2.84076780e-01
      3.09336394e-01 2.87917376e-01 2.03483701e-01 1.25268707e-02
      7.88618228e-04 2.36892025e-03 1.36953983e-02 7.61772990e-02
      1.95621908e-01 2.27922887e-01 3.09336394e-01 3.09336394e-01
      6.68565109e-02 4.15571826e-03 1.19251560e-03 3.32064182e-03
      2.51875073e-03 3.00186742e-02 3.09336394e-01 3.01140487e-01
      9.51686949e-02 2.13768370e-02 3.13072018e-02 8.97230394e-03
      2.12578997e-02 6.78576306e-02 1.39059216e-01 2.54115313e-01
      3.09336394e-01 3.09336394e-01 6.08996898e-02 3.70603092e-02
      6.99680112e-03 5.91490325e-03 1.93530098e-02 3.04301381e-02
      4.50798757e-02 3.26510727e-01 3.26510727e-01 1.43666252e-01
      1.79017968e-02 1.50546734e-03 3.11725494e-03 1.01319468e-02
      3.64580983e-03 3.59132513e-02 3.26510727e-01 3.26510727e-01
      2.87448347e-01 4.38774601e-02 1.10035101e-02 2.16561053e-02
      3.91546786e-02 9.56896041e-03 9.51845199e-02 3.26510727e-01
      3.26510727e-01 1.00945331e-01 2.81670671e-02 1.50970779e-02
      7.21876230e-03 1.62829086e-02 9.50005092e-03 6.46290407e-02
      2.79538929e-01 3.26510727e-01 1.76619142e-01 3.31663713e-02
      2.24036071e-02 2.84010991e-02 3.91374715e-02 3.41104940e-02</_>
    <_>
      5.82814887e-02 1.94945231e-01 2.81921118e-01 2.30869904e-01
      1.47132441e-01 3.15613300e-02 3.36208567e-02 2.16752943e-02
      2.57574264e-02 1.82366043e-01 2.81921118e-01 2.81921118e-01
      2.12096035e-01 1.12911403e-01 2.14231610e-02 2.26173680e-02
      5.10910861e-02 3.61252800e-02 4.84898761e-02 2.44671375e-01
      2.81921118e-01 2.81921118e-01 1.66829780e-01 8.34266618e-02
      4.06622775e-02 1.96075719e-02 1.57106891e-02 1.17789261e-01
      2.77849883e-01 2.81921118e-01 2.81921118e-01 1.58535123e-01
      4.28441055e-02 2.95827612e-02 5.84881343e-02 6.08956888e-02
      2.46414930e-01 2.46414930e-01 2.46414930e-01 1.24171846e-01
      1.29270256e-01 3.38501744e-02 4.42101359e-02 7.83497691e-02
      9.29888785e-02 2.46414930e-01 2.09125087e-01 1.87421262e-01
      8.77350271e-02 1.69011280e-01 4.73339036e-02 6.43310547e-02
      1.13562211e-01 2.46414930e-01 1.62819609e-01 2.46414930e-01
      2.46414930e-01 1.29266664e-01 1.14603698e-01 1.76495984e-02
      3.36721279e-02 8.56616795e-02 1.04632281e-01 2.46414930e-01
      2.46414930e-01 2.46414930e-01 4.49232496e-02 5.15640825e-02
      2.70057712e-02 1.31876484e-01 2.15216100e-01 2.46414930e-01
      1.90595970e-01 6.79394230e-02 7.48700202e-02 2.70327665e-02
      8.82396176e-02 4.56281565e-02 1.06371127e-01 1.63999170e-01
      2.76744068e-01 9.91726816e-02 2.45079417e-02 2.00687479e-02
      1.88395716e-02 2.44023465e-02 1.04949668e-01 2.48033866e-01
      2.76744068e-01 2.76744068e-01 1.60038233e-01 1.08016081e-01
      9.77046266e-02 2.00193226e-02 2.31193807e-02 5.71665913e-02
      2.76744068e-01 2.76744068e-01 2.76744068e-01 6.93341643e-02
      7.62040913e-02 6.04407527e-02 3.90317813e-02 6.52736425e-02
      2.46114492e-01 2.76744068e-01 2.76744068e-01 2.70557433e-01
      3.04535348e-02 1.74643788e-02 1.02500943e-02 2.26403810e-02
      3.80771793e-02 1.28227815e-01 2.77320027e-01 2.77320027e-01
      1.60360411e-01 2.61761472e-02 1.41596114e-02 1.71308704e-02
      1.95000358e-02 7.13797361e-02 1.41627327e-01 2.77320027e-01
      2.18542486e-01 6.10243678e-02 4.12919298e-02 6.16599657e-02
      8.52751136e-02 9.81817618e-02 1.60285056e-01 2.77320027e-01
      2.77320027e-01 2.77320027e-01 1.59065381e-01 2.41686571e-02
      6.15574084e-02 8.61619338e-02 1.05170563e-01 2.77320027e-01
      2.77320027e-01 2.77320027e-01 2.68450677e-01 1.14368707e-01
      3.76146995e-02 1.18926503e-01 2.61427909e-01 2.62710273e-01
      1.94513947e-01 1.41149163e-01 3.01765576e-02 1.26428660e-02
      1.93518102e-02 5.38723916e-02 1.66879073e-01 2.92316526e-01
      2.92316526e-01 2.23610863e-01 6.95949048e-02 1.10509703e-02
      1.59069095e-02 3.68740149e-02 6.55960441e-02 7.40841851e-02
      8.58020782e-02 1.68195873e-01 2.92316526e-01 2.92316526e-01
      3.44638266e-02 2.32988913e-02 1.70858707e-02 4.04663011e-02
      1.06928147e-01 2.11921424e-01 2.92316526e-01 2.92316526e-01
      2.78122753e-01 3.22853215e-02 2.97740307e-02 1.42289586e-02
      9.38930586e-02 2.86266387e-01 2.86266387e-01 2.86266387e-01
      2.07669064e-01 4.12256084e-02 6.69097342e-03 2.53441762e-02
      6.07470162e-02 2.09769681e-01 2.86266387e-01 2.77101189e-01
      7.18119070e-02 3.98576222e-02 1.14866355e-02 5.27479425e-02
      1.18305273e-01 2.86266387e-01 3.38904150e-02 1.55768812e-01
      2.86266387e-01 2.86266387e-01 2.86266387e-01 1.83346421e-01
      4.81596999e-02 2.33739875e-02 1.69925354e-02 8.27929005e-02
      1.20470583e-01 1.28692046e-01 1.16389282e-01 1.24927461e-01
      4.07898165e-02 4.90859114e-02 4.27515581e-02 6.26240298e-02
      9.92296860e-02 6.42731562e-02 4.28889245e-02 3.40633863e-03
      8.49300902e-03 1.05856113e-01 2.95871973e-01 2.09804863e-01
      3.13761562e-01 3.31010520e-02 3.97902578e-02 2.45260373e-02
      1.16542187e-02 1.48953766e-01 3.18541050e-01 3.18541050e-01
      3.10142636e-01 1.61376670e-01 6.02299422e-02 4.02519144e-02
      5.04898131e-02 2.41695419e-02 1.01938434e-01 1.37556002e-01
      1.36878088e-01 5.08309416e-02 5.68861291e-02 2.42792778e-02
      1.47873685e-02 3.02752554e-02 1.11977689e-01 3.18541050e-01
      3.18541050e-01 3.18541050e-01 7.87537843e-02 4.25917320e-02
      3.42975147e-02 2.71878392e-02 4.04432006e-02 5.94052784e-02
      2.37425327e-01 2.98795372e-01 2.85074294e-01 1.78166464e-01
      1.14549182e-01 2.80588511e-02 3.76249105e-02 4.59742248e-02
      8.89103487e-02 2.98795372e-01 2.98795372e-01 1.69106275e-01
      1.27343416e-01 9.59774330e-02 4.67798077e-02 1.64071564e-02
      1.62632875e-02 1.46417901e-01 2.98795372e-01 2.98795372e-01
      1.58551753e-01 6.43710569e-02 8.87625292e-02 5.79820313e-02
      2.65982132e-02 4.09672409e-02 1.63627952e-01 2.98795372e-01
      2.98795372e-01 9.29719880e-02 6.25526831e-02 9.91676226e-02
      3.01960986e-02 1.28847025e-02 1.66842341e-02 8.46843347e-02
      3.06037664e-01 3.06037664e-01 5.33578806e-02 2.81912480e-02
      1.49921319e-02 1.80070810e-02 1.11490032e-02 2.79933549e-02
      2.07910389e-01 3.06037664e-01 3.06037664e-01 1.60802603e-01
      3.07574663e-02 1.99419130e-02 1.48580056e-02 8.30957014e-03
      2.25874949e-02 7.12981001e-02 3.06037664e-01 3.06037664e-01
      1.61096603e-01 5.96413016e-02 6.28051534e-02 2.11799312e-02
      9.45482776e-03 2.42595281e-02 6.40826151e-02 3.06037664e-01
      3.06037664e-01 3.06037664e-01 1.10327087e-01 1.14952013e-01
      1.28769912e-02 1.68688539e-02 4.06177230e-02 2.44467497e-01
      3.07470709e-01 3.07470709e-01 3.07470709e-01 4.61640172e-02
      1.63770802e-02 3.88594978e-02 4.56602797e-02 4.93751913e-02
      4.25610133e-02 9.82040316e-02 7.06679747e-02 1.13086946e-01
      4.18014638e-02 3.58244032e-02 5.07842265e-02 1.85706448e-02
      3.36034112e-02 5.18448390e-02 3.07470709e-01 3.07470709e-01
      3.07470709e-01 1.80295199e-01 9.00685191e-02 3.00240815e-01
      9.75282416e-02 3.13082784e-02 1.67595372e-02 7.54709914e-02
      1.24931581e-01 3.07470709e-01 1.24546446e-01 2.17949212e-01
      3.58375274e-02 3.54212821e-02 1.02000713e-01 8.66039246e-02
      1.24656029e-01 4.10291404e-02 2.98248567e-02 2.48005241e-02
      2.76203863e-02 1.66113228e-02 2.07444616e-02 2.03599706e-01
      3.16953748e-01 3.16953748e-01 2.41584808e-01 4.54436429e-02
      1.08992262e-02 1.92118529e-02 2.94741392e-01 2.19426841e-01
      2.74882823e-01 1.18916959e-01 6.26442060e-02 1.06137609e-02
      2.88120024e-02 3.28509845e-02 1.54093683e-01 1.31386414e-01
      2.72081077e-01 3.16953748e-01 3.16953748e-01 3.16953748e-01
      2.87629664e-02 2.17928588e-02 4.06169370e-02 5.35705648e-02
      5.12764081e-02 3.02099604e-02 7.64166638e-02 2.97812253e-01
      2.97812253e-01 1.87407881e-01 2.41862740e-02 1.05003854e-02
      5.96558452e-02 7.99419880e-02 7.60577619e-02 9.12798420e-02
      2.23842159e-01 2.97812253e-01 2.28805423e-01 7.06537515e-02
      1.23180831e-02 6.48373142e-02 1.00907870e-01 1.22692481e-01
      2.09284469e-01 2.97812253e-01 2.97812253e-01 5.34351990e-02
      3.37392949e-02 4.75579835e-02 6.44895062e-02 1.40739173e-01
      1.47359774e-01 1.86394036e-01 2.97812253e-01 2.97812253e-01
      1.46341786e-01 1.16622463e-01 3.84565257e-02 5.38387969e-02
      2.05335170e-02 1.59396362e-02 2.87408773e-02 3.78732421e-02
      2.27955118e-01 2.70718366e-01 2.70718366e-01 1.97923556e-01
      7.66323358e-02 7.42470101e-02 4.37850952e-02 1.01746567e-01
      6.59928545e-02 1.89036459e-01 2.70718366e-01 2.70718366e-01
      2.70718366e-01 1.50025129e-01 3.79288793e-02 4.17499840e-02
      3.93700823e-02 2.05433350e-02 1.23003356e-01 2.44609833e-01
      2.70718366e-01 2.70718366e-01 8.44305307e-02 1.10416487e-01
      3.79916616e-02 6.08863384e-02 2.45052744e-02 7.58748427e-02
      1.31777853e-01 2.70718366e-01 2.70718366e-01 1.70476303e-01
      1.29451290e-01 5.06323017e-02 1.09775916e-01 5.70273437e-02
      1.40411690e-01 2.34352022e-01 2.53138959e-01 2.26389691e-01
      1.37590170e-01 2.53138959e-01 1.93068162e-01 4.11562733e-02
      1.60029363e-02 1.19882509e-01 1.12402670e-01 2.53138959e-01
      1.59847736e-01 2.53138959e-01 1.29693702e-01 7.41518736e-02
      7.25771636e-02 4.35982868e-02 7.90693983e-02 1.13868847e-01
      2.36361444e-01 2.53138959e-01 2.06619501e-01 2.53138959e-01
      2.53138959e-01 6.05471916e-02 4.95445840e-02 8.09973255e-02
      7.62921125e-02 1.12280488e-01 1.87714860e-01 2.53138959e-01
      2.72904336e-01 2.72904336e-01 2.72904336e-01 5.05275242e-02
      5.52715436e-02 1.72779132e-02 3.82416919e-02 4.58578058e-02
      2.11554751e-01 1.69632882e-01 2.72904336e-01 2.72904336e-01
      2.26505518e-01 8.16907510e-02 2.54936814e-02 2.96111424e-02
      5.03045693e-02 8.13427940e-02 2.72904336e-01 2.72904336e-01
      1.46109223e-01 3.52559127e-02 3.97926569e-02 2.58112848e-02
      4.15527448e-02 8.23889002e-02 2.08869606e-01 2.63865680e-01
      2.72904336e-01 2.72904336e-01 7.98504949e-02 6.18785135e-02
      3.91032882e-02 3.80304158e-02 5.81709556e-02 1.10255517e-01
      1.07656591e-01 2.62361377e-01 2.69057453e-01 2.50217378e-01
      1.72640443e-01 4.39476781e-02 3.14683691e-02 4.88610938e-02
      6.95565194e-02 1.51308596e-01 2.02432364e-01 2.69057453e-01
      2.69057453e-01 2.69057453e-01 5.44865169e-02 4.84864004e-02
      2.95616705e-02 5.14000766e-02 1.41967580e-01 2.69057453e-01
      2.69057453e-01 1.27029136e-01 8.62733275e-02 2.23877616e-02
      1.30594485e-02 1.51154259e-02 3.14322785e-02 8.52478072e-02
      2.69057453e-01 2.69057453e-01 2.58649826e-01 1.99383438e-01
      3.19709666e-02 1.69377290e-02 8.56597628e-03 3.94647680e-02</_>
    <_>
      1.53589562e-01 6.96366057e-02 1.46842942e-01 1.59722790e-01
      1.66219577e-01 1.53349012e-01 1.50756732e-01 1.20411716e-01
      1.32260516e-01 2.03671902e-01 4.04987112e-02 1.05591260e-01
      1.00659505e-01 1.59978777e-01 1.31724179e-01 1.24489255e-01
      1.33961841e-01 2.14818940e-01 2.04865888e-01 2.03330874e-01
      2.14818940e-01 2.14818940e-01 1.84002891e-01 1.18618160e-01
      1.12665921e-01 1.87489957e-01 1.19665168e-01 2.14818940e-01
      1.87290832e-01 2.09514201e-01 1.60103515e-01 2.14818940e-01
      1.95588410e-01 1.35331661e-01 2.10278556e-01 2.14818940e-01
      2.24005774e-01 1.49951009e-02 5.24979830e-02 8.96565840e-02
      1.42321616e-01 1.01353578e-01 1.08072169e-01 1.27510861e-01
      2.33919770e-01 2.33919770e-01 2.82786526e-02 4.68969345e-02
      6.28770366e-02 9.90900323e-02 8.13854337e-02 6.91906065e-02
      9.12774950e-02 2.33919770e-01 1.86923549e-01 1.38065130e-01
      1.49050295e-01 1.43118456e-01 2.33919770e-01 2.33919770e-01
      1.89378843e-01 2.33919770e-01 2.33919770e-01 2.11211026e-01
      1.14327922e-01 1.76183939e-01 1.50251850e-01 1.90168306e-01
      2.07855448e-01 1.60583436e-01 2.33919770e-01 2.33919770e-01
      2.35623747e-01 5.06957173e-02 6.19526394e-02 7.69944042e-02
      4.53759097e-02 5.08426018e-02 4.39281017e-02 3.81107144e-02
      2.35623747e-01 2.35623747e-01 2.00493604e-01 1.72174007e-01
      1.64173976e-01 8.54036584e-02 8.15728381e-02 9.38958973e-02
      4.27051857e-02 2.27978736e-01 2.35623747e-01 1.14625983e-01
      1.47513434e-01 1.97893813e-01 7.85005689e-02 1.37026638e-01
      1.71107918e-01 1.77975848e-01 2.35623747e-01 2.35623747e-01
      2.35623747e-01 1.66070521e-01 2.33271912e-01 1.27379969e-01
      1.91431716e-01 2.35623747e-01 9.71526355e-02 2.35623747e-01
      1.70967773e-01 1.76768407e-01 1.83922499e-01 1.37104928e-01
      1.48457885e-01 6.29999414e-02 7.98479542e-02 1.34788007e-01
      1.64316550e-01 2.19194800e-01 1.58445671e-01 1.92307323e-01
      1.38835207e-01 1.73370957e-01 4.92130853e-02 6.74530119e-02
      2.19194800e-01 2.19194800e-01 2.19194800e-01 1.97255552e-01
      1.85572580e-01 1.65822461e-01 1.35904267e-01 1.29906654e-01
      1.71636388e-01 1.77438900e-01 2.19194800e-01 1.61373511e-01
      1.37158975e-01 2.19194800e-01 2.19194800e-01 1.33833438e-01
      1.38302252e-01 1.09564029e-01 1.96677551e-01 1.50751472e-01
      2.21078902e-01 2.21078902e-01 2.21078902e-01 2.21078902e-01
      1.54082641e-01 4.70192507e-02 6.51086047e-02 1.72523901e-01
      9.87029448e-02 2.21078902e-01 1.81458175e-01 1.92969084e-01
      1.76872492e-01 2.12014452e-01 1.55443579e-01 1.80088043e-01
      1.68807834e-01 1.82464868e-01 1.18669853e-01 1.78008750e-01
      2.21078902e-01 2.21078902e-01 1.89663395e-01 1.97091252e-02
      3.37495245e-02 7.54336193e-02 5.92215434e-02 1.76182047e-01
      1.08749233e-01 1.86382905e-01 2.21078902e-01 2.21078902e-01
      9.79581624e-02 8.64854530e-02 1.01731911e-01 1.61029652e-01
      1.08613923e-01 1.03581369e-01 1.36533514e-01 1.13085777e-01
      2.09461316e-01 1.88594297e-01 1.89656377e-01 1.67077944e-01
      1.11144096e-01 1.59379199e-01 1.07005209e-01 1.38360649e-01
      1.04368828e-01 1.54444322e-01 1.77587569e-01 1.90467492e-01
      1.98901772e-01 1.17549397e-01 2.17891201e-01 1.69281647e-01
      1.51690081e-01 2.17891201e-01 1.97998762e-01 1.02752037e-01
      1.02184244e-01 1.47338673e-01 1.68178856e-01 2.17891201e-01
      2.17891201e-01 1.44083127e-01 1.82250857e-01 2.17891201e-01
      1.73429921e-01 2.02507660e-01 1.69533789e-01 1.52320012e-01
      1.73169553e-01 9.22362879e-02 9.58914831e-02 1.10048875e-01
      8.24258626e-02 1.71003267e-01 2.20802769e-01 1.33727178e-01
      8.24059620e-02 2.20802769e-01 1.84914961e-01 9.16709527e-02
      1.07067496e-01 9.49521139e-02 1.79680303e-01 2.20802769e-01
      9.98612270e-02 1.80970833e-01 2.20802769e-01 1.09160401e-01
      1.06980287e-01 1.75505176e-01 2.20802769e-01 2.09190220e-01
      2.20802769e-01 1.72246978e-01 1.49801880e-01 2.20802769e-01
      1.75014153e-01 2.10294187e-01 1.26297399e-01 9.91027579e-02
      1.41359538e-01 2.20802769e-01 1.72544688e-01 2.20802769e-01
      2.22640947e-01 1.53578773e-01 1.12378843e-01 8.77173170e-02
      1.28496364e-01 1.78897038e-01 1.82266399e-01 1.46914348e-01
      2.22640947e-01 1.79520383e-01 1.00988448e-01 1.97006583e-01
      1.80133343e-01 1.30707487e-01 1.90337673e-01 1.62425280e-01
      1.40537828e-01 1.47611693e-01 2.22640947e-01 1.98851749e-01
      1.67131394e-01 8.30946416e-02 8.49105492e-02 1.36280105e-01
      1.41941682e-01 1.59861133e-01 2.22640947e-01 2.22640947e-01
      1.46620914e-01 7.93487132e-02 6.02126829e-02 1.00143649e-01
      1.78210467e-01 2.22640947e-01 2.22640947e-01 2.22640947e-01
      9.57254842e-02 1.30021781e-01 2.51407564e-01 1.37979478e-01
      1.33051738e-01 4.97840382e-02 2.20308248e-02 4.76053804e-02
      7.39673302e-02 2.57168263e-01 9.44426805e-02 1.08633958e-01
      2.20998749e-01 1.71183199e-01 8.30992088e-02 3.51508670e-02
      1.15199335e-01 2.35100225e-01 2.61761248e-01 1.69121370e-01
      1.91510022e-01 8.80429745e-02 1.39050677e-01 1.56244397e-01
      1.18781894e-01 2.61761248e-01 2.61761248e-01 2.61761248e-01
      1.25613555e-01 1.23647086e-01 6.78793043e-02 4.53948267e-02
      1.46741405e-01 1.33093178e-01 2.61761248e-01 2.61761248e-01
      2.64882177e-01 1.97399363e-01 9.30108130e-02 1.71472937e-01
      8.08643326e-02 5.04384898e-02 3.82587761e-02 1.29386276e-01
      2.40513280e-01 2.64882177e-01 2.48919889e-01 9.40350071e-02
      1.18940011e-01 1.24659628e-01 8.66560787e-02 9.63201374e-02
      1.28589526e-01 2.14677691e-01 2.64882177e-01 2.15149134e-01
      1.14947669e-01 3.35886180e-02 1.61004774e-02 1.11380264e-01
      6.09824583e-02 1.49285987e-01 2.64882177e-01 2.64882177e-01
      2.64882177e-01 7.93003216e-02 4.28247117e-02 5.66690788e-02
      5.15745841e-02 2.82589961e-02 2.23759860e-01 2.64882177e-01
      2.69060135e-01 1.04292437e-01 6.57878816e-02 1.15242667e-01
      1.18928485e-01 8.67493451e-02 1.27181441e-01 1.42825365e-01
      2.61440277e-01 2.69060135e-01 1.15591235e-01 1.60523131e-01
      8.38561729e-02 5.23012578e-02 4.66101803e-02 1.19996496e-01
      1.43109381e-01 2.69060135e-01 2.69060135e-01 2.52502114e-01
      5.88012598e-02 3.60422321e-02 5.17262220e-02 2.64468063e-02
      2.40340959e-02 1.61287934e-01 2.69060135e-01 2.69060135e-01
      2.69060135e-01 9.94829535e-02 3.18801254e-02 5.64484969e-02
      3.40910777e-02 5.05116098e-02 2.46661559e-01 2.69060135e-01
      2.64543772e-01 1.33972049e-01 1.15500756e-01 6.37121946e-02
      3.98434885e-02 3.97731252e-02 6.70035630e-02 1.00473128e-01
      2.64543772e-01 2.64543772e-01 1.01311974e-01 6.62979037e-02
      6.43301904e-02 9.05828923e-02 7.24339336e-02 1.52252153e-01
      1.96719572e-01 2.64543772e-01 2.64543772e-01 2.64543772e-01
      6.32204860e-02 3.95300053e-02 3.57605331e-02 4.06850651e-02
      9.75950062e-02 2.64543772e-01 2.64543772e-01 2.64543772e-01
      2.22602606e-01 8.84867385e-02 1.09576918e-01 8.71493295e-02
      5.88664934e-02 1.27157971e-01 1.88824117e-01 2.64543772e-01
      2.13448510e-01 1.13900863e-01 1.17865957e-01 1.06747001e-01
      1.33918285e-01 1.69104710e-01 1.90844387e-01 1.91904977e-01
      1.92619652e-01 2.13448510e-01 1.38264611e-01 1.98638946e-01
      8.49099457e-02 6.75999671e-02 1.17799714e-01 1.98630437e-01
      2.01882198e-01 2.13448510e-01 1.38317987e-01 1.14634402e-01
      9.98771563e-02 1.31449401e-01 2.13448510e-01 1.90321103e-01
      1.99564397e-01 1.09521635e-01 1.16333202e-01 1.32954642e-01
      1.82266131e-01 2.13448510e-01 1.96648061e-01 2.13448510e-01
      1.23140924e-01 2.13448510e-01 1.49766773e-01 1.76337779e-01
      2.17660978e-01 2.17660978e-01 1.99768454e-01 4.96430248e-02
      4.06524651e-02 1.18720323e-01 8.34123716e-02 8.49966779e-02
      1.85111627e-01 2.17660978e-01 2.17660978e-01 1.28466412e-01
      7.35194981e-02 9.00487304e-02 8.15078095e-02 3.76424342e-02
      1.47080258e-01 2.17660978e-01 1.27067998e-01 2.17660978e-01
      2.17660978e-01 2.09689796e-01 1.23379327e-01 1.24643832e-01
      1.42303154e-01 1.41450584e-01 1.86832964e-01 2.17660978e-01
      1.92729414e-01 2.17660978e-01 2.10137710e-01 1.47451848e-01
      2.17660978e-01 1.22629695e-01 1.62126586e-01 2.17660978e-01
      2.19372079e-01 2.08325922e-01 1.44401133e-01 7.31002465e-02
      1.35797903e-01 4.01474386e-02 4.79414165e-02 1.19404241e-01
      2.06849441e-01 2.19372079e-01 2.19372079e-01 1.89275920e-01
      3.77598107e-02 1.58971846e-01 8.81770551e-02 8.16622525e-02
      1.77562296e-01 2.19372079e-01 2.16397613e-01 1.19736761e-01
      1.91969782e-01 1.98183820e-01 2.19372079e-01 1.76892892e-01
      1.46630853e-01 8.90524685e-02 1.53035760e-01 1.76469013e-01
      1.32073268e-01 2.19372079e-01 9.25862268e-02 2.19372079e-01
      2.12777764e-01 2.00079933e-01 1.28483310e-01 1.51807755e-01
      1.92804277e-01 1.96907908e-01 1.04388751e-01 2.31990702e-02
      7.48127848e-02 1.06680132e-01 1.15507223e-01 2.19308898e-01
      2.19308898e-01 2.19308898e-01 1.77466005e-01 1.36840180e-01
      9.55266133e-02 8.78383070e-02 9.99473780e-02 1.21741213e-01
      1.68538496e-01 2.19308898e-01 1.44625649e-01 1.36925608e-01
      1.59638539e-01 4.20400351e-02 1.60164103e-01 1.89272225e-01
      2.01453045e-01 2.01546922e-01 2.19308898e-01 1.58383921e-01
      1.26429200e-01 2.19308898e-01 1.39532015e-01 2.06871986e-01
      1.97696775e-01 2.13751689e-01 1.63923249e-01 2.16044024e-01</_>
    <_>
      8.84265751e-02 1.13468230e-01 1.10991307e-01 1.66113153e-01
      1.46839768e-01 1.30964816e-01 1.09116279e-01 1.49495810e-01
      1.38096780e-01 7.45942742e-02 1.54371038e-01 1.39573187e-01
      2.30689630e-01 2.30689630e-01 1.70142725e-01 1.49966583e-01
      1.13680311e-01 7.52895772e-02 1.84996814e-01 1.53011560e-01
      2.22975090e-01 1.57497868e-01 1.32815495e-01 1.75969675e-01
      1.86521247e-01 1.73524708e-01 2.30689630e-01 9.98477414e-02
      1.16598748e-01 1.05234526e-01 2.30689630e-01 2.30689630e-01
      2.30689630e-01 2.30689630e-01 2.30689630e-01 1.41757205e-01
      1.87705696e-01 2.22737148e-01 1.35235175e-01 2.00959340e-01
      1.65474027e-01 1.48585752e-01 1.67208508e-01 1.00343123e-01
      6.70447424e-02 2.22737148e-01 2.22737148e-01 1.38923347e-01
      1.16268873e-01 1.89852282e-01 1.22295432e-01 1.56451315e-01
      1.36435702e-01 1.47099882e-01 1.30817935e-01 1.87431753e-01
      1.34196237e-01 2.22737148e-01 2.22737148e-01 2.22737148e-01
      2.22737148e-01 1.55141011e-01 5.00774346e-02 1.48019493e-01
      2.10459486e-01 1.77722216e-01 1.33314654e-01 2.22737148e-01
      1.42332554e-01 1.53432071e-01 7.85730928e-02 6.38650507e-02
      1.13227554e-01 8.97205770e-02 9.91261378e-02 1.25447407e-01
      2.18538746e-01 1.27683744e-01 1.88988775e-01 1.13401026e-01
      1.45227566e-01 2.42865726e-01 1.78748697e-01 1.82448342e-01
      1.75397143e-01 1.98991895e-01 1.57542348e-01 2.08139777e-01
      1.39410168e-01 1.79785535e-01 6.55699447e-02 2.42865726e-01
      2.42865726e-01 1.45370007e-01 2.17780679e-01 7.65898153e-02
      1.07815012e-01 7.04504848e-02 9.67341959e-02 2.17709064e-01
      2.42865726e-01 2.42865726e-01 1.72809273e-01 1.65559754e-01
      9.64975655e-02 1.07171193e-01 8.41501057e-02 1.72541320e-01
      2.21728727e-01 2.03878447e-01 1.81329787e-01 1.13009214e-01
      1.30755216e-01 8.58549401e-02 8.49755406e-02 1.40952572e-01
      2.03119263e-01 2.18161300e-01 2.07439288e-01 2.21728727e-01
      1.13304295e-01 1.84140891e-01 7.43441135e-02 8.80661085e-02
      1.96787581e-01 2.21728727e-01 2.21728727e-01 2.21728727e-01
      2.21728727e-01 7.04168379e-02 1.05815716e-01 9.99816880e-02
      5.07542640e-02 8.28998536e-02 2.21728727e-01 2.21728727e-01
      1.34167865e-01 1.02755323e-01 8.45408365e-02 1.91361070e-01
      1.62596777e-01 8.20395723e-02 2.11674258e-01 2.21728727e-01
      8.84758011e-02 7.37669319e-02 2.40608662e-01 2.84234434e-01
      1.64847076e-01 8.49975497e-02 9.40177962e-02 7.49094114e-02
      1.37647972e-01 3.38031538e-02 1.17517181e-01 1.42506048e-01
      2.97762811e-01 2.97762811e-01 1.74547210e-01 1.96337163e-01
      9.86774266e-02 7.04410747e-02 1.60809029e-02 1.02845831e-02
      1.08518593e-01 2.97762811e-01 2.97762811e-01 1.48242727e-01
      3.46960612e-02 3.37317884e-02 2.64136121e-02 1.06405290e-02
      8.11013356e-02 1.68794736e-01 2.97762811e-01 2.97762811e-01
      1.82477757e-01 7.64544159e-02 1.09531298e-01 5.33518232e-02
      2.81615742e-02 8.38298425e-02 1.07047282e-01 2.65101433e-01
      2.79406637e-01 1.60616443e-01 1.52769327e-01 5.88355288e-02
      5.28986081e-02 6.45668432e-02 1.16187744e-01 2.81891018e-01
      1.81863502e-01 1.94689855e-01 1.18531629e-01 7.23411739e-02
      3.13350372e-02 6.71193376e-02 4.16937098e-02 1.03549384e-01
      2.64530629e-01 2.61198312e-01 2.81470209e-01 1.48131028e-01
      7.91169629e-02 8.55091885e-02 1.00080788e-01 6.27922341e-02
      1.94703788e-01 2.98244029e-01 2.98244029e-01 2.39324376e-01
      1.26963705e-01 6.34409413e-02 3.89169529e-02 8.37481171e-02
      4.91350219e-02 2.93002665e-01 2.93002665e-01 2.13675901e-01
      2.05557823e-01 5.17657958e-02 3.75230275e-02 2.60251891e-02
      3.06926891e-02 1.05590463e-01 2.93002665e-01 2.93002665e-01
      1.51011392e-01 9.51099470e-02 3.73214521e-02 2.39226483e-02
      4.77146581e-02 5.09586520e-02 4.87394594e-02 2.17553943e-01
      2.93002665e-01 2.93002665e-01 2.18900159e-01 6.42081499e-02
      3.22436504e-02 2.71312259e-02 2.96873283e-02 1.16150796e-01
      2.49783069e-01 2.93002665e-01 2.05121070e-01 1.34137630e-01
      5.80325611e-02 3.77761126e-02 4.98409718e-02 5.11445478e-02
      1.96767330e-01 2.44554400e-01 2.44554400e-01 8.77667442e-02
      8.29740614e-02 8.65336731e-02 5.15666939e-02 1.06138788e-01
      1.59444347e-01 1.20350987e-01 7.38159716e-02 9.78206620e-02
      1.78396359e-01 2.44554400e-01 2.35155001e-01 8.38689506e-02
      1.62938923e-01 2.07885951e-01 1.59393951e-01 1.81844890e-01
      2.44554400e-01 1.86980307e-01 1.95715725e-01 1.08132735e-01
      9.50663388e-02 1.08713605e-01 1.36048645e-01 7.21765608e-02
      5.47325872e-02 1.51845142e-01 2.44554400e-01 2.44554400e-01
      2.44554400e-01 1.86146274e-01 1.54927537e-01 1.12380385e-01
      1.02219004e-02 6.75584422e-03 3.43570560e-02 1.84319526e-01
      2.48014048e-01 2.48014048e-01 1.12141617e-01 1.01430662e-01
      2.52665151e-02 4.31489758e-02 5.31776920e-02 1.17880650e-01
      2.48014048e-01 2.48014048e-01 2.48014048e-01 2.47178704e-01
      2.48014048e-01 2.34143019e-01 2.09256485e-02 5.54932244e-02
      5.04633449e-02 6.37870952e-02 1.01730831e-01 2.05776364e-01
      2.23209918e-01 1.96594447e-01 5.04624657e-02 7.94066638e-02
      7.53752366e-02 1.01337813e-01 6.09048456e-02 9.63823423e-02
      2.48014048e-01 2.48014048e-01 2.48014048e-01 2.48014048e-01
      1.08030044e-01 2.21301630e-01 2.83059418e-01 1.02945991e-01
      9.36363488e-02 1.51604891e-01 1.14622727e-01 1.47675484e-01
      1.74884975e-01 1.02361239e-01 2.83059418e-01 2.83059418e-01
      2.04710051e-01 9.63675082e-02 5.50233908e-02 5.97443804e-02
      4.23877053e-02 6.02039918e-02 1.52830467e-01 2.62010425e-01
      2.62410790e-01 4.73892391e-02 4.61108871e-02 1.16955243e-01
      1.18996985e-01 1.59074113e-01 2.74709195e-01 1.42234415e-01
      2.83059418e-01 2.83059418e-01 1.19535975e-01 4.54366952e-02
      4.12047915e-02 6.49833530e-02 7.10000321e-02 1.13804251e-01
      7.12402388e-02 1.95939407e-01 2.74044275e-01 1.91568747e-01
      8.61229524e-02 3.96311134e-02 5.62596731e-02 3.28235663e-02
      4.94866855e-02 1.20107315e-01 2.10665658e-01 2.74044275e-01
      2.39032909e-01 1.37435690e-01 7.33800381e-02 9.66061950e-02
      9.11080912e-02 4.80791703e-02 1.17443383e-01 2.74044275e-01
      2.74044275e-01 2.74044275e-01 9.47143361e-02 4.68397476e-02
      7.21509010e-02 4.35884073e-02 6.61553964e-02 1.35303378e-01
      2.43053973e-01 2.74044275e-01 2.74044275e-01 2.32283697e-01
      1.13720782e-01 1.33077815e-01 1.11413077e-01 6.87078163e-02
      9.49184224e-02 1.19345315e-01 2.33807340e-01 2.11170778e-01
      2.76698172e-01 1.44458100e-01 1.23592414e-01 1.00684725e-01
      4.94168140e-02 4.22142185e-02 3.92147899e-02 1.09862491e-01
      2.47492999e-01 2.76698172e-01 2.42356464e-01 9.65149701e-02
      5.22674099e-02 4.41095978e-02 4.89217155e-02 7.86823705e-02
      1.80314064e-01 2.76698172e-01 2.76698172e-01 1.89969525e-01
      1.30284339e-01 1.11786641e-01 6.17163964e-02 2.74812207e-02
      4.14865986e-02 1.38136715e-01 2.76698172e-01 2.76698172e-01
      2.76698172e-01 8.25419948e-02 2.11197603e-02 3.75941172e-02
      1.15837522e-01 9.86550972e-02 4.91365641e-02 8.96295533e-02
      8.00132602e-02 2.14672014e-01 2.43032917e-01 1.82576016e-01
      9.56276283e-02 2.43032917e-01 1.84621409e-01 8.88879970e-02
      7.53768831e-02 4.41512987e-02 5.34458645e-02 1.00762777e-01
      1.32591799e-01 2.32135460e-01 2.43032917e-01 1.97232425e-01
      9.16433632e-02 1.21740840e-01 2.02545643e-01 2.43032917e-01
      2.43032917e-01 1.55440629e-01 1.40705943e-01 2.43032917e-01
      2.43032917e-01 1.44653261e-01 1.40132323e-01 2.29923502e-01
      7.30717927e-02 7.32481107e-02 1.05628118e-01 2.43032917e-01
      2.00389817e-01 2.82969654e-01 1.96287110e-01 6.18823841e-02
      3.72684896e-02 2.54891384e-02 3.99392322e-02 5.69944456e-02
      1.42641887e-01 2.20979318e-01 2.82969654e-01 2.82969654e-01
      7.91314095e-02 4.33875993e-02 6.19411096e-02 6.68921322e-02
      4.28783931e-02 9.03834179e-02 2.82969654e-01 2.82969654e-01
      2.82969654e-01 7.21972808e-02 1.80350512e-01 4.11429890e-02
      6.71301708e-02 6.96880221e-02 1.60040021e-01 1.59672439e-01
      2.82969654e-01 2.82969654e-01 1.15375601e-01 1.51192397e-01
      1.25578851e-01 1.12494521e-01 5.65864630e-02 6.21239394e-02
      1.36274278e-01 2.41124496e-01 2.41124496e-01 1.81007773e-01
      1.02405235e-01 1.22790396e-01 9.18358788e-02 5.18718138e-02
      4.95656542e-02 1.36919469e-01 2.41124496e-01 2.41124496e-01
      2.41124496e-01 1.94212258e-01 1.67985111e-01 1.09261416e-01
      7.81372115e-02 7.12626278e-02 9.30010751e-02 2.41124496e-01
      1.74614206e-01 1.39919639e-01 1.80561915e-01 2.20058292e-01
      1.21490024e-01 8.48258212e-02 4.62080725e-02 1.35810375e-01
      2.41124496e-01 2.04630554e-01 1.32252529e-01 2.13343054e-01
      2.41124496e-01 1.68454036e-01 1.06963284e-01 8.48424360e-02
      9.51109305e-02 8.67128596e-02 1.30436257e-01 2.34514579e-01
      2.34514579e-01 1.49375662e-01 8.77587646e-02 8.37343484e-02
      8.31884593e-02 1.38607815e-01 5.52329309e-02 1.21271595e-01
      2.34514579e-01 2.34514579e-01 2.34514579e-01 8.27053338e-02
      5.99917099e-02 8.40055645e-02 1.71538472e-01 2.34514579e-01
      1.32152125e-01 1.00428663e-01 1.79895222e-01 1.58135071e-01
      1.77260026e-01 1.62890732e-01 1.42970055e-01 2.34514579e-01
      2.34514579e-01 1.78170949e-01 1.80542558e-01 2.34514579e-01
      1.92078814e-01 1.44587740e-01 1.61545813e-01 1.72379240e-01</_>
    <_>
      2.13715300e-01 1.17515370e-01 1.12822309e-01 8.76481310e-02
      1.67455032e-01 2.13715300e-01 1.89149067e-01 1.62234053e-01
      1.13655843e-01 1.51404068e-01 1.12796858e-01 1.97388455e-01
      1.62774831e-01 1.47691444e-01 1.70207888e-01 2.01665193e-01
      1.34660870e-01 1.22367390e-01 1.68860599e-01 1.09212160e-01
      1.05691098e-01 1.30751088e-01 1.96367741e-01 2.13715300e-01
      2.13715300e-01 1.84536844e-01 1.26032367e-01 1.50735885e-01
      1.29520074e-01 1.43475786e-01 1.83534980e-01 2.02831104e-01
      2.13715300e-01 2.13715300e-01 2.13715300e-01 1.51954219e-01
      1.02385789e-01 1.13163352e-01 1.85174644e-01 1.41169891e-01
      7.35347047e-02 1.18088730e-01 1.42266661e-01 1.08633071e-01
      1.21102162e-01 2.06039995e-01 1.72693461e-01 9.25787091e-02
      1.26643568e-01 1.46852136e-01 1.83890387e-01 1.25806943e-01
      1.68835342e-01 2.61095703e-01 1.61129624e-01 1.22107439e-01
      1.18801482e-01 1.27622709e-01 1.14820339e-01 1.75911814e-01
      2.61095703e-01 2.61095703e-01 2.61095703e-01 2.61095703e-01
      1.68235973e-01 5.25066778e-02 7.42091611e-02 5.65087683e-02
      6.70277625e-02 1.42731950e-01 2.61095703e-01 2.61095703e-01
      2.11767122e-01 1.37259066e-01 9.56838429e-02 2.56041467e-01
      1.83175102e-01 1.22843079e-01 7.11433366e-02 1.66898727e-01
      2.91164935e-01 1.23195991e-01 6.82819113e-02 1.31291062e-01
      2.91164935e-01 1.99744031e-01 1.02097452e-01 3.62788588e-02
      7.58132488e-02 1.51342317e-01 2.91164935e-01 1.45654663e-01
      1.96151882e-02 7.97381252e-02 5.31461164e-02 2.77436897e-02
      5.65610230e-02 1.64217860e-01 2.91164935e-01 2.91164935e-01
      1.96931303e-01 1.06764928e-01 9.13928524e-02 8.04660097e-02
      6.67764619e-02 5.14327511e-02 1.31422326e-01 2.91164935e-01
      8.68564770e-02 8.66717398e-02 1.31934807e-01 1.90610573e-01
      1.65195763e-01 1.43505275e-01 5.34132682e-02 5.17301969e-02
      5.81893772e-02 2.19731182e-01 1.04339316e-01 1.37416482e-01
      1.74267113e-01 2.20832333e-01 2.15552688e-01 1.61045551e-01
      1.60280272e-01 1.13490134e-01 2.20832333e-01 2.20832333e-01
      2.20832333e-01 1.40283778e-01 1.20479710e-01 2.10176617e-01
      5.07356375e-02 4.33900692e-02 2.20832333e-01 2.20832333e-01
      2.20832333e-01 2.20832333e-01 1.75113171e-01 1.70430154e-01
      2.20832333e-01 9.87774208e-02 1.47660345e-01 1.99524984e-01
      8.86695459e-02 1.54035404e-01 2.28574395e-01 1.65323511e-01
      1.22248746e-01 1.28166810e-01 2.26321399e-01 1.71996489e-01
      9.89551693e-02 1.11741394e-01 1.29017174e-01 1.64156616e-01
      1.57060027e-01 1.43050641e-01 1.92552641e-01 2.28574395e-01
      2.28574395e-01 1.90884173e-01 3.47663909e-02 1.25126198e-01
      2.28574395e-01 2.28574395e-01 2.28574395e-01 7.61666968e-02
      7.11966082e-02 9.03988481e-02 6.38321191e-02 8.15110058e-02
      1.32126525e-01 1.92182392e-01 2.28574395e-01 2.28574395e-01
      1.54620394e-01 1.53930843e-01 2.23100886e-01 1.60434246e-01
      1.30847409e-01 5.88277318e-02 5.09441867e-02 8.22889581e-02
      1.28052592e-01 1.91328257e-01 2.33318552e-01 2.33318552e-01
      2.33318552e-01 2.33318552e-01 1.43840477e-01 5.24538010e-02
      7.45489001e-02 1.15047909e-01 1.12342797e-01 1.42319873e-01
      2.33318552e-01 2.33318552e-01 1.52850881e-01 1.30747616e-01
      1.41003191e-01 1.82184190e-01 1.96786597e-01 1.72923669e-01
      1.55787617e-01 2.14060068e-01 1.23345137e-01 1.82587191e-01
      2.33318552e-01 2.22008988e-01 1.55002728e-01 1.34035632e-01
      1.46380410e-01 1.01233616e-01 1.85035586e-01 1.43340692e-01
      2.34076306e-01 1.34203419e-01 4.07319888e-02 8.64140764e-02
      1.28882051e-01 5.78806959e-02 7.98047185e-02 1.92725748e-01
      2.34076306e-01 2.34076306e-01 1.86762705e-01 9.24113914e-02
      8.04904625e-02 1.16778776e-01 7.76545927e-02 1.01200789e-01
      2.15526998e-01 2.34076306e-01 1.11926846e-01 1.88160390e-01
      1.30209088e-01 1.55051008e-01 1.82921588e-01 1.67814001e-01
      1.28927633e-01 1.94206834e-01 1.89705119e-01 1.20699935e-01
      1.52478993e-01 2.34076306e-01 2.23780796e-01 1.99498132e-01
      2.34076306e-01 1.59967020e-01 1.58478513e-01 1.81009009e-01
      2.14287013e-01 2.19188601e-01 2.17722446e-01 6.28730431e-02
      7.85261095e-02 1.23798691e-01 6.07849769e-02 1.07038133e-01
      2.19188601e-01 2.19188601e-01 2.19188601e-01 2.07424268e-01
      8.86384547e-02 9.05863047e-02 1.59657136e-01 8.84291530e-02
      1.74138412e-01 1.89712524e-01 1.25377879e-01 1.60037249e-01
      2.19188601e-01 2.01347560e-01 1.86353832e-01 1.52030557e-01
      1.07852399e-01 1.17924176e-01 1.48120463e-01 1.97257400e-01
      1.43876538e-01 1.85272291e-01 1.58073470e-01 2.19188601e-01
      1.55503049e-01 1.46012947e-01 2.04182610e-01 1.53650984e-01
      2.17228159e-02 6.41364232e-02 1.66539058e-01 2.42095307e-01
      2.42095307e-01 2.31739253e-01 7.25649819e-02 1.14597254e-01
      3.60574201e-02 1.33235738e-01 9.05812979e-02 7.34299496e-02
      2.05902621e-01 2.42095307e-01 2.04843670e-01 1.36162102e-01
      1.98068306e-01 1.73716038e-01 1.19037993e-01 1.11241192e-01
      7.90052488e-02 1.09869286e-01 1.84422418e-01 2.42095307e-01
      2.42095307e-01 2.27130577e-01 1.58093229e-01 1.95222393e-01
      6.72888905e-02 4.72088680e-02 3.57570276e-02 8.97002369e-02
      1.66321009e-01 2.01560915e-01 2.42095307e-01 2.42095307e-01
      2.31976584e-01 1.68215185e-01 1.94842488e-01 1.71001673e-01
      1.78324267e-01 1.31802380e-01 1.28990889e-01 1.92106366e-01
      2.18627065e-01 1.97737291e-01 2.31976584e-01 2.31976584e-01
      1.86798841e-01 8.81472901e-02 8.80136862e-02 6.21866249e-02
      8.75697285e-02 1.09988317e-01 2.31976584e-01 2.06265792e-01
      1.44889399e-01 7.50045776e-02 4.21992838e-02 3.77748348e-02
      6.08615391e-02 1.51912555e-01 2.31976584e-01 2.31976584e-01
      2.31976584e-01 1.98219463e-01 1.73307419e-01 6.20517917e-02
      9.20454413e-02 1.34135395e-01 9.60423350e-02 2.31976584e-01
      7.01032504e-02 1.09925874e-01 1.33973092e-01 1.09884195e-01
      2.05235407e-01 2.23690301e-01 1.10014215e-01 1.00090347e-01
      1.14079304e-01 1.19820490e-01 1.56164184e-01 2.23690301e-01
      2.10616082e-01 2.23690301e-01 2.23690301e-01 1.67717725e-01
      1.25329897e-01 1.58963382e-01 1.18508942e-01 1.26755968e-01
      8.14501420e-02 8.39362144e-02 1.23286717e-01 2.23690301e-01
      2.23690301e-01 1.67181328e-01 2.08400980e-01 2.03118399e-01
      1.66580781e-01 1.24560259e-01 7.36605451e-02 1.45820394e-01
      2.19078839e-01 1.77201048e-01 2.23690301e-01 2.23690301e-01
      1.01451531e-01 2.17960611e-01 2.44063184e-01 2.44063184e-01
      2.35079154e-01 1.51648849e-01 1.13892674e-01 8.34057480e-02
      1.02316424e-01 7.64196217e-02 1.37376323e-01 1.73151001e-01
      2.44063184e-01 2.44063184e-01 1.50637284e-01 9.31928754e-02
      5.87051511e-02 6.87422529e-02 2.36229599e-01 2.44063184e-01
      1.41442209e-01 1.53813392e-01 7.38690346e-02 6.95214942e-02
      7.93813691e-02 1.21880271e-01 2.44063184e-01 2.44063184e-01
      2.44063184e-01 1.85658619e-01 2.44063184e-01 1.54439166e-01
      5.81449233e-02 4.71272357e-02 1.82374697e-02 7.47797564e-02
      1.53903589e-01 1.27951995e-01 8.29490870e-02 1.42623544e-01
      7.84101337e-02 1.57104045e-01 2.04944417e-01 1.50031805e-01
      1.87155426e-01 2.03613967e-01 8.67782906e-02 5.50655723e-02
      6.25704005e-02 3.05416211e-02 1.15390472e-01 1.85365364e-01
      2.10016131e-01 2.28564173e-01 1.45436555e-01 1.96967319e-01
      1.68378130e-01 2.28564173e-01 2.28564173e-01 9.98535454e-02
      1.11321941e-01 1.64770976e-01 1.26161113e-01 2.28564173e-01
      1.60007641e-01 1.54311061e-01 1.46761134e-01 1.63265824e-01
      1.85437307e-01 2.28564173e-01 2.28564173e-01 2.28564173e-01
      2.28214189e-01 1.73482850e-01 1.31078199e-01 1.05403602e-01
      3.21307629e-02 6.71036541e-02 9.31774527e-02 1.36215597e-01
      2.28214189e-01 2.28214189e-01 2.28214189e-01 1.43213987e-01
      1.92626476e-01 7.30625466e-02 1.25722438e-01 1.67738855e-01
      1.30829111e-01 2.28214189e-01 2.28214189e-01 1.25337109e-01
      2.08301708e-01 1.39254317e-01 1.09162919e-01 1.55417800e-01
      2.03128099e-01 2.26354867e-01 2.28214189e-01 2.28214189e-01
      1.07949011e-01 1.20309144e-01 1.44873634e-01 1.00419424e-01
      9.99294296e-02 1.11934148e-01 1.64430782e-01 2.28214189e-01
      1.34960875e-01 1.33791789e-01 8.41578692e-02 8.87266323e-02
      5.15225194e-02 1.90001458e-01 2.45058611e-01 2.18461081e-01
      1.83496878e-01 2.45058611e-01 1.25774100e-01 8.85509700e-02
      6.48153573e-02 3.45084704e-02 1.12330481e-01 1.79590583e-01
      2.39613608e-01 2.45058611e-01 2.45058611e-01 1.10105775e-01
      7.47205764e-02 8.17157179e-02 4.90744375e-02 1.15958087e-01
      1.38420075e-01 1.44471586e-01 2.45058611e-01 2.45058611e-01
      1.28416553e-01 1.42066836e-01 1.71888486e-01 6.60341978e-02
      1.48513243e-01 2.43662909e-01 2.05760986e-01 2.45058611e-01
      2.42577627e-01 2.18180060e-01 1.02112293e-01 7.24606663e-02
      3.18823680e-02 4.75171655e-02 7.93952122e-02 1.18666708e-01
      2.42577627e-01 2.42577627e-01 2.42577627e-01 1.82795450e-01
      1.35080904e-01 7.99054280e-02 5.22618443e-02 5.30850142e-02
      5.84305003e-02 1.33035153e-01 2.42577627e-01 1.49862140e-01
      2.24671856e-01 1.82549879e-01 1.22005552e-01 1.05232172e-01
      1.68906897e-01 1.54070228e-01 2.42577627e-01 1.96715787e-01
      2.14651108e-01 2.14023754e-01 2.20348656e-01 2.42577627e-01
      1.15006059e-01 1.00418516e-01 8.76535997e-02 1.39315113e-01</_>
    <_>
      1.23150468e-01 1.20422862e-01 1.38743699e-01 1.08983934e-01
      1.26796886e-01 1.04898632e-01 1.24251857e-01 1.66824743e-01
      1.22913226e-01 1.58263355e-01 1.97389573e-01 1.91682383e-01
      1.74174905e-01 1.76468447e-01 1.42960072e-01 1.17760710e-01
      2.38430128e-01 1.18779987e-01 1.96127668e-01 2.38430128e-01
      2.38430128e-01 1.68457583e-01 1.31900549e-01 1.66328311e-01
      1.07855506e-01 2.01196909e-01 1.47185579e-01 2.29116991e-01
      2.38430128e-01 2.38430128e-01 1.14381984e-01 1.09639823e-01
      8.07646215e-02 1.09901831e-01 2.38075346e-01 1.33836299e-01
      1.79700628e-01 2.37581015e-01 1.97563007e-01 1.03458948e-01
      9.98418406e-02 1.51335225e-01 7.73508698e-02 1.38937175e-01
      1.49242714e-01 2.76139408e-01 2.76139408e-01 2.27670342e-01
      1.19631015e-01 1.10341206e-01 1.46645710e-01 6.93279505e-02
      9.55744162e-02 1.57032117e-01 2.08988309e-01 2.76139408e-01
      2.76139408e-01 6.57886416e-02 3.83983813e-02 6.04264177e-02
      6.15085252e-02 9.06744674e-02 1.15444086e-01 2.53930032e-01
      2.76139408e-01 2.76139408e-01 1.01942748e-01 8.33101645e-02
      7.05861598e-02 5.86998053e-02 3.31305526e-02 1.12217821e-01
      2.50705272e-01 2.50705272e-01 1.39949962e-01 9.30147246e-02
      7.48229176e-02 6.06118664e-02 6.24289438e-02 9.56727266e-02
      2.39653319e-01 2.50705272e-01 1.03817031e-01 4.62152325e-02
      4.75087203e-02 2.27440655e-01 2.06501782e-01 1.28433973e-01
      1.71405718e-01 2.50705272e-01 2.17450306e-01 2.50705272e-01
      2.50705272e-01 7.50645027e-02 1.43763632e-01 1.74944162e-01
      1.11327246e-01 5.26546650e-02 1.44530639e-01 6.41810745e-02
      1.01095714e-01 1.04752138e-01 6.66376203e-02 2.50705272e-01
      2.50705272e-01 1.90501958e-01 1.19011015e-01 1.03927821e-01
      1.98644906e-01 8.74608606e-02 8.89796540e-02 9.13188905e-02
      2.46637657e-01 2.46637657e-01 1.25189736e-01 1.18076764e-01
      1.43303186e-01 1.85725614e-01 1.51600614e-01 1.71627566e-01
      1.88833043e-01 2.01076210e-01 1.17246255e-01 7.89922774e-02
      8.39628801e-02 1.12355433e-01 8.91456753e-02 1.78372324e-01
      1.14991955e-01 1.21590137e-01 2.46637657e-01 2.46637657e-01
      1.22163102e-01 1.04365550e-01 7.57826790e-02 2.19748512e-01
      2.46637657e-01 1.65904537e-01 2.39647120e-01 2.46637657e-01
      1.67448223e-01 7.45442063e-02 1.23709992e-01 1.86765820e-01
      2.66081244e-01 2.66081244e-01 2.66081244e-01 1.41580388e-01
      8.07860047e-02 1.05147600e-01 6.63942769e-02 1.20228827e-01
      1.16069160e-01 2.66081244e-01 2.66081244e-01 2.66081244e-01
      1.45400405e-01 7.39241615e-02 4.29453254e-02 5.78463189e-02
      6.60045817e-02 9.73877013e-02 1.89907104e-01 2.66081244e-01
      2.11704075e-01 1.00526556e-01 4.88295481e-02 3.28060538e-02
      6.41810596e-02 4.09002453e-02 6.59107342e-02 2.66081244e-01
      2.66081244e-01 2.39615053e-01 2.05388874e-01 9.57325846e-02
      5.20106927e-02 7.52423555e-02 3.91069166e-02 1.45950511e-01
      2.33564496e-01 2.75957137e-01 2.75957137e-01 9.70293358e-02
      3.81393693e-02 2.53262315e-02 2.33332515e-02 1.71448048e-02
      6.93681315e-02 2.75957137e-01 2.75957137e-01 2.75957137e-01
      9.65617225e-02 1.19665280e-01 6.65466785e-02 4.43287604e-02
      1.86557304e-02 1.47327468e-01 2.75957137e-01 2.23825663e-01
      1.52015924e-01 1.56041905e-01 5.51196188e-02 2.85708699e-02
      2.73865908e-02 1.83873791e-02 1.97090864e-01 2.75957137e-01
      2.75957137e-01 1.58375457e-01 1.04120612e-01 8.74554068e-02
      3.44883986e-02 3.59518565e-02 2.58747526e-02 2.75957137e-01
      2.19753444e-01 2.47837290e-01 2.47837290e-01 1.01331338e-01
      2.47837290e-01 2.47837290e-01 7.51786903e-02 3.07645835e-02
      1.96499363e-01 4.59118336e-02 1.00331843e-01 1.12160489e-01
      1.07987627e-01 2.47837290e-01 2.47837290e-01 1.40387908e-01
      7.59489164e-02 7.80493319e-02 2.47837290e-01 1.80923626e-01
      1.08243972e-01 1.27628610e-01 2.26959884e-01 1.17947586e-01
      5.74686266e-02 4.69261296e-02 2.47837290e-01 1.25741914e-01
      7.61283562e-02 1.43129408e-01 1.84190556e-01 2.13914707e-01
      2.14397803e-01 1.25687882e-01 5.68427704e-02 1.26264811e-01
      6.19716495e-02 1.45169020e-01 1.13757849e-01 8.46172869e-02
      2.28934273e-01 2.28934273e-01 2.06089124e-01 1.05702326e-01
      7.10406601e-02 2.22164646e-01 2.28934273e-01 1.56961009e-01
      1.36116639e-01 1.94748402e-01 1.75395384e-01 1.88964456e-01
      1.66597039e-01 2.03797832e-01 1.28037408e-01 7.18893930e-02
      1.00569971e-01 9.95522663e-02 1.12487569e-01 2.18360767e-01
      2.28934273e-01 9.89216268e-02 1.19715527e-01 2.28934273e-01
      2.03165367e-01 1.28389418e-01 7.52502233e-02 8.09094682e-02
      1.42349198e-01 2.28934273e-01 2.11303011e-01 2.28934273e-01
      2.76152104e-01 1.30663350e-01 5.07743284e-02 5.20327240e-02
      4.28287610e-02 2.84192543e-02 5.46221510e-02 4.67331484e-02
      2.35461265e-01 2.90535182e-01 1.31608948e-01 7.82702938e-02
      7.52277449e-02 7.21243471e-02 3.27838846e-02 5.45251966e-02
      5.26617467e-02 2.90535182e-01 2.90535182e-01 1.44056618e-01
      1.83708906e-01 1.52611986e-01 1.21830769e-01 1.33326843e-01
      1.58560574e-01 1.09443687e-01 2.90535182e-01 2.90535182e-01
      1.95018262e-01 1.29772723e-01 1.01603165e-01 1.53758496e-01
      9.26323980e-02 1.12786241e-01 1.73101246e-01 2.90535182e-01
      2.65157431e-01 1.30198628e-01 5.74183241e-02 6.07130975e-02
      4.24768217e-02 3.37588079e-02 4.61440124e-02 4.80544567e-02
      2.65157431e-01 2.65157431e-01 1.69195220e-01 5.43758571e-02
      5.82475029e-02 5.67307845e-02 5.72749004e-02 4.63072062e-02
      5.88327274e-02 2.65157431e-01 2.65157431e-01 1.67541981e-01
      1.29101858e-01 9.22136083e-02 1.33373126e-01 9.05559510e-02
      1.08176149e-01 1.45374209e-01 2.65157431e-01 2.65157431e-01
      2.50205129e-01 1.54938191e-01 1.71424896e-01 2.07958117e-01
      1.81591526e-01 1.72414854e-01 1.49916932e-01 2.65157431e-01
      2.40527794e-01 1.47571325e-01 5.39296381e-02 6.83717951e-02
      9.26168561e-02 1.02736868e-01 5.61623760e-02 8.68035555e-02
      2.40527794e-01 1.47766158e-01 7.76969641e-02 9.11101177e-02
      1.30781844e-01 1.29945219e-01 1.24170996e-01 9.92954224e-02
      7.80943558e-02 1.10765733e-01 2.40527794e-01 2.25560725e-01
      8.82164910e-02 1.17342703e-01 2.40527794e-01 2.40527794e-01
      2.40527794e-01 1.83503851e-01 2.07409546e-01 2.40527794e-01
      1.68561712e-01 8.57818052e-02 1.02965273e-01 2.40527794e-01
      2.40527794e-01 2.40527794e-01 1.78546309e-01 1.36733443e-01
      9.61577594e-02 5.42149097e-02 9.32243839e-02 1.14064842e-01
      1.30655274e-01 9.52157974e-02 1.08389519e-01 6.26866370e-02
      1.30672738e-01 2.49962240e-01 1.36971682e-01 1.16325244e-01
      5.44424653e-02 8.90324861e-02 9.00092795e-02 1.32705569e-01
      1.33615464e-01 2.49962240e-01 2.49962240e-01 1.71943277e-01
      1.71614230e-01 1.62781209e-01 2.49962240e-01 2.17930630e-01
      9.80515629e-02 9.05221924e-02 1.48776114e-01 2.49962240e-01
      1.44839808e-01 1.90499216e-01 1.98613316e-01 2.49962240e-01
      2.49962240e-01 1.55598968e-01 1.55723095e-01 2.49962240e-01
      1.77518606e-01 1.62049830e-01 1.85748786e-01 1.47859544e-01
      1.46977097e-01 1.91865027e-01 1.66436478e-01 1.17197484e-01
      1.69768125e-01 2.03666881e-01 2.09499002e-01 1.76389545e-01
      1.44025192e-01 1.68071568e-01 1.99575186e-01 1.52185872e-01
      1.30369291e-01 2.09499002e-01 1.83663607e-01 1.78125769e-01
      1.43304467e-01 7.80138969e-02 1.41139001e-01 2.05411553e-01
      1.72533318e-01 1.18223481e-01 9.77982134e-02 2.09499002e-01
      2.09499002e-01 2.09499002e-01 1.08466648e-01 1.11700028e-01
      2.09499002e-01 1.72425061e-01 1.12018697e-01 1.27114296e-01
      2.02768743e-01 1.71596169e-01 1.34980351e-01 1.33990780e-01
      1.51136309e-01 1.60090968e-01 1.38504222e-01 1.28513545e-01
      1.64309353e-01 2.17318714e-01 2.02264547e-01 1.48418039e-01
      2.00328588e-01 1.74131855e-01 1.61562413e-01 1.58191428e-01
      1.51222065e-01 2.20011503e-01 2.29755208e-01 1.52923778e-01
      1.30646512e-01 9.97112393e-02 5.54785505e-02 1.33208841e-01
      1.55642375e-01 1.34128690e-01 2.21543238e-01 2.29755208e-01
      2.29755208e-01 1.34351030e-01 1.19556665e-01 7.08863363e-02
      1.09828964e-01 1.45388409e-01 1.80410191e-01 2.29755208e-01
      1.32496357e-01 1.36061981e-01 8.70044157e-02 8.67099836e-02
      1.94603533e-01 2.18000039e-01 2.05342576e-01 1.55046970e-01
      1.22731596e-01 2.18000039e-01 1.41117707e-01 1.70111582e-01
      6.61772266e-02 2.12870017e-01 2.18000039e-01 1.93524808e-01
      1.19773529e-01 1.04518913e-01 2.18000039e-01 2.04714268e-01
      1.30767778e-01 6.48650229e-02 1.23259813e-01 1.25572875e-01
      1.48836970e-01 1.37787059e-01 2.18000039e-01 2.18000039e-01
      1.17685325e-01 2.05496565e-01 7.38097355e-02 1.63107529e-01
      2.18000039e-01 1.99636102e-01 1.50886834e-01 2.18000039e-01
      2.19306663e-01 1.68650821e-01 1.75388873e-01 1.33138299e-01
      2.19306663e-01 2.19306663e-01 8.73082131e-02 5.26157357e-02
      7.79618546e-02 2.05408230e-01 9.47748646e-02 1.19383126e-01
      1.86834604e-01 2.19306663e-01 2.19306663e-01 1.59511998e-01
      1.21262006e-01 1.41122207e-01 1.38749674e-01 7.97423273e-02
      1.44975513e-01 1.26723498e-01 1.25948414e-01 2.19306663e-01
      2.19306663e-01 1.74665242e-01 1.62183210e-01 1.61208659e-01
      7.03904629e-02 7.77518824e-02 1.33013725e-01 1.57855481e-01
      2.19306663e-01 2.19306663e-01 2.19306663e-01 2.19306663e-01</_>
    <_>
      9.79105905e-02 1.45347327e-01 1.25400513e-01 1.40390992e-01
      2.01636225e-01 1.10061198e-01 1.36810407e-01 1.57657951e-01
      1.29732013e-01 1.29172355e-01 1.43911585e-01 1.31058171e-01
      1.90873653e-01 1.38614893e-01 1.51389867e-01 2.32990369e-01
      2.24667117e-01 2.13490888e-01 1.57073945e-01 2.15007529e-01
      1.72536090e-01 9.54337344e-02 1.35343716e-01 1.50571674e-01
      1.28676414e-01 1.88599065e-01 2.32990369e-01 2.32990369e-01
      2.32990369e-01 1.57441139e-01 1.26040071e-01 1.10848799e-01
      1.43234059e-01 1.70319840e-01 1.11157656e-01 2.32990369e-01
      1.40639260e-01 1.51148856e-01 8.79915208e-02 1.83236405e-01
      8.90332982e-02 7.17619285e-02 2.00010449e-01 1.88182279e-01
      2.31344566e-01 2.31344566e-01 1.54196188e-01 1.11775272e-01
      1.48489505e-01 1.55207828e-01 6.76740929e-02 1.71497628e-01
      1.91873208e-01 2.31344566e-01 2.31344566e-01 2.18093708e-01
      9.73813534e-02 1.32810950e-01 7.96082914e-02 6.45016432e-02
      1.55419916e-01 1.23366125e-01 2.31344566e-01 2.31344566e-01
      1.53207377e-01 9.64627936e-02 1.46403909e-01 1.13617435e-01
      8.26139078e-02 2.12998435e-01 2.31344566e-01 2.31344566e-01
      2.20103458e-01 1.65393069e-01 9.29060131e-02 1.62185192e-01
      1.52989253e-01 1.05769210e-01 1.43772691e-01 1.24441817e-01
      1.88733026e-01 2.20103458e-01 1.92228317e-01 1.18419014e-01
      1.64685100e-01 1.07711911e-01 9.26319808e-02 1.40545070e-01
      1.51656777e-01 2.20103458e-01 2.20103458e-01 1.08673066e-01
      8.53558183e-02 2.20103458e-01 1.76538870e-01 1.35708630e-01
      2.07322717e-01 1.56737894e-01 1.73070133e-01 2.06829265e-01
      1.84964925e-01 1.49641633e-01 2.20103458e-01 1.86602429e-01
      1.39733717e-01 1.79418176e-01 1.39796048e-01 1.60599291e-01
      2.24931315e-01 1.95755750e-01 1.31398126e-01 1.13413125e-01
      1.00619778e-01 8.08944404e-02 1.29225448e-01 1.37315184e-01
      1.83235198e-01 1.41193897e-01 1.78041741e-01 9.62961242e-02
      8.41586292e-02 1.35076746e-01 1.34199694e-01 2.24931315e-01
      1.84547603e-01 2.24931315e-01 2.24931315e-01 2.05646843e-01
      1.09477706e-01 1.16457820e-01 1.84338540e-01 1.36034578e-01
      1.02741838e-01 1.17279552e-01 2.07276911e-01 2.24931315e-01
      2.24931315e-01 1.31905645e-01 8.84278417e-02 1.81535959e-01
      2.17141926e-01 2.00939789e-01 1.33205533e-01 2.24931315e-01
      2.25439563e-01 2.26084858e-01 1.69684976e-01 1.30344927e-01
      1.77342325e-01 1.39661208e-01 6.36590496e-02 8.29857290e-02
      2.58685112e-01 2.58685112e-01 2.10483760e-01 1.05979264e-01
      6.84081167e-02 6.94355369e-02 7.72450268e-02 6.55898601e-02
      6.43663704e-02 2.58685112e-01 1.86882570e-01 1.38729230e-01
      1.25066698e-01 2.10570902e-01 2.58685112e-01 1.73523575e-01
      5.79107814e-02 5.01722246e-02 9.01533812e-02 2.58685112e-01
      2.17984989e-01 1.12242721e-01 1.26712188e-01 2.58685112e-01
      1.16058551e-01 5.87229542e-02 6.76292032e-02 2.25652426e-01
      2.53287047e-01 1.67340279e-01 7.16055334e-02 4.88476567e-02
      5.59111424e-02 5.60545474e-02 8.34333971e-02 1.14433259e-01
      2.53287047e-01 2.53287047e-01 1.34240687e-01 6.53146207e-02
      9.17507336e-02 1.55793801e-01 9.02394280e-02 1.41252726e-01
      2.36434653e-01 2.53287047e-01 2.53287047e-01 1.42287612e-01
      1.13291413e-01 1.16918527e-01 2.34643802e-01 1.05816334e-01
      1.21450767e-01 1.57360554e-01 2.53287047e-01 9.49813649e-02
      1.01844452e-01 1.47250369e-01 1.52180970e-01 2.53287047e-01
      1.67715296e-01 1.55042753e-01 1.72459498e-01 2.21161053e-01
      2.01131061e-01 9.34151188e-02 5.78815266e-02 1.80269837e-01
      2.29346424e-01 1.21471271e-01 1.87924668e-01 1.39429733e-01
      1.69441491e-01 1.79349139e-01 1.19186766e-01 7.71149322e-02
      1.82258844e-01 2.29346424e-01 1.79627895e-01 2.29346424e-01
      1.61774650e-01 1.78429529e-01 3.66304405e-02 1.07994214e-01
      1.11021273e-01 1.86374754e-01 2.29346424e-01 1.68760732e-01
      1.95191056e-01 9.26036239e-02 8.51153806e-02 1.52377442e-01
      1.29137054e-01 1.27168953e-01 2.27537394e-01 2.29346424e-01
      1.93070352e-01 2.09084615e-01 1.57054141e-01 1.40298694e-01
      1.83463901e-01 1.17195956e-01 3.77869494e-02 9.84829813e-02
      2.50507444e-01 2.31519833e-01 1.35518774e-01 9.36453640e-02
      1.67298526e-01 2.47471154e-01 1.62745163e-01 7.06667826e-02
      1.23827338e-01 2.50507444e-01 2.50507444e-01 1.15137808e-01
      6.70105442e-02 2.40649253e-01 1.28661662e-01 8.33855867e-02
      1.24234453e-01 1.81301385e-01 2.50507444e-01 2.33973384e-01
      1.26703456e-01 1.55121759e-01 1.13412037e-01 5.78678027e-02
      6.22151569e-02 1.28974065e-01 2.31016576e-01 2.50507444e-01
      2.27809682e-01 1.05885357e-01 9.65905562e-02 5.97659163e-02
      8.58278722e-02 7.67291933e-02 1.07152589e-01 2.02003732e-01
      3.01749736e-01 1.27814218e-01 5.02010509e-02 4.81387936e-02
      4.87847961e-02 1.90297276e-01 1.86701819e-01 1.42337978e-01
      2.29867667e-01 3.01749736e-01 1.44968316e-01 1.31376132e-01
      8.19194019e-02 8.34246650e-02 8.97222832e-02 4.90837954e-02
      9.42912996e-02 2.26593539e-01 3.01749736e-01 1.23909906e-01
      6.83325827e-02 4.11668941e-02 1.00502379e-01 1.04017839e-01
      1.55171096e-01 1.74592048e-01 3.01749736e-01 3.01749736e-01
      1.61634833e-01 1.96483940e-01 1.29597425e-01 8.41956660e-02
      1.28428966e-01 1.10491201e-01 1.35682330e-01 1.62103623e-01
      2.38162085e-01 1.63195655e-01 1.95501044e-01 1.23080529e-01
      9.56319943e-02 3.21888365e-02 6.28125817e-02 1.05482958e-01
      1.49358615e-01 2.38162085e-01 2.14729324e-01 1.75957382e-01
      1.26078516e-01 9.63274688e-02 5.42480238e-02 1.14557050e-01
      1.86386764e-01 2.38162085e-01 2.38162085e-01 2.38162085e-01
      2.38162085e-01 1.64887324e-01 5.17639741e-02 2.51773484e-02
      5.96612282e-02 8.93089771e-02 1.55377999e-01 2.38162085e-01
      2.38162085e-01 2.38162085e-01 2.29753032e-01 1.18992962e-01
      2.06619222e-02 9.14232507e-02 8.17708299e-02 1.25088543e-01
      2.38901243e-01 1.75741225e-01 2.38901243e-01 1.66050375e-01
      7.95907080e-02 1.78137362e-01 1.99244797e-01 1.66224882e-01
      1.49684787e-01 1.94628328e-01 1.13025129e-01 2.38901243e-01
      2.38901243e-01 1.46944284e-01 4.61089760e-02 2.85225641e-02
      3.66283879e-02 5.23782074e-02 1.11690030e-01 1.36824861e-01
      2.38901243e-01 2.38901243e-01 1.61191002e-01 2.38901243e-01
      1.99551955e-01 1.41019553e-01 6.70135990e-02 5.32522798e-02
      7.75319412e-02 2.38901243e-01 2.38901243e-01 2.38901243e-01
      1.86373308e-01 2.17362493e-01 2.31525227e-01 1.87257305e-01
      2.31525227e-01 1.31223336e-01 8.06652680e-02 1.81147888e-01
      1.10481627e-01 8.14315379e-02 1.16551965e-01 2.24834904e-01
      2.31525227e-01 2.31525227e-01 1.28330797e-01 6.28561974e-02
      8.56890008e-02 4.17378172e-02 2.31525227e-01 2.31525227e-01
      2.13944063e-01 1.67361990e-01 8.81640092e-02 6.52405620e-02
      9.47988033e-02 1.69597641e-01 1.61689818e-01 1.77867711e-01
      2.05980927e-01 2.31525227e-01 2.31525227e-01 1.91231921e-01
      7.09997863e-02 8.38228986e-02 6.08514547e-02 8.17321911e-02
      1.61249518e-01 8.59598815e-02 1.03240535e-01 1.35637000e-01
      2.15548426e-01 9.74675864e-02 1.15373246e-01 9.66713578e-02
      1.65929481e-01 1.10805340e-01 2.09148377e-01 1.76426083e-01
      2.15548426e-01 2.15548426e-01 1.47220120e-01 1.74033463e-01
      1.33374825e-01 1.09577246e-01 1.81289181e-01 1.16080016e-01
      1.50170028e-01 1.21236481e-01 2.15548426e-01 1.84105173e-01
      2.15548426e-01 1.52875870e-01 1.38467044e-01 1.36971295e-01
      2.15548426e-01 2.04195440e-01 1.54956773e-01 1.74574494e-01
      2.15548426e-01 2.15548426e-01 1.89040959e-01 1.56227633e-01
      3.76064777e-02 1.45080954e-01 1.56344652e-01 1.81293473e-01
      1.88369945e-01 2.09043011e-01 2.13454008e-01 1.47019148e-01
      8.25181231e-02 3.27051729e-02 1.17378026e-01 1.32533565e-01
      1.11896046e-01 1.43622294e-01 2.13454008e-01 2.13454008e-01
      2.13454008e-01 2.05503136e-01 8.02281201e-02 1.61832541e-01
      1.83729038e-01 1.33027703e-01 1.49329051e-01 1.85802758e-01
      1.14138573e-01 1.55467838e-01 1.35885552e-01 4.91173230e-02
      1.83898851e-01 2.13454008e-01 1.70888528e-01 2.12786153e-01
      2.13454008e-01 1.75835401e-01 2.13454008e-01 2.13454008e-01
      9.59533677e-02 7.16718286e-02 8.36580172e-02 5.47204055e-02
      7.15600699e-02 1.76220521e-01 2.17971057e-01 2.27797672e-01
      2.38988146e-01 2.38988146e-01 1.16271041e-01 5.85080385e-02
      5.28239720e-02 5.39733954e-02 1.00656681e-01 1.04709551e-01
      1.55270666e-01 2.38988146e-01 1.77560300e-01 1.84934005e-01
      1.67417109e-01 1.28429338e-01 1.81651711e-01 2.38988146e-01
      1.93828791e-01 1.85154945e-01 2.38988146e-01 2.38988146e-01
      2.38988146e-01 6.96782693e-02 7.72074759e-02 1.42868593e-01
      1.46827772e-01 1.56807169e-01 1.43000841e-01 2.38988146e-01
      2.34517291e-01 2.10110605e-01 1.17754221e-01 1.08608454e-01
      3.49667147e-02 6.66970536e-02 5.49757369e-02 7.01454729e-02
      1.74500048e-01 2.34517291e-01 2.34517291e-01 2.34517291e-01
      2.34517291e-01 8.20796862e-02 1.08236097e-01 5.97273707e-02
      4.65675779e-02 1.22318536e-01 2.34517291e-01 2.34517291e-01
      1.04780480e-01 7.90098980e-02 1.14404157e-01 1.28893271e-01
      1.66979432e-01 1.17060862e-01 2.23679721e-01 1.95427522e-01
      2.34517291e-01 2.34517291e-01 1.86152294e-01 2.01384276e-01
      2.34517291e-01 1.35977447e-01 9.34199318e-02 1.24465436e-01</_>
    <_>
      8.87431577e-02 1.69069216e-01 1.28301993e-01 2.27010444e-01
      1.82376891e-01 2.19682202e-01 1.77562878e-01 1.25558421e-01
      1.14119470e-01 1.69849664e-01 1.69576839e-01 1.08852945e-01
      1.73664242e-01 1.74014360e-01 1.49500564e-01 2.11477354e-01
      2.26214379e-01 2.27010444e-01 7.16081038e-02 8.63679796e-02
      1.58675820e-01 2.27010444e-01 2.27010444e-01 2.27010444e-01
      2.05174968e-01 5.14521822e-02 5.11677898e-02 1.20582253e-01
      8.48979652e-02 1.38718262e-01 2.27010444e-01 2.27010444e-01
      1.45675346e-01 1.25661850e-01 1.23428330e-01 1.25421166e-01
      1.24854118e-01 7.89672956e-02 9.11349505e-02 9.85018238e-02
      1.35186508e-01 1.28947705e-01 2.18678579e-01 2.18678579e-01
      1.92881823e-01 1.70438200e-01 1.39830381e-01 2.18678579e-01
      1.51396349e-01 1.00270890e-01 6.76568672e-02 1.43665612e-01
      2.18678579e-01 2.18678579e-01 1.33670375e-01 5.81479445e-02
      1.12092666e-01 1.81699336e-01 2.18678579e-01 1.21475704e-01
      1.93474934e-01 2.18678579e-01 1.52090669e-01 1.53419122e-01
      9.47363377e-02 2.18678579e-01 2.18678579e-01 2.18678579e-01
      9.13431719e-02 1.49106637e-01 2.18678579e-01 2.18678579e-01
      1.48304701e-01 9.94507149e-02 1.46073505e-01 1.23822048e-01
      9.83789936e-02 9.21984389e-02 1.56510919e-01 2.15520635e-01
      2.21299365e-01 1.53881744e-01 8.85453150e-02 4.79164533e-02
      1.11747272e-01 1.70388803e-01 2.15634704e-01 2.21299365e-01
      1.65714398e-01 1.74480155e-01 1.56306848e-01 6.65506721e-02
      2.19135940e-01 2.21299365e-01 2.21299365e-01 1.20460398e-01
      1.23133115e-01 1.10140920e-01 2.21299365e-01 2.21299365e-01
      8.14290345e-02 1.09749757e-01 1.54866472e-01 2.21299365e-01
      2.21299365e-01 2.21299365e-01 9.71534103e-02 2.20971093e-01
      1.07571140e-01 7.95573145e-02 6.22568578e-02 1.08526953e-01
      2.28454262e-01 2.45241597e-01 2.03658924e-01 1.09840631e-01
      1.42400056e-01 2.02736005e-01 6.02233745e-02 7.00082034e-02
      1.01640880e-01 2.45241597e-01 2.45241597e-01 1.42147616e-01
      1.98015571e-01 2.45241597e-01 1.80954188e-01 1.02490321e-01
      1.05487645e-01 1.14707172e-01 2.45241597e-01 2.45241597e-01
      2.45241597e-01 8.59745368e-02 1.09895498e-01 9.03134197e-02
      5.49574345e-02 1.00924462e-01 1.29249617e-01 2.45241597e-01
      2.45241597e-01 1.98904574e-01 7.44558722e-02 8.44851583e-02
      7.17702731e-02 5.73155098e-02 9.77845266e-02 2.62832820e-01
      2.62832820e-01 1.90821826e-01 1.29991636e-01 6.51242882e-02
      6.59612417e-02 6.13330081e-02 4.26543690e-02 9.28812847e-02
      2.44390652e-01 2.62832820e-01 2.53155142e-01 1.24472238e-01
      6.24482259e-02 6.91235438e-02 8.75345394e-02 7.05898851e-02
      1.15596794e-01 2.62832820e-01 2.62832820e-01 2.62832820e-01
      2.62832820e-01 1.27964169e-01 5.61181828e-02 3.27610597e-02
      3.07741091e-02 2.95666903e-02 1.38476118e-01 2.62832820e-01
      2.62832820e-01 2.04163060e-01 1.36181459e-01 7.56252557e-02
      1.64470911e-01 7.06754625e-02 1.01741433e-01 1.47933647e-01
      2.22778231e-01 1.87335297e-01 2.10614607e-01 1.46906093e-01
      1.57267690e-01 1.89937621e-01 1.05044127e-01 2.14495614e-01
      2.22778231e-01 2.22778231e-01 1.11095771e-01 1.77958459e-01
      1.20901324e-01 1.22724406e-01 1.68749973e-01 1.00260071e-01
      6.49984404e-02 6.98617324e-02 1.38837531e-01 1.86049372e-01
      2.22778231e-01 1.77651286e-01 1.60578907e-01 2.22778231e-01
      1.80249527e-01 2.22778231e-01 2.22778231e-01 2.21837163e-01
      6.24845102e-02 1.62782460e-01 9.00028199e-02 1.20125771e-01
      8.50213021e-02 4.66851033e-02 1.32964328e-01 2.38157690e-01
      2.46514559e-01 2.12005496e-01 9.38807875e-02 3.46036889e-02
      6.42757416e-02 1.89865291e-01 1.17216617e-01 1.35704845e-01
      1.44324079e-01 2.46514559e-01 2.46514559e-01 2.12843910e-01
      7.63144642e-02 1.35484993e-01 7.81864077e-02 7.61938468e-02
      1.19920000e-01 1.55322105e-01 2.46514559e-01 2.21125782e-01
      1.19737774e-01 7.29595274e-02 7.95526654e-02 1.28413454e-01
      1.60529673e-01 7.96694085e-02 4.64501008e-02 2.46514559e-01
      2.46514559e-01 2.46514559e-01 2.46514559e-01 1.84104934e-01
      1.68959811e-01 1.48640096e-01 1.63295224e-01 1.58110544e-01
      2.42931634e-01 2.13691324e-01 1.52701944e-01 6.23249896e-02
      1.09875679e-01 8.01467299e-02 7.65284225e-02 1.56325147e-01
      2.32159704e-01 2.42931634e-01 1.88139483e-01 9.61815864e-02
      3.06716170e-02 4.68201414e-02 2.42931634e-01 2.42931634e-01
      2.18638644e-01 1.07795596e-01 1.75900728e-01 1.48065343e-01
      1.86732352e-01 1.33928031e-01 1.31956205e-01 1.64736792e-01
      1.84484556e-01 2.42931634e-01 2.42931634e-01 2.42931634e-01
      9.87948328e-02 5.35105281e-02 2.10941639e-02 4.55445684e-02
      3.72634567e-02 4.62371260e-02 1.17577352e-01 1.28584445e-01
      2.27561787e-01 2.27561787e-01 2.27561787e-01 1.95250615e-01
      7.56633729e-02 4.93956171e-02 3.75725515e-02 2.42145862e-02
      5.59867397e-02 1.35654241e-01 2.27561787e-01 2.07671210e-01
      1.83681130e-01 9.32090506e-02 1.24168277e-01 1.85082838e-01
      2.01996326e-01 1.10048838e-01 2.07041219e-01 2.27561787e-01
      2.11660519e-01 2.27561787e-01 1.72588736e-01 1.75648168e-01
      1.10866815e-01 7.16558322e-02 5.99776991e-02 1.36767954e-01
      2.27561787e-01 2.27561787e-01 2.27561787e-01 2.27561787e-01
      1.31163135e-01 1.57259479e-01 8.48970860e-02 5.94157316e-02
      3.89311500e-02 6.89181536e-02 1.17692113e-01 1.21370584e-01
      1.23743556e-01 1.40351325e-01 2.56612480e-01 2.56612480e-01
      2.25524157e-01 9.45165604e-02 6.96575716e-02 7.68076256e-02
      5.00888489e-02 8.76338705e-02 2.56612480e-01 2.28884116e-01
      1.78924531e-01 1.00042462e-01 8.22778866e-02 1.29900008e-01
      1.95725188e-01 2.56597847e-01 2.56612480e-01 2.38744467e-01
      2.56612480e-01 2.56612480e-01 2.56612480e-01 7.44688734e-02
      1.16609223e-01 1.15667343e-01 1.05377890e-01 1.01930626e-01
      7.07189217e-02 1.12786286e-01 2.18932584e-01 1.81399599e-01
      1.37356877e-01 2.12971136e-01 1.30020246e-01 1.14886373e-01
      9.09151137e-02 1.24689661e-01 9.83086973e-02 5.51016293e-02
      7.98056498e-02 1.02212608e-01 2.02841446e-01 2.06517041e-01
      2.18932584e-01 1.43593282e-01 1.22061461e-01 2.18932584e-01
      2.18932584e-01 2.18932584e-01 1.30721971e-01 2.18932584e-01
      1.79955989e-01 2.14406848e-01 7.63915852e-02 1.51238725e-01
      1.46190688e-01 1.87868565e-01 1.15046240e-01 1.24301299e-01
      2.18932584e-01 1.98309109e-01 2.18932584e-01 2.18932584e-01
      2.09724262e-01 1.86243892e-01 1.38544589e-01 7.76041970e-02
      4.63393293e-02 8.94975215e-02 1.02739781e-01 1.03167579e-01
      9.99141559e-02 1.81376800e-01 2.31268734e-01 2.45315626e-01
      2.45315626e-01 1.81581393e-01 1.06206127e-01 5.62476516e-02
      1.47527121e-02 3.75881605e-02 2.26635560e-01 1.92466483e-01
      2.45315626e-01 1.30931675e-01 1.04734622e-01 1.34061754e-01
      8.33593532e-02 8.49536136e-02 2.14552835e-01 2.44240806e-01
      2.45315626e-01 2.45315626e-01 2.45315626e-01 1.68776467e-01
      2.11421102e-01 1.35177314e-01 4.34572510e-02 9.01326165e-02
      1.55645341e-01 2.12283283e-01 1.37978554e-01 6.09728284e-02
      2.12259933e-01 1.81396648e-01 1.19015940e-01 1.40702143e-01
      1.52664602e-01 1.93240345e-01 1.44050121e-01 9.36407447e-02
      1.03094220e-01 2.05228388e-01 1.95703551e-01 1.84678018e-01
      2.07940266e-01 2.01501891e-01 2.12283283e-01 1.85157463e-01
      1.04117423e-01 1.02578856e-01 2.12283283e-01 1.65080458e-01
      1.95396647e-01 1.07538119e-01 1.04987875e-01 2.12283283e-01
      2.12283283e-01 1.34503961e-01 1.86864108e-01 2.12283283e-01
      1.39315531e-01 1.64553091e-01 1.19446106e-01 1.09547891e-01
      2.10166529e-01 1.42796040e-01 1.54208422e-01 1.42406955e-01
      1.52706057e-01 2.06102803e-01 1.72894761e-01 2.23135591e-01
      2.23135591e-01 2.23135591e-01 2.23135591e-01 2.23135591e-01
      1.93265751e-01 7.48277903e-02 1.25139996e-01 1.20493218e-01
      1.25412032e-01 1.52981818e-01 2.23135591e-01 2.23135591e-01
      1.20048605e-01 1.83513820e-01 1.70745179e-01 1.28988191e-01
      1.13879181e-01 1.25741526e-01 1.89184666e-01 2.23135591e-01
      1.84605300e-01 1.34168342e-01 8.48833546e-02 4.14651521e-02
      6.69069737e-02 5.73577136e-02 7.66177475e-02 2.23135591e-01
      1.39271930e-01 1.62009135e-01 2.34900743e-01 1.84847638e-01
      1.13094456e-01 1.49916410e-01 1.53833300e-01 1.87337369e-01
      9.01910961e-02 1.31361380e-01 1.37581855e-01 2.34900743e-01
      1.07382551e-01 1.49266735e-01 2.34900743e-01 2.01595426e-01
      2.34900743e-01 2.34900743e-01 2.34900743e-01 6.70132190e-02
      6.81407899e-02 5.30854538e-02 4.25797477e-02 7.18743131e-02
      8.26949403e-02 1.08701743e-01 2.34900743e-01 1.36206761e-01
      4.64214981e-02 1.64899543e-01 7.07961470e-02 8.70917812e-02
      2.34900743e-01 2.34900743e-01 2.34900743e-01 2.34900743e-01
      1.34488419e-01 1.27359748e-01 2.13077903e-01 1.12670600e-01
      1.19607337e-01 1.55627981e-01 9.68141258e-02 9.35099572e-02
      2.13077903e-01 1.55751467e-01 2.11122289e-01 2.13077903e-01
      1.91219404e-01 1.69990122e-01 1.64435685e-01 1.26290187e-01
      7.49098212e-02 1.53168410e-01 9.53553170e-02 6.05459549e-02
      1.71903625e-01 1.50604889e-01 1.51211902e-01 2.13077903e-01
      2.13077903e-01 2.06534818e-01 2.13077903e-01 2.08841458e-01
      1.06913328e-01 1.87493563e-01 2.13077903e-01 2.13077903e-01
      1.42414793e-01 1.45880088e-01 1.41072437e-01 2.06102178e-01</_>
    <_>
      1.47405699e-01 1.15463883e-01 1.35872036e-01 1.29988477e-01
      1.71958983e-01 9.55456197e-02 1.42645836e-01 1.64957583e-01
      1.39962271e-01 2.10559711e-01 1.17646307e-01 1.34332493e-01
      1.09953150e-01 1.68281123e-01 1.39241472e-01 1.67434871e-01
      1.50875181e-01 1.82315186e-01 2.17839748e-01 2.17839748e-01
      2.17839748e-01 9.14479420e-02 1.00957267e-01 1.49986431e-01
      1.56799749e-01 1.72791466e-01 2.17839748e-01 2.17839748e-01
      2.17839748e-01 2.17839748e-01 1.74814269e-01 1.18252181e-01
      1.32935807e-01 2.17839748e-01 1.29251137e-01 2.17839748e-01
      1.41230449e-01 1.18425675e-01 9.91681516e-02 1.03466488e-01
      1.41441122e-01 1.03376858e-01 1.56887650e-01 2.01121464e-01
      2.29005218e-01 2.14813784e-01 2.35893235e-01 2.03053162e-01
      8.24715272e-02 1.25969693e-01 8.46844539e-02 1.41950727e-01
      2.24297851e-01 2.20229656e-01 2.35893235e-01 2.35893235e-01
      2.06693009e-01 1.93072975e-01 1.02573179e-01 7.45510459e-02
      2.11661905e-01 1.09220266e-01 1.69506237e-01 1.86733574e-01
      2.35893235e-01 2.35893235e-01 1.59649476e-01 5.65633476e-02
      4.05558273e-02 1.00618146e-01 1.22254603e-01 9.33540836e-02
      2.33463839e-01 2.33463839e-01 2.33463839e-01 1.68152124e-01
      1.06571302e-01 7.66413212e-02 6.09016232e-02 1.00795463e-01
      1.58245414e-01 2.33463839e-01 2.33463839e-01 2.32218027e-01
      2.12147161e-01 1.88095644e-01 2.10915670e-01 1.22631192e-01
      4.82947119e-02 2.11401477e-01 1.47872567e-01 2.33463839e-01
      1.95819989e-01 1.33005306e-01 5.96288256e-02 6.89262748e-02
      5.73225617e-02 8.49686041e-02 6.17263913e-02 1.01485156e-01
      1.26753390e-01 1.53983712e-01 2.33463839e-01 2.33463839e-01
      2.23367199e-01 1.53489873e-01 7.22735152e-02 8.40964392e-02
      1.69025019e-01 1.40194893e-01 1.62419662e-01 1.54746383e-01
      1.66418642e-01 2.10037544e-01 1.61311269e-01 8.99507850e-02
      1.39005169e-01 1.95063919e-01 2.10037544e-01 1.70822039e-01
      1.82233632e-01 1.33302435e-01 9.32087228e-02 1.47535205e-01
      1.32535994e-01 1.84644148e-01 9.50409174e-02 1.19201332e-01
      1.82271048e-01 2.10037544e-01 2.10037544e-01 2.10037544e-01
      1.98121145e-01 9.08081010e-02 7.26086870e-02 2.10037544e-01
      2.08658218e-01 1.46125302e-01 1.90344304e-01 1.50327891e-01
      1.49585754e-01 1.53815627e-01 1.73485041e-01 2.10037544e-01
      2.47564539e-01 2.47564539e-01 1.90116972e-01 6.95268139e-02
      2.38451585e-02 1.21040277e-01 8.41914713e-02 9.82843861e-02
      2.47564539e-01 2.45174393e-01 2.47564539e-01 2.47564539e-01
      1.72748297e-01 2.44764797e-02 6.83427081e-02 1.06718421e-01
      7.20147416e-02 2.47564539e-01 2.47564539e-01 2.47564539e-01
      1.77774295e-01 1.04503363e-01 2.43787821e-02 6.11028001e-02
      6.49544597e-02 9.38215852e-02 1.98498622e-01 2.00573012e-01
      2.47564539e-01 2.47564539e-01 1.69725254e-01 5.54960370e-02
      5.72987869e-02 4.10604551e-02 4.45270352e-02 1.46823540e-01
      2.05019191e-01 2.49772653e-01 2.49772653e-01 2.09383398e-01
      3.12278569e-02 4.04611602e-02 1.12224847e-01 6.01290353e-02
      1.62919000e-01 1.40819684e-01 2.49772653e-01 2.49772653e-01
      1.90026104e-01 4.91168126e-02 2.21392792e-02 5.12879230e-02
      6.77656531e-02 9.34299007e-02 1.90995902e-01 2.49772653e-01
      2.49772653e-01 1.44463927e-01 9.71777961e-02 5.37171885e-02
      5.98262288e-02 5.54794259e-02 1.11854635e-01 2.49772653e-01
      2.49772653e-01 2.49772653e-01 1.81822389e-01 1.68275401e-01
      8.24147165e-02 9.31393951e-02 8.21966976e-02 2.39888564e-01
      8.95067453e-02 2.40999505e-01 1.59558430e-01 1.79498002e-01
      1.40406266e-01 9.26437452e-02 6.91145062e-02 5.48135638e-02
      8.43394622e-02 5.92397489e-02 1.19544283e-01 1.41499490e-01
      2.42561176e-01 2.42561176e-01 2.22672492e-01 1.25306651e-01
      7.55865723e-02 5.01000099e-02 1.54103950e-01 2.22324252e-01
      2.01414183e-01 2.35275239e-01 2.42561176e-01 2.32724130e-01
      1.32776588e-01 5.64438812e-02 1.85382947e-01 7.35852793e-02
      1.13528587e-01 1.42020240e-01 2.25107327e-01 2.42561176e-01
      2.42561176e-01 2.08363697e-01 9.12215412e-02 7.60219470e-02
      8.38122591e-02 1.21033624e-01 1.30119845e-01 2.18351051e-01
      2.21706301e-01 1.85721412e-01 1.21878289e-01 1.08580448e-01
      6.26644865e-02 2.21706301e-01 1.18028551e-01 8.44105706e-02
      1.77504957e-01 1.68042064e-01 1.95962235e-01 7.70017132e-02
      1.65519431e-01 1.85905814e-01 1.29998848e-01 1.67309389e-01
      7.54641145e-02 1.16347879e-01 2.21706301e-01 2.21706301e-01
      2.12577745e-01 1.50621846e-01 1.32226482e-01 2.17373997e-01
      2.21706301e-01 8.84555355e-02 1.19250916e-01 1.94578573e-01
      2.03332797e-01 1.33960217e-01 2.21706301e-01 2.20217541e-01
      2.51115590e-01 2.51115590e-01 2.01853126e-01 1.44011885e-01
      1.25973970e-01 6.32842109e-02 7.49538094e-02 7.73990899e-02
      1.95879683e-01 1.52933151e-01 2.51115590e-01 2.19338700e-01
      1.34477258e-01 1.46273330e-01 1.20338827e-01 1.20391168e-01
      8.94921869e-02 1.45139739e-01 1.75656229e-01 1.61408588e-01
      9.54863429e-02 1.06472112e-01 1.96592316e-01 1.30694762e-01
      1.34789854e-01 1.74116001e-01 2.51115590e-01 2.51115590e-01
      2.07738519e-01 1.05067171e-01 8.25790614e-02 1.22922681e-01
      8.06045160e-02 1.79443061e-01 1.49584204e-01 2.51115590e-01
      2.23769397e-01 1.74088821e-01 1.81640759e-01 7.60826916e-02
      1.35468215e-01 9.85350236e-02 1.65895000e-01 9.30959359e-02
      1.38562933e-01 2.40760207e-01 2.40760207e-01 2.23323151e-01
      1.43098906e-01 1.77159473e-01 1.04741819e-01 1.65089950e-01
      1.38353884e-01 2.40760207e-01 2.40760207e-01 1.23618431e-01
      8.66865665e-02 5.70503809e-02 8.72059762e-02 8.08786079e-02
      2.05700144e-01 1.07536748e-01 2.40760207e-01 2.40760207e-01
      2.24968821e-01 1.25980049e-01 8.94222111e-02 1.31318524e-01
      8.98509994e-02 1.19130373e-01 1.54655710e-01 2.36869976e-01
      2.25518942e-01 2.09089160e-01 1.82766020e-01 1.81786940e-01
      2.25518942e-01 2.25518942e-01 1.58726767e-01 9.32044610e-02
      2.04687253e-01 1.46103427e-01 1.20074198e-01 1.38533801e-01
      1.46411657e-01 2.25518942e-01 2.25518942e-01 2.25518942e-01
      1.03757590e-01 1.07402183e-01 2.25518942e-01 1.85057566e-01
      1.08409226e-01 1.07731156e-01 1.29450679e-01 1.13788508e-01
      1.25194147e-01 1.64426908e-01 1.89748988e-01 2.25518942e-01
      1.07548155e-01 1.27372205e-01 1.14327908e-01 1.57556579e-01
      1.18780032e-01 1.76233649e-01 7.32369721e-02 1.54906899e-01
      1.35962591e-01 1.10639349e-01 5.47749177e-02 5.53126149e-02
      1.65800855e-01 1.33448958e-01 2.20978007e-01 1.24208495e-01
      1.89785957e-01 1.65848851e-01 2.20978007e-01 1.06535666e-01
      1.21808022e-01 1.93875611e-01 2.20978007e-01 2.09183604e-01
      2.20541105e-01 2.20978007e-01 2.20978007e-01 9.10511613e-02
      9.46627781e-02 8.47892836e-02 9.32013541e-02 5.33145256e-02
      9.36854929e-02 5.81218041e-02 1.88101619e-01 2.20978007e-01
      2.20978007e-01 1.55271515e-01 1.66602775e-01 2.20978007e-01
      2.17184573e-01 2.03477725e-01 1.30982980e-01 2.20978007e-01
      1.31557971e-01 4.84590270e-02 8.32280442e-02 3.62693034e-02
      1.10418946e-01 1.52588993e-01 1.16281241e-01 1.43877745e-01
      2.34137774e-01 2.34137774e-01 1.32767290e-01 1.29934832e-01
      3.72472666e-02 6.11310601e-02 9.81820300e-02 1.43682927e-01
      1.53528482e-01 2.34137774e-01 1.86623141e-01 1.00214243e-01
      7.72641227e-02 8.90283659e-02 1.88117728e-01 2.32012853e-01
      2.34137774e-01 1.85776159e-01 2.34137774e-01 2.34137774e-01
      2.07724839e-01 1.30680680e-01 1.17250033e-01 1.73199296e-01
      1.63459048e-01 2.34137774e-01 2.34137774e-01 2.34137774e-01
      2.25760505e-01 1.29555658e-01 1.57045141e-01 7.91566595e-02
      5.45388013e-02 5.99921383e-02 1.67544648e-01 1.06564835e-01
      2.25760505e-01 2.25760505e-01 2.25760505e-01 2.11053699e-01
      1.23490781e-01 1.00367405e-01 6.78564459e-02 1.04539096e-01
      1.17657319e-01 1.64041013e-01 2.25760505e-01 1.93577886e-01
      1.83639184e-01 1.19776338e-01 1.07000671e-01 9.68848392e-02
      1.93857521e-01 2.18553051e-01 1.95431828e-01 2.04705536e-01
      2.01217815e-01 2.25760505e-01 1.84046328e-01 1.49232760e-01
      1.49365038e-01 2.05975235e-01 1.44979447e-01 1.33643612e-01
      2.15657339e-01 1.42621309e-01 1.33621559e-01 7.51902610e-02
      1.56024501e-01 9.68017429e-02 9.53566283e-02 2.00144649e-01
      1.68571904e-01 1.55519575e-01 3.77335735e-02 1.34557381e-01
      1.51781380e-01 2.15657339e-01 1.15873255e-01 1.20451041e-01
      1.08786635e-01 1.56084761e-01 1.86878696e-01 1.20940521e-01
      1.94360226e-01 1.79877162e-01 2.15657339e-01 1.68325037e-01
      1.24531291e-01 1.67905822e-01 1.62412405e-01 2.15657339e-01
      8.61592516e-02 2.15657339e-01 2.15657339e-01 2.15657339e-01
      1.79597840e-01 1.88370675e-01 2.15657339e-01 2.15657339e-01
      2.11782575e-01 7.62955993e-02 1.58424333e-01 1.69055030e-01
      1.66027144e-01 7.04221874e-02 7.64736012e-02 3.41321900e-02
      1.60612822e-01 2.11782575e-01 2.11209819e-01 1.65891230e-01
      1.50659397e-01 1.57075778e-01 8.98033381e-02 1.09368093e-01
      9.10563022e-02 2.11782575e-01 1.65811509e-01 7.95581117e-02
      2.11782575e-01 1.98761746e-01 2.11782575e-01 1.72033101e-01
      1.94849074e-01 1.54214159e-01 1.81708649e-01 1.92818612e-01
      1.33833438e-01 1.97929755e-01 2.11782575e-01 2.11782575e-01
      1.64084390e-01 1.34739786e-01 1.71411380e-01 2.11782575e-01</_>
    <_>
      2.57180557e-02 4.29370031e-02 1.57356188e-01 2.71979123e-01
      2.71979123e-01 1.49658665e-01 5.19914702e-02 2.02754755e-02
      2.31896974e-02 4.10032384e-02 1.86392013e-02 1.61447138e-01
      2.71979123e-01 2.71979123e-01 2.51152277e-01 1.08695157e-01
      6.43962249e-02 1.82136465e-02 3.12543809e-02 1.54674754e-01
      2.71979123e-01 2.71979123e-01 2.71979123e-01 1.14341415e-01
      6.47701845e-02 2.40464434e-02 1.81010496e-02 3.96176092e-02
      5.29465042e-02 1.78666174e-01 2.71979123e-01 2.71979123e-01
      1.83327928e-01 2.19905794e-01 9.50021967e-02 1.96035411e-02
      1.07458629e-01 4.02384736e-02 1.47415683e-01 1.31414101e-01
      9.63776335e-02 1.14510655e-01 1.67075381e-01 2.02905059e-01
      1.29379347e-01 2.27342278e-01 1.57147989e-01 2.16227964e-01
      1.00929767e-01 5.87206669e-02 3.93185504e-02 6.71128258e-02
      1.83866516e-01 2.44336173e-01 1.25272959e-01 5.66528141e-02
      1.37219831e-01 1.05004847e-01 1.81449011e-01 2.09824011e-01
      2.44336173e-01 2.44336173e-01 2.18140706e-01 2.44336173e-01
      2.44336173e-01 2.44336173e-01 5.29580601e-02 9.55817252e-02
      7.63282478e-02 1.02679469e-01 2.02570960e-01 2.44336173e-01
      2.07600579e-01 2.20079511e-01 2.03514978e-01 8.70204121e-02
      6.24908060e-02 4.46286574e-02 2.63905004e-02 7.14121312e-02
      1.40294254e-01 1.74604207e-01 2.71227658e-01 2.62719274e-01
      2.71227658e-01 1.37089521e-01 5.03909662e-02 5.43199014e-03
      6.61263475e-03 4.95885760e-02 2.71227658e-01 2.71227658e-01
      2.71227658e-01 3.86582054e-02 1.07242307e-02 4.22469946e-03
      9.71017405e-03 4.61533964e-02 2.64998257e-01 2.71227658e-01
      2.71227658e-01 1.59446016e-01 8.96240994e-02 5.93706146e-02
      2.28873324e-02 7.91916996e-03 4.31140848e-02 2.71227658e-01
      5.86750731e-02 1.12108774e-01 1.87931657e-01 2.37258822e-01
      2.37258822e-01 1.30503595e-01 3.59480940e-02 1.43315969e-02
      1.54628502e-02 1.38977900e-01 1.33731589e-01 1.63935304e-01
      2.37258822e-01 2.37258822e-01 2.37258822e-01 1.32293433e-01
      1.00598514e-01 7.81739280e-02 2.37258822e-01 1.15890175e-01
      1.18358150e-01 1.33370116e-01 1.99980035e-01 9.77579951e-02
      4.27129120e-02 7.59071782e-02 2.37258822e-01 1.28654718e-01
      1.19271353e-01 2.36451149e-01 1.91394418e-01 2.37258822e-01
      2.37258822e-01 2.10462064e-01 1.30181223e-01 1.90203384e-01
      1.37988059e-02 1.88649103e-01 2.47556850e-01 2.98762441e-01
      2.56422669e-01 7.44119063e-02 1.77718177e-02 1.02013564e-02
      7.26851029e-03 2.84482818e-02 2.03068167e-01 2.25073054e-01
      1.94152504e-01 1.79478705e-01 1.30179852e-01 7.36798123e-02
      2.36249678e-02 8.09817109e-03 3.48119177e-02 2.41374418e-01
      3.11427116e-01 2.50209183e-01 2.83377886e-01 8.51360336e-02
      6.24853931e-03 8.27913824e-03 1.17886709e-02 6.34216592e-02
      3.11427116e-01 3.11427116e-01 1.93318456e-01 9.45479944e-02
      4.32344452e-02 1.02842050e-02 5.35695814e-03 4.33478691e-03
      6.31949008e-02 3.01729530e-01 2.43025348e-01 8.13989714e-02
      1.25885084e-01 1.21555082e-01 9.75458995e-02 4.60549518e-02
      5.80757596e-02 1.81337237e-01 3.01729530e-01 2.38862276e-01
      7.22512528e-02 1.02807015e-01 5.87606132e-02 3.63671668e-02
      1.22329578e-01 1.91492334e-01 1.19376406e-01 3.01729530e-01
      3.01729530e-01 1.49100915e-01 7.42160976e-02 5.35773784e-02
      1.98193323e-02 2.25762017e-02 1.47772394e-02 1.86544448e-01
      3.01729530e-01 3.01729530e-01 1.10765800e-01 8.33059698e-02
      1.03246830e-01 1.09516390e-01 1.84353828e-01 1.29082084e-01
      2.39129171e-01 2.39129171e-01 2.39129171e-01 5.69988638e-02
      6.37958646e-02 1.54661015e-02 2.44036037e-02 1.14016548e-01
      1.99938878e-01 2.39129171e-01 2.26475880e-01 1.47836119e-01
      2.45589409e-02 5.33077754e-02 4.92271483e-02 7.13690296e-02
      8.61209333e-02 2.39129171e-01 2.39129171e-01 2.39129171e-01
      2.39129171e-01 6.90839514e-02 8.14590827e-02 8.11904371e-02
      1.54629037e-01 2.39129171e-01 2.39129171e-01 2.30852395e-01
      1.12758756e-01 1.85425520e-01 6.30493313e-02 1.20591216e-01
      8.55803192e-02 1.46465972e-01 1.62332028e-01 2.39129171e-01
      2.31130883e-01 1.01627432e-01 1.49659038e-01 4.84599024e-02
      6.49887845e-02 5.32979630e-02 1.04813188e-01 1.72143519e-01
      2.31130883e-01 1.34091616e-01 7.97167867e-02 2.09006324e-01
      9.63690132e-02 8.27225372e-02 1.58799306e-01 2.31130883e-01
      2.31130883e-01 2.31130883e-01 1.64220914e-01 1.18357144e-01
      2.06164047e-01 6.63335398e-02 1.38642162e-01 1.06979832e-01
      1.46982923e-01 2.05179125e-01 2.31130883e-01 1.19808003e-01
      1.00634634e-01 2.21689269e-01 4.34246249e-02 1.16570316e-01
      2.31130883e-01 2.31130883e-01 2.31130883e-01 2.31130883e-01
      4.79811914e-02 2.56287277e-01 2.78320402e-01 2.13007823e-01
      2.11254135e-01 9.39413980e-02 1.92702394e-02 1.52965011e-02
      1.23062171e-02 5.08035086e-02 2.78320402e-01 2.78320402e-01
      1.39095098e-01 8.03864077e-02 2.96281800e-02 2.18570065e-02
      1.10546509e-02 1.77929904e-02 3.74585390e-02 1.30511045e-01
      1.81371227e-01 2.43537530e-01 2.65326858e-01 2.78320402e-01
      1.54239058e-01 3.59762944e-02 2.07892470e-02 4.73295487e-02
      1.82601199e-01 2.72916019e-01 1.14928976e-01 1.81552306e-01
      2.59285241e-01 2.23258451e-01 8.51830691e-02 4.99469154e-02
      8.20667371e-02 2.72379875e-01 2.72379875e-01 1.32525757e-01
      1.19093955e-01 1.46829188e-01 5.18724248e-02 2.98533160e-02
      2.51945015e-02 1.23641886e-01 2.13922799e-01 2.54401147e-01
      1.22362144e-01 1.56556726e-01 2.72379875e-01 2.07052797e-01
      2.46152773e-01 1.63397506e-01 4.61664572e-02 6.96981996e-02
      1.46442354e-01 6.08240254e-02 1.39047518e-01 1.94077402e-01
      1.49107203e-01 1.03242494e-01 9.93075445e-02 7.16497004e-02
      4.94099930e-02 5.73205017e-02 6.64929897e-02 1.51572958e-01
      2.72379875e-01 2.51318783e-01 2.72379875e-01 1.82614133e-01
      1.57882154e-01 7.70924166e-02 8.08581188e-02 3.39487456e-02
      3.08389738e-02 7.00733438e-02 1.29124090e-01 2.10003302e-01
      3.35727394e-01 1.42498642e-01 2.96808127e-02 4.37274538e-02
      2.21301727e-02 5.48190512e-02 2.77376473e-02 5.92268519e-02
      2.78570503e-01 3.37226599e-01 1.02490380e-01 3.84109691e-02
      2.90165916e-02 3.07703875e-02 3.49485390e-02 7.07600340e-02
      2.25458398e-01 3.37226599e-01 3.08229059e-01 1.25608474e-01
      1.45128537e-02 1.36510022e-02 9.62870196e-03 1.60824172e-02
      2.98098270e-02 1.79203600e-01 3.37226599e-01 3.37226599e-01
      7.79037997e-02 3.37634832e-02 4.81416322e-02 2.96022501e-02
      1.12310342e-01 4.22107950e-02 3.57798412e-02 3.27909231e-01
      3.39632511e-01 7.94315413e-02 4.47795987e-02 7.27967471e-02
      1.94385946e-02 1.46130636e-01 1.10633649e-01 8.68613496e-02
      2.67717153e-01 2.07664520e-01 8.76534209e-02 8.71620420e-03
      4.87914076e-03 9.63273551e-03 4.95513752e-02 1.86330006e-02
      7.25672692e-02 3.39632511e-01 3.39632511e-01 9.02596787e-02
      3.41007598e-02 9.09800362e-03 2.05982924e-02 1.31379634e-01
      1.38216436e-01 2.32807502e-01 3.39632511e-01 3.39632511e-01
      1.96454320e-02 1.39009301e-02 5.97935170e-02 2.51221299e-01
      2.56276518e-01 2.56276518e-01 1.94361001e-01 3.91447954e-02
      2.18819249e-02 4.29295376e-02 3.46674137e-02 6.65087253e-02
      1.17901728e-01 2.19540745e-01 2.56276518e-01 2.56276518e-01
      2.25322038e-01 8.98040384e-02 2.88266744e-02 2.28180066e-02
      1.33910850e-01 2.56276518e-01 2.56276518e-01 1.35534912e-01
      5.67876399e-02 2.87649725e-02 3.36483791e-02 6.79749250e-02
      3.30119208e-02 1.29695565e-01 2.47060016e-01 2.28245959e-01
      2.56276518e-01 1.59293726e-01 2.56276518e-01 1.80785149e-01
      5.11988141e-02 3.34188081e-02 5.59817292e-02 4.03861254e-02
      9.84867364e-02 2.24224597e-01 2.35794231e-01 2.39531741e-01
      1.61533982e-01 5.82806617e-02 4.53543849e-02 3.78463864e-02
      4.70272861e-02 7.15362057e-02 1.22201741e-01 2.03802302e-01
      3.05877537e-01 1.31580859e-01 5.78362644e-02 2.79009305e-02
      5.30075133e-02 4.38806489e-02 9.19226483e-02 1.55409038e-01
      2.77022123e-01 3.05877537e-01 3.05877537e-01 9.72790793e-02
      5.20282462e-02 2.57100053e-02 1.92178600e-02 4.28323336e-02
      8.24384615e-02 3.05877537e-01 3.05877537e-01 3.05877537e-01
      4.52322401e-02 4.14765961e-02 3.35644931e-02 3.70338261e-02
      4.08594273e-02 3.22209299e-02 1.79081351e-01 3.27468574e-01
      1.56770542e-01 9.81256440e-02 4.23240885e-02 4.49849516e-02
      1.89183895e-02 2.12274585e-02 1.56769603e-02 1.85809448e-01
      3.27468574e-01 3.27468574e-01 1.11313917e-01 5.07758148e-02
      3.06458659e-02 2.38388292e-02 4.24747802e-02 5.54275587e-02
      9.89554748e-02 2.24877477e-01 3.27468574e-01 1.92115292e-01
      2.44775921e-01 3.06663066e-01 7.15711936e-02 5.62398769e-02
      1.74623094e-02 5.89315780e-02 2.47515142e-01 3.27468574e-01
      7.89333880e-02 3.99073921e-02 6.91438094e-02 2.07164362e-02
      1.62961185e-02 4.52245139e-02 1.05649717e-01 2.92439044e-01
      2.92439044e-01 7.01858625e-02 4.57489043e-02 6.76942691e-02
      6.61163852e-02 9.15255398e-02 1.96760148e-01 2.01687738e-01
      2.92439044e-01 2.31325939e-01 1.43436760e-01 2.92439044e-01
      2.92439044e-01 8.17989632e-02 3.86539251e-02 4.91004288e-02
      6.47757128e-02 2.17582271e-01 2.45534390e-01 1.41409084e-01
      2.16414273e-01 2.68175453e-01 8.50256532e-02 6.41816184e-02
      1.17282502e-01 8.91458020e-02 2.26789311e-01 1.39591366e-01</_>
    <_>
      1.39921591e-01 1.50589883e-01 2.21336827e-01 8.80200639e-02
      7.89672881e-02 7.79102743e-02 1.65276870e-01 9.44785401e-02
      1.67547733e-01 1.08239047e-01 1.09598622e-01 2.21336827e-01
      1.35207698e-01 8.66206884e-02 1.16754435e-01 2.21336827e-01
      2.21336827e-01 2.21336827e-01 2.21336827e-01 1.61942825e-01
      2.18304962e-01 6.92111999e-02 1.88192293e-01 1.08590148e-01
      1.68428928e-01 1.53475657e-01 2.15104356e-01 1.66019857e-01
      1.26410261e-01 2.21336827e-01 1.91362187e-01 2.21336827e-01
      8.72003511e-02 1.67059004e-01 1.65417463e-01 2.21336827e-01
      1.27236098e-01 8.03275779e-02 1.45658270e-01 1.09081961e-01
      1.48169100e-01 1.76718161e-01 2.13474542e-01 2.13474542e-01
      1.81018159e-01 2.11007535e-01 1.07692063e-01 1.34339795e-01
      2.13474542e-01 2.13474542e-01 1.38037577e-01 1.03033721e-01
      2.13474542e-01 2.13474542e-01 8.53590816e-02 9.25050601e-02
      1.92733496e-01 2.13474542e-01 2.13474542e-01 1.54223129e-01
      1.16923653e-01 1.78041279e-01 1.67146310e-01 1.13186814e-01
      1.30526394e-01 1.88626230e-01 2.13474542e-01 2.13474542e-01
      1.26899600e-01 9.56361219e-02 2.00484961e-01 1.25105575e-01
      1.22648478e-01 1.37893826e-01 1.66745156e-01 2.10305437e-01
      1.79547921e-01 1.08723372e-01 1.08955540e-01 1.43128932e-01
      2.10305437e-01 1.13784619e-01 1.14970855e-01 1.81011721e-01
      1.48030102e-01 1.80326045e-01 1.72626406e-01 2.10305437e-01
      1.97494298e-01 1.80861637e-01 1.19658515e-01 1.99722469e-01
      1.42214552e-01 1.57722533e-01 2.03486279e-01 8.79094526e-02
      1.04583368e-01 1.34718731e-01 1.19287848e-01 1.56830072e-01
      2.10305437e-01 2.04014912e-01 2.06074253e-01 2.10305437e-01
      1.93030745e-01 2.10305437e-01 1.51300043e-01 1.37035057e-01
      1.03936866e-01 5.74786738e-02 1.12557128e-01 8.87437910e-02
      1.84634909e-01 1.68818325e-01 2.18125463e-01 1.84485555e-01
      1.99009970e-01 1.24867059e-01 1.26517281e-01 1.79202721e-01
      1.24677904e-01 1.80393517e-01 1.90058440e-01 1.86410040e-01
      1.57113656e-01 2.18125463e-01 1.54001325e-01 1.02239236e-01
      1.77229017e-01 1.34484187e-01 1.98972061e-01 1.60577655e-01
      2.18125463e-01 1.79398268e-01 2.17496216e-01 2.18125463e-01
      1.25111490e-01 1.23448163e-01 8.08700547e-02 1.20851927e-01
      7.72512555e-02 2.18125463e-01 2.18125463e-01 2.18125463e-01
      2.79919147e-01 1.56762540e-01 1.19352221e-01 1.54020479e-02
      1.56898573e-01 8.87406096e-02 1.24584392e-01 1.32170558e-01
      2.79919147e-01 2.79919147e-01 1.17312804e-01 2.14203700e-01
      9.14749950e-02 1.98013827e-01 5.79125285e-02 1.27302825e-01
      1.31944731e-01 2.79919147e-01 2.79919147e-01 9.28029865e-02
      2.67457683e-02 9.08589549e-03 1.76147129e-02 1.77139249e-02
      2.60196552e-02 1.06655300e-01 2.79919147e-01 2.79919147e-01
      4.81448323e-02 7.76919946e-02 1.07022092e-01 2.16607243e-01
      7.97711387e-02 9.43721160e-02 1.32480875e-01 2.79919147e-01
      1.44799769e-01 9.25773829e-02 1.59454957e-01 1.73372909e-01
      2.16071039e-01 9.68234167e-02 9.07967314e-02 9.93837267e-02
      1.90631598e-01 1.12089418e-01 1.52405605e-01 2.20424265e-01
      2.30153799e-01 2.30153799e-01 1.55798972e-01 1.33915380e-01
      1.12495244e-01 1.05439611e-01 1.67482048e-01 8.72599483e-02
      1.37664154e-01 1.88333482e-01 2.30153799e-01 1.70164272e-01
      1.50765762e-01 9.31474566e-02 1.60128504e-01 1.25034586e-01
      1.58397362e-01 2.10109502e-01 2.23358393e-01 2.30153799e-01
      2.30153799e-01 1.90020859e-01 1.04972117e-01 1.70202792e-01
      9.36481282e-02 1.71299681e-01 1.76789790e-01 2.01010287e-01
      2.32484803e-01 1.28540695e-01 1.27832577e-01 9.69319195e-02
      8.50335136e-02 1.83614433e-01 2.15958968e-01 2.32484803e-01
      2.32484803e-01 2.32484803e-01 1.19318850e-01 1.05618685e-01
      6.31299540e-02 1.05851829e-01 6.67298585e-02 8.93526375e-02
      1.94126427e-01 2.32484803e-01 2.32484803e-01 2.24674821e-01
      1.32731944e-01 1.53169513e-01 1.64959326e-01 1.26751423e-01
      1.36593938e-01 2.32484803e-01 2.32484803e-01 2.32484803e-01
      8.92898962e-02 6.04998246e-02 8.09273571e-02 9.61168632e-02
      2.67574072e-01 1.74333677e-01 1.95913807e-01 1.87125057e-01
      1.78019062e-01 1.26237199e-01 1.74952582e-01 1.27014801e-01
