<?xml version="1.0"?>
<opencv_storage>
<opencv_ml_svm>
  <format>3</format>
  <svmType>C_SVC</svmType>
  <kernel>
    <type>LINEAR</type></kernel>
  <C>5.0000000000000000e-01</C>
  <term_criteria><iterations>10000</iterations></term_criteria>
  <var_count>720</var_count>
  <class_count>10</class_count>
  <class_labels type_id="opencv-matrix">
    <rows>10</rows>
    <cols>1</cols>
    <dt>i</dt>
    <data>
      1 2 3 4 5 6 7 8 9 10</data></class_labels>
  <sv_total>45</sv_total>
  <support_vectors>
    <_>
      -2.66753812e-03 -5.86581510e-03 -4.71101049e-03 -4.74841008e-03
      -1.24408016e-02 0. 0. 0. -2.18865392e-03 -2.08950508e-02
      -1.64837260e-02 -7.77224544e-03 -3.07847629e-03 -9.13957506e-03
      -1.93452544e-03 -1.28152017e-02 -3.84176313e-03 -1.83329768e-02
      -9.82659962e-03 -1.25957476e-02 -2.29586605e-02 -2.19531562e-02
      -3.05515155e-02 0. 0. 0. -9.25661344e-03 -3.34952436e-02
      -3.90098654e-02 -3.58253345e-02 -1.96015071e-02 -3.73890176e-02
      -3.29293055e-03 -2.19173655e-02 -6.14261627e-03 -3.41406465e-02
      -3.09769763e-03 -3.16059450e-03 -4.27538669e-03 -2.77490611e-03
      -3.04492451e-02 -1.87388307e-03 -7.74647901e-03 -4.35477914e-03
      -4.50118771e-03 -7.27576111e-03 -1.55139500e-02 -2.82574315e-02
      -2.53796969e-02 -3.61191086e-03 0. 0. 0. -1.53868366e-03
      -5.19780908e-03 -1.01992106e-02 -2.15865653e-02 -1.57963224e-02
      -5.59789240e-02 -2.84742825e-02 -3.06919497e-02 -2.20463108e-02
      -1.68427508e-02 -3.70559981e-03 -2.11871490e-02 -4.42555659e-02
      -4.14191745e-02 -3.65319587e-02 -9.66278743e-03 -3.03851301e-03 0.
      -4.08832770e-04 -2.48158555e-02 -1.71141010e-02 -1.42409764e-02
      -7.25824619e-04 -3.41087987e-04 0. 0. -6.37918152e-03
      -3.34978215e-02 -4.35696580e-02 -3.30816619e-02 -2.43326798e-02
      -2.01117317e-03 -1.04789634e-03 0. 0. -5.23438305e-03
      -4.30365428e-02 -2.77201310e-02 -2.83540413e-02 -3.59183550e-02
      -1.21297808e-02 -2.24851444e-02 0. 0. -2.74248817e-03
      -3.20202224e-02 -4.59632464e-02 -5.47516569e-02 -6.39655218e-02
      -3.60787697e-02 -2.37199478e-02 0. 0. -6.29143370e-03
      -5.21476865e-02 -4.53052372e-02 -2.48065963e-02 -8.44555255e-03 0.
      0. 0. -1.01379957e-03 -1.26167880e-02 -6.42241985e-02
      -4.37438823e-02 -1.20144663e-02 -3.62071418e-03 0. 0.
      -1.19830955e-04 -1.55289499e-02 -3.37031521e-02 -7.89034367e-02
      -5.59362955e-02 -2.57824399e-02 -1.21292351e-02 -8.04367155e-05
      -7.16825161e-05 -7.24625133e-04 -4.03866358e-03 -1.25838537e-02
      -6.80669695e-02 -5.14637493e-02 -1.39607480e-02 -1.11745549e-02 0.
      -1.43365090e-04 -2.79872376e-03 -1.91699751e-02 -2.83093993e-02
      -7.15787038e-02 -1.73139013e-02 -4.21207910e-03 0. 0.
      -2.45457386e-06 -2.05687457e-03 -2.84919068e-02 -3.37589160e-02
      -3.92615162e-02 -1.35629848e-02 0. 0. 0. -1.57004464e-02
      -7.90995453e-03 -2.55146436e-02 -2.73036081e-02 -2.70792916e-02
      -2.09625605e-02 0. 0. 0. -3.66978496e-02 -4.92219664e-02
      -7.74566308e-02 -4.53843027e-02 -4.50644195e-02 -1.85317788e-02 0.
      0. 0. -3.66235301e-02 -3.48032713e-02 -5.75415976e-02
      -3.39917876e-02 -2.91780122e-02 0. -1.20374758e-03 -1.21898083e-02
      -1.25499135e-02 -5.63419461e-02 0. 0. 0. 0. -1.92322434e-04
      -8.47497606e-04 -1.69369970e-02 -1.47224003e-02 -6.65262043e-02
      -3.10156873e-04 -1.01634907e-03 0. 0. -1.02977617e-06
      -2.22799936e-04 -2.39183079e-03 -1.33321360e-02 -5.42434454e-02 0.
      0. 0. -1.02977617e-06 0. -1.82525982e-04 -1.21688507e-02
      -2.17699800e-02 -5.84275387e-02 -2.29036705e-05 0. 0. 0. 0. 0.
      -2.19429829e-04 -8.61407840e-04 -9.90124568e-02 -1.59957856e-02
      -1.19911106e-02 -7.89725163e-06 0. -1.03248949e-05 -2.94392055e-04
      -1.05990178e-03 -2.91595724e-03 -7.06013069e-02 -1.34507045e-02
      -1.35120843e-03 0. -1.03248949e-05 0. 0. -3.90578201e-03
      -1.14162359e-02 -1.04808614e-01 -2.90061515e-02 -2.96845357e-03
      -1.57945069e-05 0. 0. 0. -5.42030204e-04 -7.54724490e-03
      -7.43558332e-02 -1.32191423e-02 -1.07223494e-03 0. 0.
      -1.27831949e-02 -2.33513154e-02 -2.88893171e-02 -1.46590071e-02
      -5.48285469e-02 -2.10252032e-03 -6.80750352e-04 -9.64191931e-05
      -8.44833069e-03 -2.47855298e-02 -2.28315573e-02 -2.49111373e-02
      -2.90325247e-02 -6.57433644e-02 -5.88461105e-03 -1.36150117e-03
      -6.89012371e-03 -2.18986794e-02 -1.38998835e-03 -5.56090241e-03
      -2.29739044e-02 -2.78660320e-02 -8.27290639e-02 -6.67136209e-03
      -3.66325537e-03 0. -6.24107954e-04 -3.83417145e-03 -7.57990265e-03
      -2.94502750e-02 -2.96770595e-02 -7.87980556e-02 -6.91586966e-03
      -6.64546853e-03 -5.28638484e-04 -9.48439073e-03 -3.95614319e-02
      -1.83391143e-02 -1.91649944e-02 -1.04948999e-02 -2.41947360e-02
      -1.62463002e-02 -2.51193345e-02 -1.88058969e-02 -4.39965539e-02
      -4.61538583e-02 -1.88725293e-02 -1.30762998e-02 -8.19436554e-03
      -1.73305180e-02 -2.38584504e-02 -2.92792525e-02 -2.27210075e-02
      -4.92472164e-02 -1.32509973e-02 -6.94221957e-03 -1.28132682e-02
      -1.94464847e-02 -4.71428744e-02 -1.84109844e-02 -1.93457957e-02
      -6.10153517e-03 -1.21138748e-02 -1.84984710e-02 -1.06095271e-02
      -1.49437170e-02 -1.32172871e-02 -4.43057381e-02 -3.29350494e-02
      -2.77933106e-02 -1.31433783e-02 -1.74895655e-02 -2.50096284e-02
      -1.10691972e-02 -9.13024042e-03 -1.30320387e-02 -5.11204116e-02
      -1.51041988e-02 -9.24630277e-03 -1.46972612e-02 -3.05258688e-02
      -2.36331969e-02 -1.61148459e-02 -1.45617723e-02 -2.19355151e-02
      -7.70036578e-02 -3.01654339e-02 -1.34024117e-02 -9.66464542e-03
      -2.17822753e-02 -2.49938890e-02 -5.93789481e-03 -4.95134620e-03
      -6.45162351e-03 -6.80493489e-02 -2.51237340e-02 -1.45577975e-02
      -1.72694232e-02 -2.74461638e-02 7.13215396e-03 -1.24766091e-02
      -6.76557468e-03 -2.31466256e-02 -3.53353880e-02 -2.35575102e-02
      -4.88626864e-03 -6.98121497e-03 1.52424341e-02 -7.23109860e-03
      -3.71104619e-03 -1.28830429e-02 1.06228201e-03 -5.17036133e-02
      -3.07800155e-03 -3.94445524e-05 -7.85996672e-04 3.62403877e-03
      -3.83926299e-03 -1.37812819e-03 -4.30026976e-03 -1.04554044e-02
      -4.06561419e-02 -5.55824814e-03 -1.11897134e-04 -1.58005056e-03
      -6.04813593e-03 -9.02777724e-03 -1.24354865e-02 -3.59075563e-03
      -1.41536607e-03 -6.15033731e-02 -9.62448865e-03 -2.86887889e-03
      -5.59522770e-03 -6.69789792e-04 -5.32667618e-03 -1.81274652e-03
      8.67234450e-03 2.89792870e-03 -3.24763618e-02 -1.03131142e-02
      -9.71026067e-03 -1.13771474e-02 1.49148051e-02 -3.60919582e-03
      -6.36153249e-03 -1.22282654e-02 -2.04887800e-02 -5.57702258e-02
      -1.64629705e-02 -9.93933994e-03 -3.70380911e-03 -6.15377631e-03
      -5.69151901e-03 -2.44884798e-03 -1.44414157e-02 -2.26986688e-02
      -2.86519807e-02 -6.79308036e-03 -6.84537645e-03 -7.84389582e-03
      -9.83462296e-03 -8.77658138e-04 -2.29466390e-02 -1.64522678e-02
      -1.28251761e-02 -2.32813470e-02 -1.85920391e-02 -1.98763795e-02
      -2.27748733e-02 -2.46849610e-03 1.05604157e-02 -2.49717236e-02
      -2.08116267e-02 -2.23433860e-02 -2.14839689e-02 -1.82452658e-03
      -8.09976924e-03 -1.52965002e-02 5.57875820e-03 -4.91512055e-03
      -4.97286860e-03 -2.45248266e-02 -1.24157323e-02 -8.58020857e-02
      -5.23115974e-03 -1.35937100e-03 0. -3.70251248e-03 -9.96372430e-04
      -3.40627134e-03 -1.88866947e-02 -2.14249939e-02 -6.53360412e-02
      -2.23713432e-04 -4.74446169e-05 0. 8.79555955e-05 1.91410743e-02
      -1.48410341e-02 -1.56196216e-02 -1.65572744e-02 -8.21396708e-02
      -5.23160165e-03 -4.86635050e-04 -2.40846348e-04 2.16704346e-02
      2.53758915e-02 -5.37099037e-03 -1.23376511e-02 -2.97194235e-02
      -6.03195839e-02 -2.06955388e-04 -9.48892557e-05 0. 3.15015651e-02
      1.02750873e-02 0. -2.21877766e-04 -4.99087013e-03 -5.62575795e-02
      -1.69497484e-03 -3.26298352e-04 0. 1.02750873e-02 1.87624563e-02
      0. 0. -2.77909823e-03 -6.99433014e-02 -2.43295506e-02
      -2.30198051e-03 0. 1.87624563e-02 3.22305970e-02 1.07672438e-02
      -3.64394882e-03 -2.60448400e-02 -5.76006509e-02 -4.60395683e-03
      -5.00859715e-05 0. 3.22305970e-02 3.22305970e-02 7.63884978e-03
      2.80970894e-03 -1.41306715e-02 -7.16658980e-02 -2.85482761e-02
      -6.04975317e-03 -2.07312012e-04 3.22305970e-02 5.36742155e-03
      -1.17699243e-03 -2.03296468e-02 -1.27237970e-02 -9.90288109e-02
      -1.03593208e-02 -7.40732881e-04 0. 4.79759462e-03 2.83587705e-02
      -1.28358137e-04 -2.60364078e-03 -5.00700157e-03 -2.64394134e-02 0.
      0. 0. 2.72191167e-02 2.79796440e-02 1.49042835e-03 -1.20527865e-02
      -6.21101633e-03 -1.11660257e-01 -4.47564293e-03 1.41123217e-02
      1.00714723e-02 2.79796440e-02 4.28052321e-02 -1.53164065e-03
      -8.70642997e-03 -1.28079718e-03 -6.58547431e-02 2.58553494e-03
      2.78650485e-02 2.69220918e-02 4.27575558e-02 7.22707016e-03
      3.09401862e-02 5.61094768e-02 6.93952711e-03 -1.65881065e-03
      -3.11448406e-02 -4.77402732e-02 -1.29489573e-02 5.85007016e-03
      3.14835832e-02 -3.33706220e-03 2.82421820e-02 -2.19099547e-05
      8.55441764e-03 -2.59604566e-02 -2.77826320e-02 -2.09054612e-02
      3.30007374e-02 -5.28345862e-03 6.60369312e-03 2.64229011e-02
      1.05253502e-03 3.54799703e-02 -1.51136448e-03 3.02566402e-02
      -1.72593854e-02 -1.28947441e-02 -4.53136954e-03 -1.58347487e-02
      3.11554293e-03 4.72058222e-04 2.72708312e-02 -2.06131092e-03
      -1.57330316e-02 -3.32050957e-02 -1.67722031e-02 3.22452337e-02
      3.94109928e-04 4.06226562e-03 0. 0. 0. -1.16889609e-03
      -1.88851990e-02 1.45567385e-02 2.01058742e-02 -2.93620750e-02
      -1.42744901e-02 -4.06284787e-04 0. 0. 0. -6.65411772e-03
      2.00352017e-02 -2.30743531e-02 -6.81655307e-04 2.58891261e-03 0.
      1.72841945e-04 0. 0. -8.15917365e-03 -3.10018472e-02
      -3.62389162e-02 -2.48809922e-02 -2.81642051e-03 0. 8.84347782e-03
      0. 0. -3.62992170e-03 -3.63009982e-02 3.39574404e-02
      -6.54128101e-03 -1.36562549e-02 -3.95257957e-02 -4.57098819e-02
      -4.77347203e-05 2.95603517e-02 8.32828134e-03 4.01344560e-02
      4.32245396e-02 -1.69883464e-02 2.05811323e-03 -1.47840260e-02
      -3.41582820e-02 -2.38673638e-05 2.00877842e-02 1.36216236e-02
      5.28211929e-02 2.19730902e-02 -3.32598872e-02 -1.18270365e-03
      -4.72883781e-04 2.02543493e-02 0. 2.02405937e-02 3.70611949e-03
      3.08056455e-02 1.88310910e-02 -3.46478485e-02 -2.21170001e-02
      -9.40270838e-04 2.53646858e-02 0. 3.91945057e-02 2.21132264e-02
      3.59179229e-02 9.49830338e-02 -1.14515619e-02 -2.50056647e-02
      -2.70046704e-02 -1.35934362e-02 -6.94078067e-03 -9.40551609e-03
      -5.42751339e-04 9.50010791e-02 9.38449427e-02 5.04933484e-03
      -8.05395935e-03 -1.57740675e-02 -5.12850247e-02 -2.86560711e-02
      -3.47094461e-02 -2.75150612e-02 6.97263330e-02 2.40073074e-02
      -9.02235694e-03 -1.19548235e-02 -1.17110284e-02 -2.42274674e-03
      -2.76870560e-04 0. -2.29885860e-04 2.52928026e-02 3.37254778e-02
      4.13348665e-03 1.84454676e-03 -9.60859528e-04 -1.94625696e-03
      -2.19293614e-03 -4.59915632e-03 -1.25247324e-02 2.23586019e-02
      8.52544326e-03 -2.38107564e-03 2.37340247e-03 -2.33689994e-02
      -1.82362348e-02 2.08819355e-03 3.42216119e-02 1.82459224e-02
      2.97519490e-02 1.10646356e-02 1.29449209e-02 -2.21566064e-03
      -1.17195873e-02 4.92820051e-03 2.11549401e-02 3.46757397e-02
      1.10714864e-02 1.22722462e-02 8.18822812e-03 -1.39842657e-02
      2.09009219e-02 2.06023469e-04 2.68656686e-02 -3.71665810e-03
      -4.24631266e-03 -9.50480532e-03 5.99681539e-03 9.17298347e-03
      -5.08723734e-03 2.95180492e-02 2.64136610e-03 2.83671729e-02
      1.11283185e-02 1.59013197e-02 -6.75530813e-04 -1.83138833e-03</_>
    <_>
      -2.69870693e-03 -7.29157450e-03 -9.31073353e-03 -1.04546603e-02
      -1.18700517e-02 0. 0. 0. -1.38165231e-03 -2.52434667e-02
      -2.28396002e-02 -1.37460837e-02 -1.29808672e-02 -1.50703499e-02
      -2.83209677e-03 -7.93530978e-03 -5.62147610e-03 -2.37598754e-02
      -5.74328266e-02 -8.76765419e-03 -1.35380849e-02 -2.00061407e-02
      -3.23734730e-02 -1.61075615e-04 -2.39982200e-03 -8.01980379e-04
      -5.69379367e-02 -6.91471100e-02 -2.56603006e-02 -1.99464504e-02
      -2.63755564e-02 -4.68959287e-02 -4.34698071e-03 -1.76215768e-02
      -7.82308914e-03 -7.45140910e-02 -3.24929948e-03 -3.71947489e-03
      -5.58595918e-03 -1.28751537e-02 -2.05641966e-02 -1.02470489e-02
      -1.34494361e-02 -1.77096371e-02 -1.31307617e-02 -2.11027339e-02
      -2.34416965e-02 -2.28157528e-02 -2.75386069e-02 -1.87613480e-02
      -4.39966004e-03 -4.31257160e-03 -3.58811067e-03 -1.22568849e-02
      -1.38640788e-03 -2.63402588e-03 -2.74976972e-03 -1.79409888e-02
      -7.49075934e-02 -3.37875523e-02 -3.33114229e-02 -2.06896942e-02
      -8.55205208e-03 -7.79365050e-03 -1.58570651e-02 -1.63974129e-02
      -3.73287909e-02 -5.29032238e-02 -2.24743653e-02 -1.10193333e-02
      -4.69364086e-03 -6.91942079e-03 -2.06189919e-02 -6.03339542e-03
      -8.00577831e-03 -1.90832210e-03 -1.30233420e-02 -2.91518383e-02
      -3.44664827e-02 -1.63696725e-02 -2.48362459e-02 -4.96556014e-02
      -1.27112865e-02 -1.04944138e-02 -2.66044657e-03 -1.06926532e-02
      -8.99339281e-03 -9.07532871e-03 -4.28547105e-03 -4.58199047e-02
      -4.02527861e-02 -2.35549565e-02 -5.85346408e-02 -2.16982253e-02
      -6.82813004e-02 -4.44731712e-02 -5.01788110e-02 -1.22416979e-02
      -4.22847867e-02 -6.76944256e-02 -3.19572985e-02 -3.85022461e-02
      -2.23790817e-02 -6.80951700e-02 -3.23121995e-02 -6.29243478e-02
      -3.10900249e-02 -6.70568049e-02 -2.49437784e-04 0. -2.40582176e-05
      -7.62932585e-04 -1.39510343e-02 -4.94148815e-03 -7.16085499e-03
      -8.74444935e-03 -1.43798226e-02 -7.14049581e-03 -1.14296731e-02
      -1.84064955e-02 -3.01694106e-02 -1.84612796e-02 -6.90938497e-04
      -1.70424231e-03 -1.08593493e-03 -3.26840370e-03 -7.21945486e-04 0.
      0. -1.54181605e-03 -7.91883469e-02 -3.29463147e-02 -2.29855552e-02
      -1.81564614e-02 -1.81652531e-02 -1.17099639e-02 -1.13619044e-02
      -2.88153905e-02 -4.69796844e-02 -6.95508569e-02 -1.84319001e-02
      -1.21700559e-02 -2.17187055e-03 -1.75935298e-03 -3.51674519e-02
      -1.88935399e-02 -4.52919640e-02 -3.73879238e-03 -1.09944837e-02
      -5.06484136e-03 -1.92738920e-02 -1.59738455e-02 -2.74202190e-02
      -4.20260318e-02 -1.09315226e-02 -3.16262916e-02 -1.67940301e-03
      -2.72309817e-02 -1.33747244e-02 -5.41693047e-02 -2.88000461e-02
      -3.71991694e-02 -2.37972736e-02 -1.31622991e-02 -4.44552265e-02
      -1.08832298e-02 -5.31986654e-02 -3.07850968e-02 -4.36150394e-02
      -2.33253129e-02 -1.72124412e-02 -2.55400185e-02 -6.55639265e-03
      -2.16484852e-02 -4.91529331e-03 -6.07584156e-02 -3.62894759e-02
      -5.02107404e-02 -2.21165903e-02 -2.27005184e-02 -1.05108971e-04
      -6.97098346e-03 -2.18724273e-02 -2.49659177e-02 -5.76945134e-02
      -4.04225313e-04 -2.32592747e-02 -3.24555184e-03 -1.05108971e-04 0.
      -1.83564518e-03 -9.25103389e-03 -2.83594765e-02 -9.04361308e-02
      -9.47836321e-03 -4.01762612e-02 -2.30857683e-03 0. -1.17857633e-02
      -1.33857236e-03 -1.80757251e-02 -2.58903727e-02 -8.82245451e-02
      -7.14798807e-05 -1.89737827e-02 -2.33343430e-03 -7.97142461e-03
      -1.65401958e-02 -9.93632013e-04 -2.41932403e-02 -3.31862904e-02
      -9.10273269e-02 -1.11798593e-03 0. 0. -1.65401958e-02 0. 0. 0.
      -4.22965502e-03 -8.85767043e-02 -1.83482785e-02 -1.26980757e-03 0.
      0. 0. 0. -2.89815268e-03 -9.43006296e-03 -7.47951642e-02
      -2.07922570e-02 -3.42845754e-03 -4.93940934e-05 -1.02350214e-05
      -7.93680374e-05 0. -2.73287933e-05 -4.32507321e-03 -9.30425450e-02
      -1.90330632e-02 -5.11497725e-04 0. -6.18637714e-05 -9.32499024e-05
      -1.23390355e-05 -1.48599967e-03 -7.71742221e-03 -7.76081234e-02
      -1.52091226e-02 -6.63751177e-03 -9.87882231e-05 -1.13719958e-04 0.
      -2.77546351e-04 -1.67470844e-03 -1.12395536e-03 -1.40225232e-01
      -1.10303359e-02 -3.09653487e-02 -4.07919846e-03 0. 0.
      -1.19077173e-04 -3.59343039e-03 -2.60047032e-03 -1.48748651e-01
      -8.05713981e-03 -1.29985841e-04 -2.75196711e-04 0. 0.
      -1.01638609e-03 -4.49055107e-03 -3.44429351e-03 -1.49275482e-01
      -1.81645472e-02 -2.48754509e-02 -3.42769735e-03 0. -1.74266752e-04
      -6.96936564e-04 -1.09104710e-02 -6.53107557e-03 -1.48340717e-01
      -1.65590160e-02 -4.22422634e-03 -8.30947829e-04 -3.16643389e-04 0.
      0. 0. 0. -7.37599805e-02 -2.82825762e-03 0. 0. 0. 0. 0. 0.
      -5.87299350e-04 -8.46344084e-02 -1.25799989e-02 -1.08345244e-02 0.
      0. -3.00675863e-03 -9.63350758e-04 -2.74830272e-05 -2.71436467e-04
      -7.27707744e-02 -2.41450197e-03 0. 0. -6.63956220e-04
      -3.27579747e-03 -2.14302307e-03 -4.84416774e-03 -1.60086863e-02
      -8.51317942e-02 -1.73727572e-02 -4.86867921e-03 0. -1.80532152e-04
      -7.48370439e-05 -1.47475046e-04 -1.63148753e-02 -4.93215164e-03
      -9.12378803e-02 -2.32398771e-02 -2.63037253e-02 -1.55424466e-03
      -1.19265867e-04 -8.79687816e-03 0. -2.67199683e-03 -2.50322308e-04
      -1.07910067e-01 -1.96676124e-02 -8.02017562e-03 -1.38780946e-04
      -8.85651074e-03 -1.23061817e-02 -6.54865522e-04 0. -4.63810167e-04
      -1.09260410e-01 -2.50870585e-02 -2.52700485e-02 -2.55336659e-03
      -1.23061817e-02 3.57184000e-02 0. 0. 0. -6.50205091e-02
      -1.90375149e-02 -5.48461406e-03 0. 2.92953756e-02 -6.46684784e-03
      -2.09171865e-02 -9.90516972e-03 -4.82667238e-03 -9.81097147e-02
      -1.00364499e-02 -1.22184614e-02 -6.62732986e-04 7.92298093e-03
      -1.61883123e-02 -1.59007106e-02 -5.41214040e-03 -4.37270064e-04
      -7.10603893e-02 -3.04685757e-02 -1.56406220e-02 -3.11944168e-03
      2.07409044e-04 1.86027754e-02 2.19332520e-03 1.76595561e-02
      -9.51047149e-03 -8.97116661e-02 -3.32285538e-02 -1.33435884e-02
      3.12957593e-04 3.70722860e-02 1.97678041e-02 7.34721404e-03
      1.95874143e-02 -8.02707113e-03 -7.38159716e-02 -4.42455970e-02
      -4.38608415e-02 -7.57141178e-03 4.50404771e-02 -2.73615085e-02
      -3.02410182e-02 -2.15351321e-02 -1.07543189e-02 -3.67677361e-02
      -1.65407173e-02 -9.84429475e-03 -5.41167054e-03 -1.64975151e-02
      -1.91522539e-02 -2.78945230e-02 -3.08554806e-02 -2.56976932e-02
      -3.23807262e-02 -1.55368820e-02 -1.09273484e-02 -6.61473162e-03
      -6.69688312e-03 6.43468322e-03 -2.70605627e-02 -1.16305044e-02
      -7.90936814e-04 -4.95173186e-02 -1.40113123e-02 -1.94566157e-02
      -7.94045907e-03 1.51220914e-02 3.60044744e-03 -3.23624648e-02
      -2.36349199e-02 -5.45973051e-03 -9.83769819e-03 -1.55042810e-02
      -1.55271282e-02 -1.93892810e-02 1.41779007e-02 -3.24256462e-03
      -1.51460450e-02 -3.20020616e-02 -1.94054879e-02 -8.01889598e-02
      -1.78128667e-02 -2.63913609e-02 -1.54161407e-02 -9.50700883e-03
      -1.08117750e-02 -6.49108132e-03 -2.05368698e-02 -2.51358934e-02
      -9.74011719e-02 -2.67536417e-02 -4.34368439e-02 -3.29502784e-02
      -2.84757540e-02 6.29461482e-02 -1.86029691e-02 -1.10632144e-02
      -9.55251046e-03 -6.94159642e-02 -6.29083347e-03 -1.80823933e-02
      -1.29403761e-02 5.92655949e-02 7.08553344e-02 1.00738211e-02
      3.19701768e-02 -1.05287125e-02 -7.38414079e-02 -2.24680286e-02
      -4.19099741e-02 -3.25296521e-02 4.92916629e-02 -7.48666236e-03
      -1.26256552e-02 -3.89475113e-04 -1.73537526e-04 -1.73769742e-02
      -1.75093580e-02 -1.79481413e-02 -1.18597550e-02 -1.79142766e-02
      -4.14483156e-03 -2.61844676e-02 -1.49286389e-02 -1.28858956e-02
      -8.47624615e-03 -1.37124248e-02 -1.68368034e-02 -1.85082443e-02
      -3.65054980e-03 -1.53698260e-03 -2.61506625e-03 2.44517382e-02
      -6.02869259e-05 -9.29797068e-03 -7.93688744e-03 -2.30945405e-02
      -2.53374148e-02 -1.02071390e-02 -1.61384251e-02 -3.18897814e-02
      -8.60202592e-03 -4.15121252e-03 -4.73589520e-04 -4.28523635e-03
      -1.68343205e-02 -1.98532846e-02 -1.89251807e-02 2.89387554e-02
      -2.88690198e-02 -3.94557081e-02 -3.41279544e-02 -9.87458378e-02
      -4.72158892e-03 -3.91289592e-03 -4.63883998e-03 2.63137091e-02
      6.32968843e-02 -4.46776208e-03 -4.00512666e-03 -1.67164616e-02
      -7.16789588e-02 -1.12890778e-02 -2.30440451e-03 -4.20696288e-03
      5.40392995e-02 3.73540148e-02 -4.34249304e-02 -3.28244567e-02
      -4.06654067e-02 -8.61147568e-02 -1.15250638e-02 3.03863250e-02
      2.15461571e-02 3.94059233e-02 5.61598875e-02 -1.09704630e-02
      -1.27940923e-02 -2.93855667e-02 -1.03206567e-01 -1.04668187e-02
      5.19517176e-02 4.79623713e-02 4.85739261e-02 2.24840082e-02
      4.02774140e-02 7.01285154e-02 9.14448313e-03 -1.30764656e-02
      -2.47180350e-02 -5.09713180e-02 -2.97515355e-02 -2.13031517e-03
      6.26797006e-02 2.85303220e-02 5.03663123e-02 0. 2.92733894e-03
      -2.02447213e-02 -5.24805747e-02 -4.61728647e-02 3.96142267e-02
      -1.35149935e-03 2.05348618e-02 4.03698534e-02 1.91451295e-03
      3.55043821e-02 -2.60355836e-03 2.71133240e-02 -1.78831425e-02
      -6.56965235e-03 1.64684448e-02 5.79849631e-03 1.73603557e-02 0.
      1.19596971e-02 -1.12375827e-03 -1.40716024e-02 -3.75163928e-02
      -1.19925197e-02 2.62692012e-02 -1.52824437e-02 1.48235518e-03 0.
      0. -1.38635005e-05 -4.39482741e-04 -1.07938703e-02 1.10792415e-02
      2.69208848e-02 -2.92992350e-02 -1.27909333e-03 0. 0. 0. 0.
      -1.66218132e-02 1.07433153e-02 -1.21113975e-02 1.09929498e-02
      4.27809963e-03 0. 2.56950327e-04 0. 0. -1.94127765e-03
      -3.07208430e-02 -2.10416224e-02 -1.98327117e-02 -9.00169369e-03 0.
      -2.24758964e-03 0. 0. -4.60096262e-03 -3.46830375e-02
      2.90071927e-02 -2.54546409e-03 3.32568474e-02 -4.47408558e-04
      -1.00985263e-03 -1.48534491e-05 1.93651374e-02 -3.39624682e-03
      1.05071762e-04 1.24569936e-02 -5.17763430e-03 2.17584837e-02
      -6.81036181e-05 -1.73426967e-03 -6.13565149e-04 1.62500851e-02
      -8.77630711e-03 -2.31083222e-02 1.70772541e-02 -5.38503844e-03
      3.60231884e-02 0. 2.02111248e-02 0. 2.32001729e-02 4.08139918e-03
      -7.70481722e-03 1.12596236e-03 -2.10825969e-02 -7.81610701e-03 0.
      2.77859196e-02 0. 2.71644089e-02 1.96624268e-03 -2.64229234e-02
      4.60972413e-02 -8.79047066e-03 -1.69318798e-03 0. 0. 0. 0.
      -1.01026157e-02 1.07598547e-02 1.36143770e-02 -1.84248388e-02
      7.06024934e-03 0. 0. 0. 0. -8.58967751e-03 5.79351792e-03
      -4.26540570e-03 -1.24317119e-02 -3.34869488e-03 0. 1.84258167e-03
      0. 0. -1.09678041e-02 -3.85035388e-02 -2.95245480e-02
      -1.35370214e-02 3.22640780e-03 0. 8.18109699e-03 0. 0.
      -9.90017131e-03 -3.41788232e-02 -4.08630259e-03 -2.44086944e-02
      -9.91650950e-03 -1.92866344e-02 1.63051602e-03 1.03211938e-03
      4.38605994e-02 1.82049107e-02 3.50509159e-04 -5.36009576e-03
      -2.60771960e-02 -3.13219950e-02 -4.96882312e-02 8.65283143e-03
      1.32506955e-02 4.40026931e-02 2.38554999e-02 -6.80031208e-03
      -2.47015450e-02 -2.76890099e-02 9.29715484e-03 -1.99040631e-03
      2.69079078e-02 1.22500505e-05 1.33389002e-02 -3.80234211e-03
      -7.49848783e-03 -1.82198025e-02 -2.18318440e-02 2.56827846e-02
      -6.10395148e-03 2.23101191e-02 6.66490477e-03 2.66954415e-02
      4.75832913e-03 -1.28184929e-02</_>
    <_>
      -2.40666047e-02 -5.00053577e-02 -5.43937609e-02 -3.66587602e-02
      -6.35429621e-02 -4.56052041e-03 -2.11811569e-02 -3.64397513e-03
      -1.17602628e-02 -1.06115937e-01 -8.71385261e-02 -7.82236233e-02
      -2.27381177e-02 -2.20503975e-02 0. -1.05905812e-02 -6.16802555e-03
      -8.22461247e-02 -2.67243460e-02 -3.56376730e-02 -5.79388663e-02
      -3.61655802e-02 -1.17951937e-01 -3.40119749e-02 -4.58190516e-02
      -1.62813943e-02 -2.34323665e-02 -8.23427960e-02 -6.69517070e-02
      -7.96124116e-02 -6.01879731e-02 -1.14045545e-01 -3.27451639e-02
      -5.16192764e-02 -2.77521648e-02 -7.50029981e-02 -9.77911353e-02
      -1.94600392e-02 -3.64421983e-03 0. -5.18947581e-06 0.
      -7.42842397e-03 -5.03197834e-02 -1.18360855e-01 -1.01205096e-01
      -2.80280411e-02 -2.03482807e-02 0. 0. 0. -1.35187022e-02
      -4.17189710e-02 -1.06939957e-01 -9.95152891e-02 -2.37289649e-02
      -2.61577964e-03 0. -2.83560832e-04 -3.80979734e-04 -1.71083417e-02
      -5.29438518e-02 -1.25787452e-01 -1.02332152e-01 -3.41401547e-02
      -1.71676688e-02 -3.40147963e-05 -6.99714001e-05 -8.28439835e-04
      -4.41249460e-02 -5.57582527e-02 -1.18103214e-01 -4.39819060e-02
      -4.58574854e-03 0. 0. -3.33669456e-03 -1.40511617e-03
      -9.14032012e-02 -4.44725491e-02 -4.49125767e-02 -2.95281615e-02
      -8.29003938e-03 0. 0. -1.37925362e-02 -2.81023327e-03
      -8.74240249e-02 -5.72843961e-02 -3.37748565e-02 -3.96542139e-02
      -9.07392707e-03 0. 0. -1.90022681e-02 -2.64500026e-02
      -1.21094361e-01 -8.80890563e-02 -5.36117405e-02 -4.27191295e-02
      -1.73601508e-02 0. 0. -8.98927748e-02 -1.20730149e-02
      -9.68641937e-02 -4.91302200e-02 -5.24764620e-02 -1.84226746e-03 0.
      0. 0. -9.54164061e-05 0. -3.14424792e-03 -2.76284181e-02
      -1.71293262e-02 -5.18618734e-04 0. 0. 0. -4.77082140e-05 0.
      -3.66743043e-04 -2.06735656e-02 -7.59662129e-03 -1.44698424e-04
      -3.62424616e-05 -2.56407511e-05 0. -1.86845753e-02 -5.23611112e-03
      -1.78161953e-02 -3.91901843e-02 -1.95432045e-02 -5.79416701e-05 0.
      0. 0. -6.26433117e-04 -3.70245404e-03 -2.71857530e-02
      -3.25983465e-02 -1.29486471e-02 -2.28739358e-04 0. 0. 0. 0.
      -7.67020276e-04 -3.74983560e-04 -4.08064900e-03 -2.40222504e-03 0.
      0. 0. 0. 0. 0. 0. 0. 0. -1.14369708e-04 0. 0. 0. -2.36777589e-02
      -4.89511862e-02 -3.05285696e-02 -1.82119440e-02 -4.46134200e-03 0.
      0. 0. 0. -5.59955928e-03 -2.00363202e-03 0. 0. 0. -7.92650431e-02
      0. 0. 0. -2.11280584e-02 -2.12759506e-02 -4.32826728e-02
      -4.74769101e-02 -1.19074598e-01 -1.67650461e-01 -3.60777266e-02
      -1.22699114e-02 0. -1.72277428e-02 -3.40969712e-02 -6.95296377e-02
      -1.02036223e-01 -1.90693334e-01 -1.36300903e-02 0. 0. 0.
      -1.73482345e-04 -1.15808495e-03 -4.40475851e-04 -3.86946532e-03
      -1.97046418e-02 -5.56871258e-02 -1.47671637e-03 0. 0.
      -1.54262525e-03 -6.30680297e-04 -2.25609471e-03 -1.20591819e-02
      -6.74153939e-02 -1.19154267e-01 -1.21771824e-02 -1.01457117e-03
      -9.39113816e-05 -1.66002121e-02 -3.94609682e-02 -4.63684127e-02
      -2.74336543e-02 -1.46951661e-01 -1.27749175e-01 -1.10913031e-02
      -3.25308810e-03 -1.87822836e-04 -3.34360488e-02 -2.50536427e-02
      -2.80766077e-02 -1.17638055e-02 -1.44393846e-01 -9.41678509e-03
      -5.55249630e-04 0. 0. -4.62447256e-02 -4.37035859e-02
      -2.79274490e-02 -2.23914324e-03 -1.81778912e-02 -1.86291412e-02
      -1.86510803e-03 0. 0. -4.62464802e-02 -2.66780872e-02
      -8.12655501e-03 -3.97512596e-03 -3.13636959e-02 -1.75390728e-02
      -8.14566389e-03 -3.62961851e-02 -3.65944998e-03 -1.57495052e-01
      -5.18579595e-02 -1.83837246e-02 -7.87110254e-03 -2.82299463e-02
      -1.40553322e-02 -1.29625420e-04 -2.98637571e-03 -2.70122220e-03
      -1.36292338e-01 -2.50836536e-02 -1.54815614e-02 -2.46971026e-02
      -2.55810209e-02 -8.91784765e-03 -6.27020095e-03 -4.65029329e-02
      -5.97637938e-03 -1.62578389e-01 -2.36122794e-02 -1.87635571e-02
      -2.11086078e-03 -1.76521391e-02 -3.40202730e-03 -4.29490581e-04
      -5.17485710e-03 -6.85089780e-03 -1.69044912e-01 -3.32142301e-02
      -2.03283187e-02 -1.26662105e-02 -1.69019755e-02 -3.33193893e-04
      -1.58803596e-04 0. -1.13531081e-04 -3.88471298e-02 -1.58379022e-02
      -3.64728551e-03 -1.51496753e-03 -2.76436942e-04 -2.87004106e-04
      -3.17607337e-04 -6.16047485e-03 -1.76397525e-02 -2.60060504e-02
      -2.23606955e-02 -1.47458212e-02 -8.24562332e-04 -1.01440062e-04
      -4.63910037e-05 -7.94018197e-05 0. -6.11469033e-04 -4.81391810e-02
      -8.45025200e-03 -6.38058118e-04 -7.90771810e-05 -1.02962440e-06
      -9.27820438e-05 -1.58803698e-04 -9.31864139e-03 -2.01457068e-02
      -3.60072181e-02 -4.02366184e-03 -1.80319679e-04 -1.58154420e-04
      -2.05924971e-06 0. 0. -1.15029300e-02 -1.50270825e-02
      -3.26639451e-02 -2.56921891e-02 -5.67970099e-03 -8.91486161e-06 0.
      0. 0. -2.73073179e-04 -2.19187047e-03 -1.45658376e-02
      -3.49962921e-03 -1.64872254e-04 -1.78297287e-05 0. 0.
      -7.91197599e-05 -1.50270825e-02 -1.52222309e-02 -3.26639451e-02
      -2.10197479e-03 0. 0. 0. 6.32852502e-03 -1.58239563e-04
      -1.54492562e-03 -5.12181967e-03 -4.35467903e-03 -1.40833057e-04 0.
      0. 6.32852502e-03 -1.14256898e-02 -8.10748246e-03 -4.27686202e-04
      -1.25850900e-04 6.80154597e-04 0. 0. 1.24299419e-04
      -3.37849255e-03 -5.05769290e-02 -1.16871865e-02 -1.06704573e-03
      3.84348590e-04 2.87474529e-03 0. 0. 2.48598924e-04 -3.02978121e-02
      -1.20562072e-04 -3.38764973e-02 -1.54097879e-03 -3.75067331e-02
      -2.20456664e-02 0. 0. 2.48598924e-04 2.94154603e-02
      -2.86333077e-02 -5.58501333e-02 -2.07635090e-02 -2.32759863e-02
      -2.05539376e-03 0. 0. -2.29653134e-03 2.57528183e-04
      -1.22463219e-02 -8.81890301e-03 -1.45201823e-02 -3.55598815e-02
      -4.04741094e-02 0. 0. -1.69840263e-04 -7.44573912e-03
      -2.14892514e-02 -3.34792538e-03 -3.75428330e-03 -1.93874314e-02
      -4.04741094e-02 -1.31229078e-03 0. -1.78262359e-04 -1.47292521e-02
      -1.33312372e-02 -4.76095788e-02 -3.65449712e-02 -3.66891958e-02
      -3.16924229e-02 0. 0. -1.55036908e-03 2.08798870e-02
      3.19833681e-02 -4.12826128e-02 -1.88495256e-02 -2.45359037e-02
      -4.04741094e-02 -5.94618323e-04 0. -1.07525138e-03 3.01250741e-02
      -4.93363105e-03 -6.10783184e-03 -8.90515558e-03 -6.63132872e-03
      -1.32049844e-01 -2.70266738e-02 -3.38335559e-02 -1.37571385e-02
      -3.85335577e-03 -3.83683422e-04 -1.22634945e-02 -2.43901834e-02
      -1.73533056e-02 -1.27555728e-01 -1.77968387e-02 -3.55070382e-02
      -2.77921073e-02 -4.78830980e-03 6.09283783e-02 -2.78680883e-02
      -1.27988905e-02 -6.98191253e-03 -1.13160461e-01 -1.38401883e-02
      -4.08596359e-02 -3.35587226e-02 6.40568584e-02 7.33469278e-02
      -2.84031709e-03 1.28693404e-02 -1.12389652e-02 -1.10483542e-01
      -2.23574489e-02 -5.24628498e-02 -4.89396080e-02 5.32709509e-02
      5.94155025e-03 -2.26748060e-03 -4.43726452e-03 -1.40886512e-02
      -2.69302912e-02 -2.51924316e-03 -2.38570455e-03 -1.41382637e-03
      1.16044339e-02 1.16664562e-02 -1.48505333e-03 -6.87203277e-03
      -5.99080604e-03 -2.92947739e-02 -2.50721909e-02 -1.26377419e-02
      -1.21165987e-03 6.12918474e-03 2.98671518e-03 -1.02699501e-02
      7.69206882e-03 -5.59930736e-03 -1.04822591e-02 -3.97004979e-03
      -5.66418096e-03 -6.21350994e-03 1.82699284e-03 -6.72093965e-03
      -2.19856892e-02 4.60923230e-03 -7.83660289e-05 -2.68814750e-02
      -2.68852357e-02 -2.83034071e-02 -2.14109402e-02 -1.76502150e-02
      1.63913257e-02 0. -5.05889126e-04 -1.90530508e-03 -5.45567321e-03
      -1.03165430e-03 -3.86089319e-03 -1.46973059e-02 -6.12911442e-03
      1.62891094e-02 0. 0. -8.81830638e-05 5.56316040e-03
      -5.39247703e-04 -2.43843719e-03 -4.32485295e-03 1.15569402e-02
      2.47001685e-02 -5.10031648e-04 1.17095234e-02 -1.76009140e-04
      -3.43241380e-03 -2.07289737e-02 -2.16767583e-02 -6.35283664e-02
      -4.38476615e-02 3.62365805e-02 6.89722801e-05 0. 0.
      -1.87517144e-02 -3.72114703e-02 -1.49285449e-02 -4.40292954e-02
      2.91962991e-03 1.31992977e-02 2.58598831e-02 2.87969653e-02
      4.40287375e-04 -1.43609345e-02 -5.42397313e-02 8.83936882e-03
      -7.07333302e-03 -5.50023839e-03 1.86110623e-02 -3.71929770e-03
      -5.43414522e-03 -6.49301382e-03 -2.02737581e-02 -4.54323925e-02
      -8.27565603e-03 -3.29642780e-02 1.71549304e-03 8.17493908e-03
      5.64416964e-03 2.88659241e-02 1.69630267e-03 2.71093920e-02
      -5.08469250e-03 6.07034229e-02 9.15850047e-03 -6.60266727e-03
      -3.09008453e-03 3.91850434e-03 1.04668178e-02 0. 2.07220111e-02
      -8.49169493e-03 2.71367393e-02 -4.73494967e-03 -3.22412290e-02
      1.86751708e-02 3.05464608e-03 1.75100602e-02 0. -2.03350592e-05
      -7.11150642e-06 -9.47552053e-06 -3.54499137e-03 9.68172587e-03
      1.07399868e-02 -7.77965179e-03 8.01735837e-03 0. -4.06701329e-05
      0. 0. -1.48128311e-03 9.15193988e-04 -2.33718306e-02
      8.23280402e-03 5.28532220e-03 0. -2.45121634e-03 0. 0.
      -4.04664519e-04 -2.58217230e-02 -1.94699559e-02 -1.59447454e-02
      7.64399010e-04 0. 2.27826312e-02 0. 0. -3.98496370e-04
      -2.80978717e-02 6.02321662e-02 1.96681246e-02 3.85372713e-02
      -2.97705596e-03 -8.88839364e-03 0. 8.48277379e-03 1.29222008e-03
      1.87359098e-02 4.37853262e-02 -3.25361523e-03 3.63531671e-02 0.
      -1.58811454e-02 -5.59355598e-03 1.29161226e-02 6.82867132e-03
      1.06887035e-02 1.07432501e-02 1.15420250e-03 3.38850096e-02
      -1.55741873e-03 5.59753645e-03 0. -8.01151618e-03 -4.23454167e-03
      -2.36557294e-02 -4.57204916e-02 -8.79865699e-03 1.02815898e-02
      -7.78709364e-04 1.86383668e-02 0. 1.79666299e-02 -8.23929906e-03
      -4.77460884e-02 1.27561409e-02 -1.41717773e-02 1.94034632e-03 0.
      0. 0. 0. -6.21187408e-03 3.34850233e-03 2.08858624e-02
      -3.75869381e-03 6.17360463e-03 0. 0. 0. -5.18977526e-04
      -9.68428701e-03 4.78090905e-03 -2.04719082e-02 -1.20655037e-02
      1.78344699e-03 0. 4.52272501e-03 0. 0. -3.06637608e-03
      -3.20902914e-02 -8.68775137e-03 -3.08352662e-03 1.27246464e-02 0.
      2.00809836e-02 0. 0. -8.70639551e-03 -1.91432349e-02
      -3.93332634e-03 -9.81259998e-03 4.59193531e-03 -3.09971757e-02
      -3.84306093e-03 -8.13216716e-03 -2.59615621e-03 3.71605065e-03
      3.83778568e-03 2.51351725e-02 6.08571991e-03 -5.57511160e-03
      -5.38017265e-02 -3.81946713e-02 -2.13410277e-02 2.21665762e-03
      1.00432970e-02 1.15767065e-02 -9.93329217e-04 -2.01318413e-02
      1.49131846e-02 -4.08830401e-03 1.86122544e-02 1.93411368e-03
      1.57777593e-02 1.45225646e-03 4.57342528e-03 -1.13177474e-03
      -8.94741155e-03 5.83960488e-03 -3.25087868e-02 9.18517914e-03
      6.85527315e-03 2.33561043e-02 6.22560177e-03 2.03215377e-03</_>
    <_>
      -2.32012216e-02 -1.39862569e-02 -2.37129871e-02 -1.29415467e-02
      -1.78053044e-02 0. 0. -2.33323473e-04 -1.79845542e-02
      -5.10259159e-02 -4.93863113e-02 -4.37962264e-02 -5.65835740e-03
      -3.00327106e-03 0. 0. -5.15477173e-03 -4.28024642e-02
      -1.89652704e-02 -1.97519083e-02 -4.80361469e-02 -4.35577966e-02
      -6.05011284e-02 -3.73026263e-03 -1.93323125e-03 -6.05459732e-04
      -1.98974237e-02 -3.91319841e-02 -5.91218583e-02 -6.98965192e-02
      -4.49069999e-02 -3.98180075e-02 -1.73435733e-03 -1.20017654e-03
      -7.50398496e-03 -4.23419140e-02 -5.15499003e-02 -2.20533703e-02
      -8.42640921e-03 0. 0. 0. 0. -5.12563204e-03 -7.18611479e-02
      -5.54434657e-02 -3.37781832e-02 -2.10532621e-02 0. 0. 0.
      -1.05242757e-03 -1.22709218e-02 -7.55962878e-02 -6.27724007e-02
      -2.14340445e-02 -2.77458085e-03 -3.67665561e-05 -2.01495786e-05
      -1.11999743e-05 -2.60986399e-05 -8.70738085e-03 -7.84436688e-02
      -5.55559173e-02 -2.82038338e-02 -1.08100595e-02 -2.96808401e-04
      -3.27079943e-05 -4.86743083e-05 -1.07398415e-02 -3.17356251e-02
      -7.79407322e-02 -2.97348853e-02 -1.28323270e-03 0. 0.
      -5.27342921e-03 -1.73758215e-03 -4.05115858e-02 -1.92725454e-02
      -4.73928414e-02 -1.10660018e-02 -1.08505040e-03 0. 0.
      -1.15877613e-02 -1.74575765e-03 -3.29872370e-02 -3.31594571e-02
      -3.28262895e-02 -1.68939158e-02 -2.26085563e-03 0. 0.
      -1.55771533e-02 -3.63076702e-02 -6.28339499e-02 -4.99763228e-02
      -3.59000340e-02 -1.05562415e-02 -1.52094115e-03 0. 0.
      -3.43755856e-02 -1.85544044e-02 -4.91340719e-02 -4.79184948e-02
      -3.09996642e-02 -5.44694252e-04 -9.08118207e-04 -3.38357713e-05
      -6.68796565e-05 -1.15029793e-03 -5.31608937e-04 -9.23391245e-03
      -1.32990293e-02 -3.47620482e-03 -4.12522536e-03 -2.07896018e-03
      -1.55624675e-05 -3.34398355e-05 -2.58829736e-04 -1.15022594e-04
      -1.81559217e-03 -1.27909251e-03 -5.94615517e-03 -4.34991467e-04
      -2.53150146e-03 -7.10982224e-03 -7.64259882e-03 -4.86506596e-02
      -3.05204652e-02 -4.27120253e-02 -3.00470702e-02 -2.16776412e-03
      -2.66373884e-02 -3.00598666e-02 -3.39973979e-02 -2.54653655e-02
      -2.50079576e-02 -2.00716536e-02 -2.17188317e-02 -5.49462531e-03
      -1.93626359e-02 -2.27695145e-03 -4.12032893e-03 -2.77593210e-02
      -2.80137360e-03 -2.37256307e-02 0. 0. -4.18898620e-04
      -2.46323342e-03 -1.41900145e-02 -9.43654031e-03 -3.07598189e-02
      -3.20190238e-03 -9.25858878e-03 0. -9.14449058e-03 -1.17524564e-02
      -1.42603442e-02 -2.48187333e-02 -5.01810666e-03 -2.04305090e-02
      -3.44676268e-03 -4.92781065e-02 -1.91611461e-02 -1.88429374e-02
      -1.38168074e-02 -2.48764046e-02 -1.34773720e-02 -2.75525101e-03
      -1.74806863e-02 -5.73331816e-03 -3.35772410e-02 -4.91297524e-03
      -1.07426979e-02 -1.82163138e-02 -2.42636334e-02 -4.97735944e-03
      -1.22564915e-03 -6.16403576e-03 -1.39059341e-02 -7.98240229e-02
      -5.05467132e-03 -5.04390523e-03 -1.35376481e-02 -2.90310923e-02
      -2.13258993e-02 -1.05968621e-02 -1.88898500e-02 -4.68136854e-02
      -7.47170672e-02 -4.19127429e-03 -2.57363077e-03 -1.29566239e-02
      -3.38570960e-02 -2.53167376e-03 -2.06306959e-05 -1.73589634e-03
      -1.54436640e-02 -7.66763613e-02 -9.48677422e-04 0. -6.89567125e-04
      -4.91728587e-03 -7.49970833e-03 -3.61391064e-03 -1.67728141e-02
      -3.86911146e-02 -7.68884644e-02 -3.63013241e-03 0. -5.91497286e-04
      -1.39699550e-02 -4.44738939e-02 -4.07951288e-02 -4.53719571e-02
      -1.97396949e-02 -2.32791174e-02 -6.44392194e-03 -1.24761444e-02
      -2.01621633e-02 -5.41234501e-02 -5.44121228e-02 -3.32296938e-02
      -2.28675939e-02 -1.00526931e-02 -1.94377955e-02 -2.40822714e-02
      -2.21303441e-02 -1.99043415e-02 -5.82166538e-02 -1.20902667e-02
      -4.02800227e-03 -2.00642943e-02 -2.25415304e-02 -5.10496758e-02
      -1.28084039e-02 -8.66520498e-03 -5.60102239e-03 -1.25039872e-02
      -1.19670918e-02 -6.67429063e-03 -8.83504562e-03 -1.38321090e-02
      -4.01004590e-02 -2.43058130e-02 -1.24212960e-02 -3.31911654e-03
      -1.19168861e-02 -1.25462627e-02 -2.76839035e-03 0. 0.
      -7.34945089e-02 -2.97329165e-02 -2.24270821e-02 -1.51053593e-02
      -2.01648530e-02 -2.81307590e-03 -1.43931975e-04 -1.83861633e-03
      -9.53789509e-04 -8.75020996e-02 -3.80314514e-02 -1.97104756e-02
      -1.32166576e-02 -7.16603128e-03 -3.26755689e-03 -1.32886198e-04 0.
      -1.93819287e-03 -9.49944481e-02 -2.85974666e-02 -1.89333912e-02
      -5.50456671e-03 -7.04052299e-03 -2.14874541e-04 -7.19659947e-05
      -3.31370835e-03 -2.94612721e-03 -9.58704576e-02 -3.65557298e-02
      -1.79947559e-02 -2.54670368e-03 -1.65322539e-03 0. 0.
      -7.38892322e-06 -5.32273017e-03 -7.26796687e-02 -1.50869265e-02
      -1.84533990e-03 -2.75280036e-05 -5.69656686e-06 0. -1.88189333e-05
      -5.53846068e-04 -1.40805664e-02 -7.34110922e-02 -7.49171199e-03
      -5.02190960e-04 0. 0. 0. 0. -3.24499211e-04 -5.39360987e-03
      -6.67061955e-02 -2.09015291e-02 -2.47076829e-03 0. 0. 0. 0.
      -3.81757069e-04 -8.70090723e-03 -7.53892362e-02 -1.32085197e-02
      -1.75338646e-03 0. 0. -5.42458566e-03 -5.47013769e-04
      -4.43541165e-03 -1.48544973e-03 -6.12530857e-02 -1.28706805e-02
      -1.17060645e-02 -4.89164377e-03 -5.44791110e-03 -2.32635438e-03
      -9.37196164e-05 -1.78059097e-03 -6.19156868e-04 -6.93283901e-02
      -2.40213983e-02 -1.21036684e-02 -5.57688950e-03 -3.52786994e-03
      -8.29539541e-03 -3.01949098e-03 -3.41026788e-03 -5.70761319e-03
      -7.34282583e-02 -8.62486288e-03 -4.28122235e-03 -1.97004830e-03
      -8.36594310e-03 2.10026596e-02 -1.88198057e-03 -2.72982125e-03
      -6.16209814e-03 -4.18327972e-02 -1.35519383e-02 -5.12835709e-03
      -1.83385378e-03 2.13445909e-02 5.41667780e-03 -1.37092138e-03
      -9.69408918e-03 -3.85796488e-03 -6.89801946e-02 -7.45097548e-03
      -1.51696790e-04 5.47090720e-04 1.00852894e-02 8.76421668e-03
      -2.14223153e-04 -2.59578228e-03 -1.41889034e-02 -6.76621124e-02
      -1.07333940e-02 -1.44887646e-03 7.76152476e-04 1.81187224e-02
      8.26313626e-03 3.26354639e-03 4.71331552e-03 8.51755589e-03
      -5.42161465e-02 -2.64501348e-02 -1.48878088e-02 -5.43836970e-04
      1.75405070e-02 8.56330059e-03 2.24011810e-03 3.47175519e-03
      -3.47970589e-03 -5.42161465e-02 -2.65311748e-02 -2.40963586e-02
      -8.24023876e-03 1.99269857e-02 0. 0. -8.16881377e-03
      -1.88863594e-02 -5.47988303e-02 -7.18323467e-03 -7.16310053e-04 0.
      0. 0. 0. -1.71367225e-04 -3.69224581e-03 -6.19583614e-02
      -2.45935097e-02 -7.30865030e-03 0. 0. 9.21586715e-03
      -7.02384044e-04 -1.32175339e-02 -2.17135474e-02 -5.04991449e-02
      -8.45403131e-03 -8.10872880e-04 0. 9.23109520e-03 2.39757653e-02
      0. -1.01622147e-03 -6.75760861e-03 -5.82632795e-02 -2.85061505e-02
      -1.46496845e-02 -1.10745966e-03 2.39757653e-02 0. -1.36947224e-03
      -1.04821865e-02 -5.00856852e-03 -8.49521905e-02 -1.87526494e-02
      -1.03074629e-02 -4.08240454e-03 -5.38871449e-04 -2.22764397e-03
      -1.39755954e-04 -1.44967937e-03 -6.70417165e-03 -9.09991860e-02
      -1.95346102e-02 -1.44770117e-02 -9.59328469e-03 -1.27438260e-02
      4.65346314e-02 3.72069981e-03 7.07852328e-03 -1.01195730e-03
      -8.36396739e-02 -2.38173623e-02 -2.51648724e-02 -1.26335640e-02
      3.62934694e-02 4.81597967e-02 1.55165745e-02 2.74621751e-02
      -1.31581794e-03 -7.78683200e-02 -4.62938175e-02 -3.32742408e-02
      -2.79562343e-02 3.18431705e-02 -3.48616217e-04 -1.23149448e-03
      -6.59227092e-03 -7.33759254e-03 -2.52530593e-02 -2.26722565e-02
      -9.09786019e-03 -4.83893929e-03 -6.79908134e-03 4.88251587e-03
      -3.36764916e-03 -1.12461112e-02 -1.50278676e-02 -3.51615921e-02
      -1.77020840e-02 -9.44323093e-03 -1.13316774e-02 -9.93511733e-03
      1.23388870e-02 1.05544003e-02 9.29671247e-03 -6.33359095e-03
      -1.24786263e-02 -2.09937394e-02 -2.17279661e-02 -2.83865444e-02
      -6.17871247e-03 7.04371603e-03 -1.40927313e-02 -1.43473400e-02
      -1.46822520e-02 -1.15577076e-02 -8.47250130e-03 -1.19660003e-02
      -2.73378603e-02 -1.69655569e-02 1.05016315e-02 -8.85738712e-03
      -9.38899629e-03 -1.70264617e-02 -7.11223930e-02 -1.60044525e-03
      -1.09082111e-03 -1.41340960e-03 6.78467331e-03 3.70495208e-02
      -1.25346601e-03 -2.56250612e-03 -9.78674833e-03 -3.64000984e-02
      -6.60481909e-03 -2.50749849e-03 -2.75119278e-03 3.32079679e-02
      1.10814990e-02 -1.47828553e-02 -1.40384687e-02 -2.91611999e-02
      -7.15658441e-02 -5.58109395e-03 7.63452053e-03 -4.21835575e-03
      4.50998312e-03 3.57488059e-02 -4.79832105e-03 -3.97533644e-03
      -1.62838716e-02 -7.08173886e-02 -2.29867883e-02 2.52665337e-02
      1.23406127e-02 2.47450527e-02 1.47767942e-02 3.65238823e-02
      5.41910864e-02 4.44196584e-03 2.03078277e-02 -6.86385110e-03
      -2.32821684e-02 -1.57583803e-02 6.82725478e-03 2.16726195e-02
      2.04925649e-02 9.15944576e-03 -1.53015358e-02 -8.46288539e-03
      -2.66565965e-03 -5.38629806e-03 -2.10917443e-02 2.27950066e-02
      -1.31948413e-02 1.63104311e-02 2.27761567e-02 -1.02137495e-03
      4.89934534e-02 -2.23848270e-03 3.81073803e-02 7.56283384e-03
      -1.03087630e-03 5.24057401e-03 -4.51502018e-03 -7.97789171e-03
      -6.07718062e-03 2.60831397e-02 -2.16179807e-03 1.97546463e-02
      8.31625611e-03 1.06403902e-02 5.76466955e-02 -6.63122069e-03
      -1.12050129e-02 -1.40054375e-02 -2.53858585e-02 -2.84826639e-03
      -3.15403705e-03 -2.17370762e-04 7.56534114e-02 9.30893719e-02
      1.17026875e-02 2.29448592e-03 -7.77915819e-03 -2.08845939e-02
      -2.63458658e-02 -5.22904061e-02 -2.74790842e-02 9.26165208e-02
      1.96834560e-02 3.42524378e-03 7.99032918e-04 0. 1.61106940e-02 0.
      -1.25029241e-04 -4.17825795e-05 1.86960343e-02 4.06635962e-02
      2.96638929e-03 3.57989431e-03 0. 2.39684582e-02 -1.78535865e-03
      -1.19678406e-02 -1.15974890e-02 3.97296548e-02 4.56175804e-02
      2.03683507e-02 4.33617197e-02 -7.70575582e-07 -2.60895081e-02
      -8.94275494e-03 -2.76533794e-02 -2.60245688e-02 1.58886742e-02
      4.06952798e-02 1.37245487e-02 3.57072912e-02 -1.54115173e-06
      -8.67877994e-03 -3.03425435e-02 -3.42494622e-02 -4.49912585e-02
      1.20093981e-02 3.85315232e-02 3.10971439e-02 4.90092225e-02
      7.03800062e-04 1.60889030e-02 -1.38175150e-03 3.01693287e-03
      -1.25376871e-02 1.00051314e-02 3.39870714e-02 7.65265571e-03
      2.15912908e-02 3.51900060e-04 1.92948990e-02 -2.69725989e-03
      -3.75408051e-03 -1.88974980e-02 7.91878812e-03 1.78006478e-02
      -2.07969989e-03 8.09168257e-03 -5.67649950e-05 -2.11227616e-05
      -2.13954081e-05 -3.77930957e-03 -2.01193988e-02 -2.69120792e-03
      1.24300644e-02 -4.33607586e-03 1.11288661e-02 -5.75742597e-05
      -7.58362366e-05 0. -1.22221746e-03 -9.69214737e-03 7.95003120e-03
      -1.37622794e-02 7.64193572e-03 1.55344307e-02 0. 3.84161109e-03 0.
      -7.15752016e-04 -1.67950131e-02 -2.99370661e-02 -1.66505668e-02
      1.74685463e-03 1.69938505e-02 0. 1.82214379e-03 0. -4.71713225e-04
      -9.70812794e-03 -1.87635832e-02 -2.31998530e-03 -1.68003682e-02
      -1.43622225e-02 -2.77213827e-02 -1.44608039e-03 2.21286062e-03
      3.69827710e-02 1.64972711e-02 1.79766415e-04 4.29486111e-03
      -1.05934376e-02 -2.31569652e-02 -3.84599380e-02 -3.92093835e-03
      1.42495502e-02 3.74327227e-02 1.54492185e-02 6.17675809e-03
      -1.81113724e-02 -2.51550730e-02 6.36233995e-03 -6.73742034e-03
      2.87483763e-02 5.64793998e-04 1.75256021e-02 6.10550866e-04
      -1.48129147e-02 -1.03775579e-02 -1.92437880e-02 1.82224624e-02
      -7.43236253e-03 1.23327244e-02 9.58138611e-03 2.29003802e-02
      4.21059970e-03 -5.47871040e-03</_>
    <_>
      -1.92746632e-02 -1.37753421e-02 -1.59890167e-02 -1.10157654e-02
      -1.04211224e-02 -1.17788131e-05 0. -1.12358044e-04 -1.10685686e-02
      -4.53505144e-02 -4.66787703e-02 -2.85676364e-02 -5.18137589e-03
      -1.05153292e-03 0. 0. -5.98197978e-04 -3.05890832e-02
      -3.39546651e-02 -1.99584011e-02 -3.62298153e-02 -3.67810912e-02
      -4.48707119e-02 -7.11195357e-03 -3.37033463e-03 -5.99191291e-04
      -3.23753171e-02 -6.78956211e-02 -5.83712980e-02 -4.56847996e-02
      -2.90885828e-02 -2.87157930e-02 -3.54226516e-03 -1.98235805e-03
      -1.41109247e-03 -6.03755489e-02 -4.28969972e-02 -8.22758302e-03
      -1.84736180e-03 0. -2.56565500e-07 0. -2.31124141e-05
      -7.90631585e-03 -6.10162243e-02 -5.51793426e-02 -1.41836880e-02
      -1.12797716e-03 0. -3.05640583e-06 0. -1.21631296e-04
      -9.39328503e-03 -6.99012354e-02 -6.55846819e-02 -3.23290192e-02
      -9.05681867e-03 0. -1.90087321e-05 -2.26723612e-04 -2.19706781e-04
      -5.27690770e-03 -8.24143440e-02 -7.56867751e-02 -2.46323291e-02
      -1.11460108e-02 0. -1.72765813e-05 -1.06613006e-04 -3.45237611e-04
      -1.05435038e-02 -8.79328698e-02 -5.30217886e-02 -1.55597078e-02
      -2.73575797e-03 -7.54986686e-05 -1.65230995e-05 0. -6.28115330e-03
      -7.32914731e-03 -5.06649055e-02 -6.41078576e-02 -3.58712785e-02
      -2.37806998e-02 -6.73393428e-04 -3.06344373e-05 0. -6.59538666e-03
      -1.42432181e-02 -6.44944161e-02 -6.61069900e-02 -2.06661392e-02
      -1.49779851e-02 -3.77493416e-05 -7.28966143e-06 -9.99438089e-06
      -5.26366383e-03 -7.00098276e-03 -7.01125264e-02 -7.73911327e-02
      -3.73326726e-02 -2.37451326e-02 -7.54987050e-05 -1.27736457e-05
      -1.99887709e-05 -5.05896565e-03 -1.26291849e-02 -7.87707642e-02
      -4.50196043e-02 -2.63254382e-02 -1.62257943e-02 0. -2.80105155e-06
      0. -5.38066495e-03 -1.99744627e-02 -6.47688359e-02 -4.42011692e-02
      -2.55630482e-02 -1.34551954e-02 0. -1.66731741e-04 -1.04414334e-03
      -1.73745584e-02 -2.87604388e-02 -6.26790076e-02 -4.74295169e-02
      -2.05409564e-02 -8.67682230e-03 0. -9.98849209e-05 -2.24301126e-03
      -1.76033117e-02 -2.61711143e-02 -6.67413399e-02 -4.54893075e-02
      -2.79285982e-02 -8.24671611e-03 0. -4.00559604e-03 -1.78621039e-02
      -2.65604518e-02 -3.22228670e-02 -5.87648153e-02 -2.72025820e-02
      -1.18981360e-03 0. 0. -4.81090881e-03 -1.37009355e-03
      -2.47630477e-02 -2.01034546e-02 -4.17585298e-02 -1.65149737e-02 0.
      0. 0. -9.66596045e-03 -6.58240588e-03 -3.54106128e-02
      -3.30843218e-02 -2.70456318e-02 -1.56307388e-02 -5.51662059e-04 0.
      -1.00734539e-03 -5.38450032e-02 -5.18321507e-02 -4.44284156e-02
      -3.01130377e-02 -2.99328156e-02 -1.39098102e-02 0. 0.
      -2.20287358e-03 -3.31142582e-02 -2.50864085e-02 -4.91434596e-02
      -2.85712983e-02 -2.44034156e-02 -1.15000466e-02 -1.21672703e-02
      -2.73024328e-02 -9.46281292e-03 -5.82277477e-02 -6.89594867e-03
      -5.99836884e-03 -1.54805202e-02 -3.33464630e-02 -2.88074091e-02
      -1.75911002e-02 -2.16896161e-02 -2.41455622e-02 -4.54999320e-02
      -9.59127268e-04 -2.08688900e-03 -1.32473586e-02 -3.92611325e-02
      -3.83553747e-03 -2.34289141e-03 -2.12352332e-02 -8.26114602e-03
      -6.68404847e-02 -2.81091547e-03 -1.03070579e-05 -3.10121424e-04
      -6.60826638e-03 -1.93231199e-02 -2.19607726e-02 -2.08223946e-02
      -3.06205694e-02 -6.78965151e-02 -4.22953721e-03 -3.05160302e-05
      -7.53359636e-04 -2.12812480e-02 -3.96106467e-02 -2.62901951e-02
      -1.85343120e-02 -1.65623557e-02 -2.74825692e-02 -2.16321684e-02
      -1.76727995e-02 -1.09949633e-02 -4.21009399e-02 -4.62422743e-02
      -2.08494123e-02 -1.73870474e-02 -7.72462878e-03 -3.27598713e-02
      -2.35638600e-02 -1.74810458e-02 -1.21249268e-02 -5.14953807e-02
      -1.97054427e-02 -1.71943568e-02 -1.30291311e-02 -1.70015544e-02
      -4.67243306e-02 -2.11397726e-02 -9.69500095e-03 -1.61434966e-03
      -2.00820975e-02 -2.28003655e-02 -1.03783151e-02 -9.52448323e-03
      -1.10707013e-02 -4.78159450e-02 -2.28550751e-02 -1.09818084e-02
      -2.58021406e-03 -2.32322570e-02 -2.51988638e-02 -2.62736510e-02
      -2.01705080e-02 -1.87997092e-02 -4.24324386e-02 -6.76270761e-03
      -1.61854513e-02 -1.48641504e-02 -2.55379956e-02 -3.56353335e-02
      -3.32775041e-02 -1.57783329e-02 -1.23662017e-02 -5.00527322e-02
      -1.66681502e-02 -1.64491758e-02 -1.26412408e-02 -3.04454602e-02
      -8.74038413e-03 -4.56418609e-03 -1.15689896e-02 -2.26879138e-02
      -8.39347392e-02 -1.38849076e-02 -9.84188356e-03 -5.69340074e-03
      -8.11994076e-03 -1.71017908e-02 -5.10282861e-03 -1.05619524e-02
      -1.48158781e-02 -7.31872991e-02 -1.78167634e-02 -1.16565311e-02
      -3.08509055e-03 -1.01764081e-02 -3.60873416e-02 -2.06289124e-02
      -1.87575016e-02 -1.10924356e-02 -3.84903140e-02 -2.16321424e-02
      -2.12534424e-02 -1.02546094e-02 -4.02547903e-02 -4.88626473e-02
      -2.38307044e-02 -1.86351649e-02 -1.15571683e-02 -3.91393900e-02
      -2.13319361e-02 -1.21074226e-02 -3.36976349e-03 -4.15270329e-02
      -1.90465478e-04 -1.48345134e-03 -7.96266366e-03 -1.01623507e-02
      -5.50806150e-02 -2.99123190e-02 -1.11783054e-02 -1.41522859e-03
      -1.09559542e-03 -4.01371531e-03 -6.62339525e-03 -8.71265586e-03
      -1.60717722e-02 -4.99431714e-02 -2.71995384e-02 -8.22071452e-03
      -6.56731369e-04 -1.48119905e-03 -2.52187122e-02 -1.92876197e-02
      -7.21970387e-03 -5.84932556e-03 -6.43758476e-02 -1.69191305e-02
      -8.51269998e-03 -5.72872907e-03 -2.30212882e-02 -2.13335920e-02
      -1.90135594e-02 -1.18437782e-02 -1.69973746e-02 -6.54706806e-02
      -1.90944728e-02 -1.17163351e-02 -9.01488960e-03 -1.62723344e-02
      -1.51764750e-02 -7.53263012e-03 -5.94350230e-03 -7.96726160e-03
      -7.92799965e-02 -1.77777540e-02 -1.73569322e-02 -8.21510050e-03
      -1.59026813e-02 1.52915819e-02 -8.82017054e-03 -8.02372396e-03
      -1.38638727e-02 -3.07527278e-02 -1.97811257e-02 -1.09763080e-02
      -5.75650390e-03 1.81980934e-02 5.04850643e-03 0. -2.16952525e-03
      -6.19726954e-03 -6.35485947e-02 -8.83375946e-03 -1.70248165e-03
      5.49471355e-04 9.59718693e-03 8.26895796e-03 -5.90399781e-04
      -6.27877191e-03 -1.22707477e-02 -6.36386573e-02 -1.42310048e-02
      -6.39456138e-03 1.09894294e-03 1.77671649e-02 6.21882221e-03
      2.87666055e-03 5.72940009e-03 6.84979185e-03 -4.43351865e-02
      -2.12139990e-02 -7.76386773e-03 -1.39479397e-03 1.46087706e-02
      7.28786085e-03 -1.70567611e-04 -5.37243253e-03 -9.53402836e-03
      -4.30109948e-02 -2.09474489e-02 -1.15661537e-02 -5.61499689e-03
      2.28170808e-02 0. 0. -9.62286908e-03 -1.49642145e-02
      -5.77675961e-02 -1.16328681e-02 -2.61395751e-03 0. 0. 0. 0.
      -8.64450820e-04 -7.38386577e-03 -4.87245768e-02 -2.41869539e-02
      -5.15735243e-03 -5.51881931e-06 0. 7.21962051e-03 -1.09223940e-04
      -7.43486965e-03 -1.73001345e-02 -5.65080233e-02 -1.52176581e-02
      -7.47106271e-03 -5.06686374e-05 7.21962051e-03 2.29403209e-02 0.
      -7.88617472e-04 -7.09204655e-03 -4.49074768e-02 -3.46058980e-02
      -2.77208481e-02 -2.65370501e-04 2.29403209e-02 -8.72689474e-04
      -3.83192411e-04 -3.49063426e-03 -8.49326234e-03 -6.66311011e-02
      -2.39567496e-02 -2.07113177e-02 -1.26665616e-02 -9.89895128e-03
      -1.38261300e-02 -2.21377984e-03 -3.73960682e-03 -1.24159614e-02
      -6.25400245e-02 -6.19476754e-03 -8.53390060e-03 -1.49497269e-02
      -2.30128244e-02 4.46312018e-02 2.28991942e-03 2.86808563e-03
      -7.01404363e-03 -5.86795174e-02 -1.68320090e-02 -2.74956841e-02
      -2.87655685e-02 2.00383160e-02 3.24763581e-02 1.08356727e-03
      1.44989826e-02 -9.70203895e-03 -6.09006584e-02 -1.79996602e-02
      -1.75468344e-02 -2.32370291e-02 2.62880456e-02 -4.58285632e-03
      -7.19448924e-03 -7.54624838e-03 -1.80455726e-02 -4.00652140e-02
      -1.59209538e-02 -6.41416712e-03 -5.02291485e-04 6.03248947e-04
      5.89329237e-03 -3.40405479e-03 -7.27824308e-03 -1.73564926e-02
      -4.51622978e-02 -1.87922716e-02 -8.87406431e-03 -4.01098141e-03
      4.90850210e-03 -2.08266405e-03 -6.14535343e-03 -2.35762005e-03
      -1.25482483e-02 -2.44003199e-02 -1.38588957e-02 -1.34421280e-02
      -1.16799809e-02 5.82663110e-03 8.47274438e-03 -8.92415456e-03
      -1.09841619e-02 -2.61873174e-02 -3.63932140e-02 -9.75100975e-03
      -1.44732865e-02 -1.31094009e-02 6.23665517e-03 1.17063476e-02
      -2.38837907e-03 -7.74961151e-03 -9.60160606e-03 -7.44866282e-02
      -3.67907691e-03 -1.99135323e-03 -1.50226289e-03 7.38179823e-03
      2.81488355e-02 -1.57057378e-03 -1.37893797e-03 -4.46069753e-03
      -2.25097947e-02 -6.17726520e-03 -1.92246621e-03 -1.47887063e-03
      2.56659649e-02 1.34906210e-02 -8.99369922e-03 -5.04428986e-03
      -2.05453467e-02 -7.82009587e-02 -4.13103169e-03 1.26264263e-02
      -1.54152873e-03 4.52652993e-03 2.99064834e-02 -2.25148792e-03
      -2.85585877e-03 -1.10753542e-02 -6.11686334e-02 -1.49256522e-02
      2.69070994e-02 1.05737867e-02 1.51524879e-02 1.48209604e-02
      4.08132412e-02 6.34575784e-02 8.20961501e-03 1.64612960e-02
      -6.73789019e-03 -1.14035551e-02 -1.69202685e-02 2.89681158e-03
      3.14023048e-02 1.72318798e-02 2.37709843e-02 -4.31067171e-03
      -1.02952980e-02 -3.49708367e-03 -4.56322264e-03 -1.77604333e-02
      3.18143591e-02 -8.56548920e-03 1.52925532e-02 3.82250845e-02
      -8.72135919e-04 5.21569327e-02 8.23508110e-03 2.79076993e-02
      -1.11955288e-03 3.84400861e-04 -3.64071247e-03 6.04496920e-04
      -9.49965231e-03 -1.49426134e-02 2.03924906e-02 1.59949530e-03
      1.79609787e-02 3.32232122e-03 5.81068592e-03 7.35128522e-02
      3.25919758e-03 -8.41029920e-03 -2.28591394e-02 -1.84552856e-02
      -5.65159041e-03 -9.60768946e-03 -5.95301215e-04 8.34066793e-02
      8.98665786e-02 1.49639165e-02 6.88602822e-03 -2.12735194e-03
      -8.30394030e-03 -3.98464762e-02 -5.41491844e-02 -3.34627964e-02
      7.74002969e-02 2.30274051e-02 8.89934076e-04 -1.25173526e-03
      -5.91040123e-04 1.50001412e-02 -1.54185600e-05 -2.91216100e-04
      -2.95146747e-04 2.56011952e-02 4.22868207e-02 3.91471200e-03
      3.81686725e-03 0. 2.43290346e-02 -4.80666338e-03 -1.74995083e-02
      -1.44176558e-02 3.63179930e-02 3.45335901e-02 1.57008283e-02
      4.01378945e-02 0. -2.47770119e-02 -6.67679543e-03 -2.30838805e-02
      -2.13404838e-02 1.03297979e-02 2.21123789e-02 2.99048377e-03
      3.58576886e-02 0. -1.03680734e-02 -1.52576556e-02 -2.88676545e-02
      -1.86459627e-02 8.67937133e-03 2.79383603e-02 3.06521095e-02
      4.98676151e-02 7.23214180e-04 1.79644078e-02 -5.70963544e-04
      -2.23342539e-03 -1.11030750e-02 1.14045031e-02 9.49333701e-03
      4.44808230e-03 2.38671191e-02 3.61607148e-04 2.20656637e-02
      -3.16123664e-03 -1.22618023e-03 -6.03601336e-03 3.82745452e-03
      2.28253547e-02 -7.06641097e-03 6.94143120e-03 0. -4.77673393e-06
      -8.58825151e-05 -3.08296294e-03 -1.43844960e-02 3.26193892e-03
      1.41898990e-02 -2.33546253e-02 -4.74101352e-03 -8.85242538e-04
      -8.48385971e-04 -3.34105251e-04 -8.53540609e-04 -5.85411582e-03
      9.19834618e-03 -7.26676499e-03 7.70052709e-03 1.36597967e-02 0.
      2.27607554e-03 0. -9.04979650e-04 -1.26966611e-02 -2.37375963e-02
      -1.53924190e-02 -1.15487147e-02 4.27615317e-03 0. 9.45264287e-03
      -1.67052669e-04 -9.69904126e-04 -6.92552794e-03 -1.64581817e-02
      2.24474072e-03 -1.51091199e-02 -2.43349168e-02 -3.14553380e-02
      -1.16081759e-02 -4.74294135e-03 3.41200233e-02 1.25348419e-02
      8.18730146e-03 1.28417546e-02 -1.61086675e-03 -1.56561583e-02
      -2.51928810e-02 -2.53980979e-03 6.77122921e-03 3.31698246e-02
      1.15050413e-02 5.90860844e-03 -1.06989648e-02 -2.12284159e-02
      -4.73339949e-03 -5.70485415e-03 2.60812379e-02 -3.05569265e-03
      1.29213361e-02 -3.64192692e-03 8.26727482e-05 -3.53640318e-03
      -1.37333469e-02 1.66229792e-02 -3.19492794e-03 1.89270843e-02
      8.71644635e-03 1.85876526e-02 3.45329405e-03 -4.78786463e-03</_>
    <_>
      -6.11879639e-02 -7.89789632e-02 -9.08811539e-02 -1.87684093e-02
      -4.38286886e-02 -1.74677977e-03 -3.96854542e-02 -1.71656627e-02
      -4.59399633e-02 -7.73858055e-02 -5.57805561e-02 -3.02990489e-02
      -1.30937211e-02 -3.96213382e-02 -4.07027788e-02 -1.23753928e-01
      -5.35007007e-02 -6.77557290e-02 -1.80172205e-01 -6.77631497e-02
      -1.12017162e-01 -3.83212604e-02 -1.56959757e-01 -1.81205757e-02
      -4.33948487e-02 -9.90701374e-03 -1.62879154e-01 -1.84689179e-01
      -4.68746834e-02 -5.16282395e-02 -3.10463551e-02 -1.55931398e-01
      -7.94445351e-02 -1.30745396e-01 -3.56219709e-02 -1.71027631e-01
      -1.80954579e-04 0. 0. 0. -4.57128137e-02 -4.05106740e-03
      -1.36289010e-02 -1.35194529e-02 -5.96481748e-03 -2.83021000e-05 0.
      0. 0. -6.95865951e-04 -1.36973371e-03 -6.25449698e-03
      -3.76857468e-03 -2.87372473e-04 -1.64516052e-04 0. -9.36235243e-04
      -1.00979884e-03 -1.26885429e-01 -2.13564206e-02 -2.38399673e-02
      -1.74019784e-02 -2.90594995e-03 -1.41510518e-05 0. 0. 0.
      -1.32265287e-02 -1.43588353e-02 -6.59570424e-03 -3.13931261e-03
      -1.41510518e-05 0. 0. 0. 0. 0. 0. 0. 0. 0. 0. 0. 0. 0. 0. 0. 0. 0.
      0. 0. 0. 0. 0. 0. 0. 0. 0. 0. 0. 0. 0. 0. 0. 0. 0. 0. 0. 0. 0. 0.
      0. 0. 0. 0. 0. 0. 0. 0. 0. 0. 0. 0. 0. 0. 0. 0. 0. 0. 0. 0. 0. 0.
      0. 0. 0. 0. 0. 0. 0. 0. 0. 0. 0. 0. 0. 0. 0. 0. 0. 0. 0. 0. 0. 0.
      0. 0. 0. 0. 0. 0. 0. 0. 0. 0. 0. 0. 0. 0. 0. 0. 0. 0. 0. 0. 0. 0.
      0. 0. 0. -3.34750442e-03 -1.86812859e-02 -6.49021491e-02
      -1.19933430e-02 -2.96135455e-01 -1.22734997e-02 -1.76221300e-02
      -2.83689657e-03 -9.09370743e-03 0. -3.66756367e-03 -2.64310874e-02
      -1.88970137e-02 -3.41026247e-01 -7.72239268e-02 -1.33095041e-01
      -1.04620298e-02 -5.21885511e-03 -5.57855470e-03 -2.17469031e-04
      -4.10560519e-03 -1.71674881e-02 -3.48664016e-01 -5.78996353e-03
      -5.98092470e-03 -4.66996338e-04 -5.96085610e-03 0. -2.52668955e-03
      -5.68679161e-02 -6.90604895e-02 -3.53473872e-01 -2.19390504e-02
      -4.50513326e-02 -1.05186002e-02 -7.64602621e-04 -1.61849044e-03
      -1.72122105e-04 -1.53604394e-03 0. -1.25346258e-01 -7.62096792e-03
      -1.33000663e-04 -1.87234581e-03 -4.27294243e-03 -5.18058718e-04 0.
      0. 0. -2.08973009e-02 -1.08137622e-03 -2.67763826e-04
      -2.32252246e-03 -8.23690905e-04 -5.74387237e-03 0. 0. 0.
      -1.26518518e-01 -8.83451663e-03 -2.37679124e-04 -1.57365315e-02
      -1.57365315e-02 -2.93219276e-03 0. 0. 0. -2.38113180e-02
      -1.43682666e-03 -5.35527768e-04 -1.57365315e-02 -1.57457422e-02
      -1.44247082e-03 -4.83161974e-04 -2.79386964e-04 0. 0. 0. 0.
      -3.58866487e-07 -1.46266608e-03 -1.61888869e-03 -2.22975691e-03
      -4.17978648e-04 0. 0. 0. 0. -7.17733258e-07 -2.82807858e-03
      -1.89018026e-02 -1.22057917e-02 -5.58774162e-04 0. 0. 0. 0.
      -7.17733258e-07 -1.74229909e-02 -1.47244902e-02 -1.36302132e-02
      -1.88460189e-03 0. 0. 0. 0. -1.43546708e-06 -1.47244902e-02
      -2.66947714e-03 -2.69527864e-05 0. 0. 0. 0. 0. -1.56119489e-03
      -5.83929894e-03 -1.02440466e-03 0. 0. 0. 0. 0. -2.45717994e-04
      -3.04815872e-03 -2.44159880e-03 -6.70910580e-03 -7.94929336e-04 0.
      0. 0. 0. 0. -1.49923433e-02 -1.56196048e-02 -8.27545533e-04 0. 0.
      0. 0. 0. -4.91436105e-04 -1.56196048e-02 -1.56196048e-02
      -8.72841396e-04 0. 0. 0. 0. 0. 0. 0. -8.72841396e-04
      -3.49837734e-04 0. 0. 0. 0. 0. 0. 0. -3.49837734e-04
      -1.47594456e-02 0. 0. 0. 0. 0. -4.54552984e-03 -1.47594456e-02
      -1.47594456e-02 7.80747682e-02 0. 0. 0. 7.87801594e-02
      -1.10425847e-03 -9.09106247e-03 -1.01286322e-02 6.74825236e-02
      1.55172339e-02 -2.35278974e-03 -1.44940717e-02 1.11322347e-02
      -3.40107918e-01 -1.52669000e-02 -7.66628329e-03 -4.63792880e-04
      2.84664836e-02 2.41276026e-02 -3.17939062e-04 -7.28774699e-04
      2.79782317e-03 -3.07012022e-01 -2.80137230e-02 -2.47847252e-02
      -1.47799850e-02 4.79664505e-02 4.49368618e-02 2.50523202e-02
      4.61094007e-02 2.94613205e-02 -2.89359421e-01 -3.49338390e-02
      -5.29842563e-02 -9.78685264e-03 6.94903880e-02 6.47503957e-02
      3.25950086e-02 1.65997818e-02 3.38805071e-03 -2.87646115e-01
      -1.00664213e-01 -7.42963403e-02 -3.19554172e-02 9.59997326e-02
      -3.21989581e-02 -6.83536241e-03 -1.31197894e-05 -4.55111294e-04
      -1.25268633e-02 -1.41979158e-02 -7.36338226e-03 -6.81826472e-03
      -3.01633645e-02 -2.69060265e-02 -2.21844856e-03 0. 0.
      -7.60617061e-03 -9.71869379e-03 -1.16014704e-02 -2.08422858e-02
      -4.74691540e-02 1.55969858e-02 -2.33951677e-02 -6.09982490e-05
      -2.35903964e-04 -9.98260155e-02 -6.89261267e-03 -5.23473928e-03
      -1.07677188e-02 2.11724751e-02 3.64984870e-02 -1.14994459e-02
      -3.53050018e-05 -6.56597240e-06 -6.86601561e-04 -2.40201782e-03
      -9.43787303e-03 -2.40201671e-02 3.26867364e-02 -3.55319902e-02
      -1.54723795e-02 -2.59000156e-03 -1.10712508e-03 -3.28422961e-04 0.
      -9.43882260e-05 -2.84109940e-03 -4.20763567e-02 -4.48736027e-02
      -2.23936606e-02 -1.61249191e-03 -2.21425062e-03 -9.43161722e-04 0.
      -1.48706036e-04 -3.41732358e-03 -4.38942388e-02 1.62549354e-02
      -2.58280449e-02 7.60045787e-03 -3.20128485e-04 -1.21091151e-04 0.
      -3.09846201e-03 -1.48122059e-02 1.16976155e-02 1.11212954e-02
      -3.57427448e-02 3.05768903e-02 -7.35022360e-04 -1.42678898e-03
      -6.12850161e-03 -6.48968061e-03 -1.32979779e-02 2.68611987e-03
      -7.46371085e-03 -3.12524429e-03 -1.74296292e-04 0. 0.
      -5.68766791e-06 -2.78060725e-06 -1.95500813e-03 -2.76437383e-02
      -1.74226146e-02 -9.23260488e-03 -9.64319952e-06 0. 0.
      -1.13753395e-05 -9.06860281e-04 -8.89532361e-03 -1.62274726e-02
      3.97046702e-03 -1.04862181e-02 2.85194237e-02 0. -1.81302278e-06
      -2.14111024e-05 -1.92206153e-05 -8.49756692e-03 -4.04299842e-03
      9.02045984e-03 -2.87865866e-02 -2.74724793e-02 0. 0. 0.
      -1.33443868e-03 -1.09102530e-02 -1.34854496e-03 1.63957048e-02 0.
      0. 0. 0. -5.17520122e-03 -1.52296191e-02 -2.38078646e-02
      -1.65977683e-02 9.06529576e-02 0. 0. 0. 7.52104744e-02
      -1.46937435e-02 -1.88323464e-02 -1.88266020e-02 7.49791563e-02
      3.60678099e-02 1.17755933e-02 3.06246849e-03 -3.27080092e-03
      -7.54903257e-03 -2.19976194e-02 -7.89121725e-03 -2.70227771e-02
      7.91094033e-04 7.08993077e-02 -4.45864600e-04 -1.04321318e-03
      -4.76621138e-03 -3.13761458e-02 -5.20969331e-02 -9.38904472e-03
      4.37430758e-03 4.70786057e-02 6.04124852e-02 7.15708435e-02
      1.67825907e-01 3.98964733e-02 -2.94397417e-02 -1.67775657e-02
      -1.52159110e-01 -4.83089611e-02 2.84882840e-02 1.57443300e-01
      7.78851435e-02 1.03617400e-01 5.04104933e-03 -3.50292064e-02
      -7.94519410e-02 -4.56153043e-02 -5.50248697e-02 1.26029149e-01
      2.10206672e-05 2.04331633e-02 7.19813034e-02 2.26544254e-02
      -2.88344827e-03 1.76367760e-02 -4.23293486e-02 -9.86714140e-02
      6.59528049e-03 3.00175082e-02 3.46717127e-02 4.67801169e-02
      8.60199891e-03 -1.91122834e-02 9.46414284e-03 -1.07223643e-02
      -2.89288424e-02 -4.56614373e-03 2.96749398e-02 1.07795075e-02
      -1.56564300e-03 0. -5.84396475e-04 0. -6.25186693e-03
      -3.08098719e-02 9.36125964e-03 4.47588181e-03 -3.50403078e-02
      1.15070790e-02 0. 0. 0. -3.79606173e-03 -2.48667430e-02
      2.15452095e-03 2.36938521e-02 2.84463130e-02 6.21748017e-03 0.
      -3.18515636e-02 0. -1.64745306e-05 -6.74762158e-03 9.81960911e-03
      -3.15803327e-02 3.15633556e-03 1.17905522e-02 0. -4.21941169e-02
      0. 0. -7.44532282e-03 -4.26682942e-02 1.21380612e-02
      4.43441182e-04 4.63153422e-02 0. 5.24488387e-05 -2.87376111e-04
      -4.77623194e-03 -5.25276363e-03 2.37191170e-02 -8.47320445e-03
      -2.31260173e-02 2.24566124e-02 0. 2.62243975e-05 -5.74752397e-04
      9.13023716e-04 5.62256575e-03 -1.44015858e-02 3.67917828e-02
      -3.62458751e-02 5.26098709e-04 4.82484320e-04 2.13189870e-02 0.
      3.06924731e-02 9.16982628e-03 5.18277697e-02 1.54190138e-02
      -3.76875140e-02 -5.83234243e-02 2.41242189e-04 1.64385568e-02 0.
      -9.46558081e-03 -3.00249504e-03 5.92857273e-03 1.80405006e-02
      -9.13209096e-03 -6.91145845e-03 -2.57588204e-06 -1.83117845e-06
      -6.93527818e-06 -1.78328750e-03 -1.77124571e-02 -6.11461187e-03
      2.65787859e-02 -3.50537449e-02 3.83157819e-03 0. 0.
      -3.46763977e-06 -5.50573401e-04 -1.61484964e-02 3.50848277e-04
      1.69978663e-02 -1.09010600e-02 -1.31299403e-02 0. 0. 0.
      -2.99467496e-03 -8.54285061e-03 -2.13268097e-03 6.53775129e-03
      -1.43090114e-02 1.06242178e-02 0. -1.15547888e-02 0.
      -2.23042967e-04 -1.10619199e-02 -1.84465814e-02 -4.27445918e-02
      -3.52463610e-02 6.72255317e-03 -6.66399626e-03 -1.90390777e-02
      -9.54695325e-03 6.63658753e-02 2.29966305e-02 -3.12300231e-02
      -2.28732992e-02 -1.44910198e-02 -1.84152946e-02 -3.88091169e-02
      -3.20537761e-02 6.41105464e-03 2.17779484e-02 5.59865963e-03
      -2.36104988e-02 -2.67568137e-03 -1.04408320e-02 4.61899862e-02
      -7.27211032e-03 2.64027249e-02 -2.28687818e-03 2.51704641e-03
      -5.62528789e-04 1.79366358e-02 1.16849924e-02 -2.00887118e-03
      7.65939131e-02 2.04984332e-03 1.01772854e-02 -1.48224668e-03
      4.31784336e-03 1.44668538e-02 3.60965938e-03</_>
    <_>
      -2.05267668e-02 -2.25983188e-02 -1.96030922e-02 -1.40337078e-02
      -1.40812024e-02 0. 0. 0. -4.98972787e-03 -5.12404218e-02
      -4.77389321e-02 -2.90719178e-02 -9.08413529e-03 -7.58761913e-03 0.
      0. -5.21693984e-03 -3.39279734e-02 -1.66054107e-02 -2.69589219e-02
      -4.20644656e-02 -4.92453463e-02 -5.33710606e-02 -5.75586036e-03
      -4.46947495e-04 -2.70619319e-04 -8.54760222e-03 -4.78168838e-02
      -5.63420467e-02 -5.44378720e-02 -3.76731008e-02 -3.86286564e-02
      -3.15419980e-03 -5.86087001e-04 -7.33661931e-03 -3.88358757e-02
      -4.65257242e-02 -1.76001750e-02 -9.10315284e-05 0. 0. 0.
      -1.76178972e-07 -7.95052946e-03 -6.03050180e-02 -5.10152727e-02
      -1.46595435e-02 -3.72931291e-03 0. 0. 0. 0. -1.10283503e-02
      -6.85208142e-02 -5.89320101e-02 -2.03900654e-02 -7.68358936e-04
      -3.26866830e-05 -2.43763170e-05 -3.08633498e-05 -5.38324355e-04
      -2.12580860e-02 -6.42984882e-02 -1.08903356e-01 -2.52993777e-02
      -7.66614126e-03 0. -1.12706321e-05 -5.83714464e-05 -1.04306906e-03
      -2.34708562e-02 -1.15540452e-01 -4.55767326e-02 -8.79775360e-03
      -1.76151237e-03 0. -3.09005147e-04 0. -1.22302240e-02
      -1.18629755e-02 -6.69919252e-02 -4.50248756e-02 -1.80665739e-02
      -1.53723778e-02 -9.08657676e-04 -1.54502603e-04 0. -1.10882372e-02
      -1.95363015e-02 -7.25445449e-02 -7.67202899e-02 -1.77705493e-02
      -3.52869718e-03 -2.03381199e-03 -5.16857661e-04 0. -6.89689722e-03
      -1.39495814e-02 -9.20567960e-02 -7.27836564e-02 -4.02662717e-02
      -3.10744774e-02 -4.02646419e-03 -7.84070638e-04 -7.39309398e-05
      -7.45905144e-03 -3.26873884e-02 -9.84122530e-02 -4.30968590e-02
      -1.58029944e-02 -4.23005689e-03 0. 0. 0. -1.09070446e-03
      -1.23347985e-02 -6.41378760e-02 -6.10795021e-02 -2.22779512e-02
      -7.55857769e-03 0. 0. 0. -3.45471606e-04 -5.75612951e-03
      -6.89988285e-02 -6.71623275e-02 -2.68867277e-02 -1.91561747e-02
      -1.41548328e-04 0. 0. -8.50083525e-05 -2.00317204e-02
      -9.73786414e-02 -7.12638572e-02 -3.87399942e-02 -1.93152893e-02
      -7.07741783e-05 0. -4.22974204e-04 -1.55235156e-02 -3.73357870e-02
      -1.02631629e-01 -3.08521576e-02 -2.79738125e-03 0. 0.
      -1.34553644e-04 -1.57193257e-03 -2.74263490e-02 -2.63865050e-02
      -4.15921621e-02 -2.02451739e-02 -2.05030592e-04 0. 0.
      -1.28688682e-02 -8.01527593e-03 -2.54490208e-02 -2.75843162e-02
      -3.02427411e-02 -4.00247239e-02 -6.31936220e-03 -4.89232654e-04
      -1.02106552e-03 -2.54546776e-02 -5.92551343e-02 -7.10678399e-02
      -4.28362377e-02 -4.77737039e-02 -3.44028175e-02 -6.53064868e-04
      -2.44616385e-04 -2.24576076e-03 -4.19313274e-02 -2.93106474e-02
      -7.41814449e-02 -5.18493205e-02 -4.19847183e-02 -6.26804540e-03
      -1.36635732e-02 -3.20885815e-02 -1.18790139e-02 -5.27729653e-02
      -1.19707985e-02 -1.27027174e-02 -2.03723423e-02 -3.37633863e-02
      -1.69692021e-02 -2.25913506e-02 -3.79079953e-02 -2.28470322e-02
      -4.40128669e-02 -1.01115387e-02 -1.35135762e-02 -2.78791115e-02
      -4.06023227e-02 -3.12091480e-03 -1.55120315e-02 -3.53757925e-02
      -1.05685992e-02 -5.81548065e-02 -3.14039877e-03 -2.20829574e-03
      -9.16974503e-04 -6.11394597e-03 -1.38187371e-02 -1.58226024e-02
      -3.25501375e-02 -3.19118351e-02 -6.63157329e-02 -1.30034406e-02
      -9.63288639e-03 -7.60040432e-03 -2.71367934e-02 -4.71074730e-02
      -2.24077646e-02 -2.01117061e-02 -1.90968812e-02 -2.22392902e-02
      -1.24092447e-02 -1.95805430e-02 -1.95205156e-02 -5.04592136e-02
      -6.39281496e-02 -3.08859814e-02 -2.83428691e-02 -1.48642762e-02
      -1.90144647e-02 -1.63353160e-02 -1.61063336e-02 -5.30291116e-03
      -5.35947643e-02 -2.54198983e-02 -1.99042205e-02 -1.33872014e-02
      -1.86303966e-02 -5.05999364e-02 -2.24623010e-02 -2.02176347e-02
      -5.90849156e-03 -2.47700699e-02 -3.04704346e-02 -7.45950034e-03
      -7.83816725e-03 -1.26861185e-02 -4.58030216e-02 -2.49591898e-02
      -1.46257197e-02 -1.08081556e-03 -2.49389932e-02 -3.87352854e-02
      -1.05452575e-02 -1.57047696e-02 -7.32321711e-03 -3.58977094e-02
      -6.60317205e-03 -1.57628935e-02 -1.94447488e-02 -5.02350554e-02
      -4.09907736e-02 -2.62181386e-02 -2.01420132e-02 -5.21587674e-03
      -4.24612276e-02 -2.13194806e-02 -2.05679741e-02 -2.22006477e-02
      -4.68952432e-02 -3.00156809e-02 -1.92718208e-03 -1.24725243e-02
      -1.08560398e-02 -8.37500989e-02 -1.16261840e-02 -2.77034678e-02
      -1.60933472e-02 -2.62429882e-02 -2.33571026e-02 -1.11768544e-02
      -2.86746807e-02 -2.02779993e-02 -8.10604990e-02 -2.36344803e-02
      -1.16778575e-02 -9.29153245e-03 -1.82366539e-02 -4.87182401e-02
      -2.86108833e-02 -3.00082695e-02 -9.38836206e-03 -2.63551529e-02
      -3.26890545e-03 -2.05894094e-02 -2.50098426e-02 -5.61096482e-02
      -5.75682335e-02 -2.62003466e-02 -1.48253199e-02 -1.47425504e-02
      -1.81792937e-02 -1.73156522e-02 -2.13800445e-02 -1.65283605e-02
      -5.96580766e-02 -1.32218609e-02 -1.84174664e-02 -1.96432825e-02
      -1.40609657e-02 -5.14893569e-02 -1.75944325e-02 -2.14822702e-02
      -2.15374473e-02 -1.64059456e-02 -2.27853544e-02 -1.21079190e-02
      -1.04692150e-02 -1.88696533e-02 -4.29444425e-02 -2.53004599e-02
      -1.80204436e-02 -1.17115462e-02 -2.29362454e-02 -3.69333178e-02
      -1.89389922e-02 -9.98223014e-03 -7.65295327e-03 -7.13734329e-02
      -2.39417013e-02 -2.32013017e-02 -2.20656991e-02 -3.93775776e-02
      -2.09814273e-02 -1.63993482e-02 -1.42731117e-02 -2.05201935e-02
      -8.96933079e-02 -2.87393704e-02 -1.25898188e-02 -6.40891399e-03
      -2.11684722e-02 -2.39523482e-02 -1.97187196e-02 -1.45323789e-02
      -9.87830199e-03 -7.75721446e-02 -1.54783502e-02 -1.59732103e-02
      -1.29555892e-02 -2.97955107e-02 1.42965000e-02 -1.72354374e-02
      -1.39007363e-02 -1.90875549e-02 -5.15547805e-02 -1.89780258e-02
      -6.47338526e-03 -3.66918161e-03 1.57175846e-02 -9.88365849e-04
      -2.85510765e-03 -5.12912171e-03 -4.20164689e-03 -7.10804909e-02
      -5.56381140e-03 -3.18107195e-05 2.12625804e-04 6.35725819e-03
      -1.46725331e-04 -6.52852096e-03 -9.01126862e-03 -1.46870241e-02
      -6.75428286e-02 -9.03464947e-03 -4.90910199e-04 4.23730089e-04
      7.57124880e-03 -3.96379828e-03 -7.92065356e-03 1.04556074e-02
      -1.25843016e-02 -6.82456344e-02 -2.45377123e-02 -6.76433090e-03
      -2.01278669e-03 1.27495900e-02 1.07243313e-02 -2.28735189e-05
      9.25735477e-03 -9.52018704e-03 -5.19374683e-02 -2.45377123e-02
      -1.47443367e-02 -9.31072142e-03 2.90657394e-02 -2.76124314e-03
      -1.01187942e-03 -4.04844200e-03 -1.30573753e-02 -4.31536846e-02
      -1.85600575e-02 -1.16436929e-02 -7.01760594e-03 -6.20839465e-03
      -8.31257179e-03 -1.98492617e-03 -2.45599356e-03 -1.03276288e-02
      -3.71206887e-02 -1.68876778e-02 -1.62929446e-02 -1.40809966e-02
      -1.30378855e-02 1.50882108e-02 -1.90730803e-02 -1.93078052e-02
      -1.88886337e-02 -2.39913277e-02 -1.12264911e-02 -1.75138693e-02
      -2.01178342e-02 1.50309419e-02 2.90041286e-02 -1.02978274e-02
      -1.44269476e-02 -1.96241271e-02 -2.20129248e-02 -8.25321488e-03
      -1.87501181e-02 -2.67388709e-02 1.86719131e-02 -7.36118434e-03
      -1.05290115e-02 -2.16501318e-02 -1.05494848e-02 -7.81957954e-02
      -2.00180318e-02 -1.32137481e-02 -4.40314179e-03 -6.64259912e-03
      -9.11009125e-03 -6.74949354e-03 -1.75393447e-02 -2.31685881e-02
      -8.04726258e-02 -6.31825114e-03 -5.42042078e-03 -3.94162443e-03
      -7.20582344e-03 3.51971202e-02 -1.69706810e-02 -8.25596321e-03
      -6.45276206e-03 -5.80999590e-02 -1.54214222e-02 -2.44982447e-02
      -2.57915407e-02 2.76693869e-02 3.97018604e-02 -9.59301274e-03
      6.14880584e-03 -1.88478287e-02 -6.23534955e-02 -1.01518361e-02
      -2.06723139e-02 -2.59208661e-02 3.25012207e-02 1.00611057e-02
      -9.83697711e-04 -4.28962288e-03 -9.24892165e-03 -3.23036797e-02
      -2.23355293e-02 -5.71794435e-03 -6.23784307e-03 3.67773534e-03
      1.61166731e-02 -2.63026496e-03 -4.93037701e-03 -1.03947623e-02
      -4.11940590e-02 -2.07286570e-02 -4.07425920e-03 -3.75393825e-03
      1.00156292e-02 5.05115511e-03 -2.12850235e-03 -3.25754588e-03
      -9.69918352e-03 -2.66256575e-02 -1.65553335e-02 -9.64829884e-03
      -1.31117459e-02 -2.53437529e-03 1.61581510e-03 -1.68042984e-02
      -1.90435536e-02 -1.38933370e-02 -3.49325128e-02 -2.23548878e-02
      -1.48326745e-02 -1.15239751e-02 -1.32478902e-03 2.04201508e-02
      -5.16682956e-03 -5.61363297e-03 -9.54638980e-03 -9.35628414e-02
      -2.10860148e-02 -7.73382373e-03 -5.03050210e-03 1.60454176e-02
      4.69827577e-02 -9.01693653e-04 -2.00030860e-04 -2.80428771e-03
      -3.54818963e-02 -5.63122472e-03 -3.40856751e-03 -2.59106909e-03
      4.74293530e-02 3.02189104e-02 -5.76562062e-03 -2.19136514e-02
      -3.07533592e-02 -9.39729214e-02 -1.39671909e-02 1.81120802e-02
      2.50227936e-03 2.05660108e-02 3.67245786e-02 1.00905192e-03
      -2.10702117e-03 -1.47338770e-02 -7.93487430e-02 -1.90250110e-02
      3.45723964e-02 2.45399475e-02 2.80976836e-02 9.56572592e-03
      3.03432532e-02 6.25532269e-02 9.38719139e-03 -1.20351706e-02
      -3.40247639e-02 -2.00759470e-02 -1.15030101e-02 -2.93471909e-04
      3.17431726e-02 1.35368099e-02 4.04156707e-02 0. -1.19550982e-02
      -4.84093875e-02 -3.62763144e-02 -4.24119122e-02 1.91681478e-02
      -9.15098377e-03 1.27705419e-02 3.84656265e-02 2.71120761e-03
      2.00886484e-02 -2.28790101e-03 1.91735588e-02 -3.87080107e-03
      -9.87177528e-03 -7.92587455e-03 -1.26567134e-03 1.85802244e-02 0.
      2.09943913e-02 -6.10988995e-04 8.31120089e-03 -1.26275346e-02
      -2.49827057e-02 2.38077044e-02 -1.30418106e-03 1.77655891e-02 0.
      0. 0. -1.23878301e-04 -8.85540154e-03 4.26672073e-03
      1.31424526e-02 9.73730173e-04 9.89197474e-03 -4.43520112e-05 0. 0.
      -2.22172075e-05 -7.56649114e-03 4.01148759e-03 -1.47323553e-02
      1.30825315e-03 3.51354736e-03 0. 5.07197622e-03 0. -3.97219555e-05
      -4.12749825e-03 -2.80648563e-02 -2.99259592e-02 -8.31527822e-03
      3.11256433e-03 0. 2.27199378e-03 0. 0. -2.16143252e-03
      -3.85584272e-02 2.73083560e-02 1.01287207e-02 2.98790801e-02
      -1.78769906e-03 -4.24590614e-03 0. 1.64561123e-02 -9.33545083e-03
      -1.00760942e-03 4.90330113e-03 -1.20344004e-02 3.61202173e-02
      -5.37684187e-04 -4.82389145e-03 -1.55568053e-03 1.82191916e-02
      6.75521977e-03 -3.99398711e-03 8.17649812e-03 2.89464416e-03
      3.27152759e-02 0. 1.49891507e-02 0. 1.77744180e-02 -3.61434976e-03
      -2.26128921e-02 -2.14647800e-02 -2.22143400e-02 1.32502138e-03 0.
      2.25767158e-02 0. 3.61304320e-02 1.40715521e-02 -2.20698863e-02
      3.69544439e-02 8.12034868e-03 7.80877331e-03 -3.17404047e-05
      -2.10806265e-05 -1.03891250e-06 -1.81685947e-03 -1.60407089e-02
      1.24407548e-03 1.54142454e-02 -1.50554767e-02 -5.35523053e-03
      -2.60846224e-04 -1.74398767e-04 0. -3.18544189e-04 -7.05418224e-03
      1.04841236e-02 -8.97736289e-03 1.42705068e-02 1.56437028e-02 0.
      3.44309444e-03 0. -8.54714541e-04 -1.47603881e-02 -4.27544452e-02
      -1.80038139e-02 -1.65400505e-02 5.13843819e-03 0. 1.52874039e-02
      0. -8.57459818e-05 -6.81663491e-03 -2.78212894e-02 1.47584360e-03
      -9.33012739e-03 -1.74557343e-02 -3.33347693e-02 -1.72522105e-02
      9.33656353e-04 4.18813229e-02 1.90119129e-02 1.12110451e-02
      8.88898328e-04 -4.82346956e-03 -1.89281646e-02 -3.05626169e-02
      -8.53265822e-03 1.25266938e-02 4.13618311e-02 2.02386267e-02
      6.06540591e-03 -1.16445096e-02 -2.55563371e-02 -1.23485259e-03
      -1.33027388e-02 2.06896327e-02 1.22509140e-04 1.70620270e-02
      2.25756341e-03 -2.31255995e-04 -1.39172105e-02 -1.54096484e-02
      2.29736138e-02 -3.93216684e-03 1.85164008e-02 8.92229751e-03
      2.66543515e-02 6.43921550e-03 -9.49892402e-03</_>
    <_>
      -2.07118411e-02 -2.36866213e-02 -2.49621794e-02 -1.29280230e-02
      -1.91175640e-02 0. 0. 0. -1.59376934e-02 -6.71090782e-02
      -6.19745366e-02 -4.19511907e-02 -1.30296964e-02 -1.57402530e-02 0.
      0. -7.57648842e-04 -4.93762605e-02 -1.36541715e-02 -5.39167859e-02
      -7.25037977e-02 -5.17520048e-02 -5.61396256e-02 -3.02734273e-03
      -5.72230085e-04 -1.31067209e-04 -1.35485521e-02 -6.02119155e-02
      -8.03527534e-02 -8.61893892e-02 -4.43228818e-02 -3.95476185e-02
      -3.38723208e-03 -1.14446064e-03 -2.14433693e-03 -5.16545586e-02
      -5.27116172e-02 -1.93965547e-02 -6.95962086e-03 0. 0. 0.
      -1.39232565e-04 -1.25434035e-02 -8.58378112e-02 -5.09928577e-02
      -1.13406293e-02 -7.27210566e-03 0. -8.76974009e-05 -1.80586896e-04
      -5.51109714e-03 -3.41042764e-02 -7.65215158e-02 -7.99710900e-02
      -2.92056203e-02 -1.41217541e-02 -1.32600864e-04 -2.98137093e-05 0.
      -6.94274204e-03 -2.26561092e-02 -1.03086010e-01 -7.79822171e-02
      -7.81395845e-03 -4.12759325e-03 0. -1.03801991e-04 -8.33041221e-03
      -2.86389403e-02 -3.45075652e-02 -9.97575000e-02 -3.58090699e-02
      -7.88329728e-03 -1.40779011e-03 0. -2.40681213e-04 -6.42678177e-04
      -3.35841402e-02 -1.69192534e-02 -3.31473500e-02 -2.45762933e-02
      -8.24832637e-03 0. 0. -1.10223060e-02 -1.96047593e-04
      -3.63244079e-02 -2.74950881e-02 -3.64867896e-02 -5.35924286e-02
      -1.28051285e-02 -7.03895174e-04 -1.11477075e-05 -3.65798883e-02
      -4.80777137e-02 -8.11363384e-02 -3.13438550e-02 -5.66217080e-02
      -4.02960703e-02 -1.31295538e-02 0. 0. -3.31330895e-02
      -5.46214450e-03 -6.34416416e-02 -4.74672280e-02 -5.61363138e-02
      -9.01277599e-05 0. 0. 0. -2.94153579e-02 -9.17649886e-04
      -3.63731012e-02 -1.59084834e-02 -2.51452875e-04 -3.75606865e-03
      -1.55798494e-04 -7.85593602e-06 0. 0. 0. -1.75115361e-03
      -5.64474205e-04 -3.80246830e-03 0. 0. -1.01515977e-03
      -5.70227532e-03 -3.58598158e-02 -2.03572493e-02 -5.73598072e-02
      -3.76974046e-02 -5.31934529e-05 -2.95182429e-02 -4.42891717e-02
      -4.42891717e-02 -4.42891717e-02 -1.23213977e-02 -1.65138505e-02
      -4.04935367e-02 -6.76028011e-03 -7.60493893e-03 -8.91064480e-03
      -3.60627612e-03 -2.08253413e-02 -2.52153305e-03 -8.84606037e-03 0.
      -3.92325083e-03 -2.25370075e-03 -5.38780075e-03 -1.81310829e-02
      -8.88957176e-03 -2.76051834e-02 -1.18306128e-03 -1.98448021e-02
      -4.08288033e-04 -1.65773984e-02 -1.79676022e-02 -1.59940831e-02
      -3.84230837e-02 -7.44496426e-03 -1.53452624e-02 -2.96505820e-03
      -4.18880731e-02 -1.05079422e-02 -1.38102751e-02 -1.98831428e-02
      -3.84230837e-02 -2.38329526e-02 -2.09632702e-02 -3.16320136e-02
      -2.04749010e-03 -4.77998331e-02 -7.05906935e-03 -3.04789022e-02
      -3.13807502e-02 -3.20003964e-02 -2.61671115e-02 -5.86656295e-03
      -7.89449364e-03 -1.97299779e-03 -1.00890823e-01 -1.65009499e-02
      -9.50337946e-03 -1.80921406e-02 -3.28396223e-02 -3.63435000e-02
      -1.59293525e-02 -1.35084726e-02 -2.61158831e-02 -9.09607336e-02
      -8.49016849e-03 -1.86400078e-02 -2.05418877e-02 -3.63432653e-02
      -7.74929766e-03 -1.42993417e-03 -5.83779206e-03 -1.34798596e-02
      -8.66502821e-02 -8.55489820e-03 -1.12999105e-05 -1.20468659e-03
      -1.34038003e-02 -1.38463983e-02 -7.40943803e-03 -1.95560642e-02
      -2.81016510e-02 -9.10478160e-02 -1.43245226e-02 -8.61897785e-03
      -5.63070830e-03 -2.25498453e-02 -4.51574363e-02 -4.78825346e-02
      -5.17363399e-02 -2.26344094e-02 -4.84740436e-02 -1.48363672e-02
      -2.24140920e-02 -1.39200920e-02 -4.47398052e-02 -5.62452525e-02
      -3.55768912e-02 -1.94418766e-02 -7.94668403e-03 -8.33118055e-03
      -2.96218637e-02 -2.74410062e-02 -1.34931356e-02 -5.70793375e-02
      -6.01864466e-03 -5.56987152e-03 -1.08860834e-02 -2.55473759e-02
      -8.23424011e-02 -2.73128152e-02 -2.03855801e-02 -2.23203353e-03
      -5.88108087e-03 -1.04348026e-02 -5.44740353e-03 -5.37731545e-03
      -1.51776318e-02 -4.73566875e-02 -3.05479877e-02 -1.30417356e-02
      -1.61817286e-03 -1.30448239e-02 -9.02446173e-03 0. 0. 0.
      -6.73306733e-02 -3.43533754e-02 -3.23099680e-02 -2.17313133e-02
      -3.21284086e-02 -2.35958211e-03 0. 0. 0. -8.39387104e-02
      -4.10077795e-02 -3.02916355e-02 -3.11320201e-02 -2.22844221e-02
      -3.63672781e-03 -7.16418866e-03 -1.90405548e-02 -4.38173488e-03
      -9.78358090e-02 -3.03751156e-02 -2.39820667e-02 -7.66541902e-03
      -1.55781601e-02 -6.06352522e-04 -3.58322146e-03 -1.37917865e-02
      -1.69372037e-02 -1.18121289e-01 -4.22499850e-02 -1.84724350e-02
      -9.93037596e-03 -4.84839641e-03 0. 0. 0. -8.79906729e-05
      -8.05205330e-02 -2.49326192e-02 -9.37249325e-03 -5.02014533e-04 0.
      0. 0. -1.97930422e-04 -1.12857921e-02 -9.94867757e-02
      -1.87706854e-02 -2.22312566e-03 -9.20321418e-06 0. 0.
      -1.11366948e-03 -3.33251059e-03 -4.97177643e-05 -8.61777142e-02
      -1.29156187e-02 -3.38848736e-06 0. 0. 0. 0. 0. 0. -9.94867757e-02
      -1.35265607e-02 -5.31139784e-04 0. 0. -1.65100407e-03
      -2.66594579e-04 -2.03270058e-04 -1.09065429e-03 -6.95275664e-02
      -2.05664206e-02 -2.04261821e-02 -1.79966772e-03 -1.58048444e-03 0.
      0. 0. 0. -8.11053291e-02 -2.93356609e-02 -1.44420695e-02
      -7.98892637e-04 -2.73974641e-04 0. -4.13799332e-03 -1.23824384e-02
      0. -8.32375437e-02 -1.16372406e-02 -9.75115318e-03 -2.11218707e-04
      0. 3.02786641e-02 -8.27599037e-03 -2.02927422e-02 0.
      -5.79492263e-02 -1.17466236e-02 -9.61710885e-03 0. 3.02786641e-02
      -2.97166151e-03 -2.01255688e-03 -2.36143591e-03 -4.63326753e-04
      -8.40787441e-02 -5.39093465e-03 -5.50601864e-03 -2.88888637e-04
      4.64634271e-03 -6.99921278e-03 -2.28026486e-03 -1.62101036e-03
      -7.32906722e-03 -7.53392577e-02 -9.77464858e-03 0. 6.14813296e-04
      4.70359623e-03 -5.52020688e-03 4.98999027e-04 1.39466254e-02
      3.35871591e-03 -8.36512744e-02 -2.60974299e-02 -7.54806306e-03
      -2.89727846e-04 2.00090669e-02 6.60797302e-03 -2.45312462e-03
      1.93954799e-02 3.95049062e-03 -6.89451247e-02 -4.04801443e-02
      -2.42841840e-02 -6.85998378e-03 2.63335966e-02 -5.33754751e-03
      -3.59753845e-03 -3.22377449e-03 -2.51839291e-02 -4.69611585e-02
      -2.08897498e-02 -1.36579070e-02 -5.85065410e-03 -8.62096716e-03
      -1.17384363e-02 -6.88756164e-03 -6.71283575e-03 -1.33816022e-02
      -3.56872976e-02 -2.71764304e-03 -3.48783331e-03 -3.58094159e-03
      -2.08767708e-02 1.38832945e-02 -2.57457215e-02 -1.30785005e-02
      -2.04014666e-02 -4.74839881e-02 -1.99162420e-02 -2.45391335e-02
      -3.33434530e-02 -1.00507326e-02 2.39137802e-02 -2.39637867e-02
      -1.03519754e-02 -1.78433042e-02 -2.37553082e-02 -2.52739247e-03
      -1.12736207e-02 -1.70959141e-02 2.15657949e-02 -2.94151320e-03
      -1.10374661e-02 -2.44519040e-02 -1.57703590e-02 -8.50642547e-02
      -2.30265297e-02 -1.63159203e-02 -3.15520633e-03 -1.78963097e-03
      -2.44792871e-04 -4.52465517e-03 -2.11840197e-02 -2.99206693e-02
      -9.52160358e-02 -1.67399514e-02 -1.77464448e-02 -6.28585927e-03
      -7.59615749e-03 5.23669608e-02 -3.82949151e-02 -3.93824801e-02
      -8.99759773e-03 -6.61650673e-02 -2.64250319e-02 -3.05401962e-02
      -2.49391217e-02 5.71013354e-02 6.38737381e-02 -3.78378388e-03
      2.23511271e-02 -2.74376180e-02 -6.48598075e-02 -1.84933171e-02
      -3.02236397e-02 -3.10022868e-02 5.61876893e-02 8.71441606e-03
      -4.94852057e-03 -7.56988209e-03 -1.44344298e-02 -3.44776548e-02
      -1.71092879e-02 -1.42403645e-02 -6.54838234e-03 1.15194013e-02
      1.87327955e-02 -1.27419205e-02 -2.71476880e-02 -2.20989157e-02
      -5.75874075e-02 -1.92390326e-02 -7.70485634e-03 -1.21293040e-02
      1.51861170e-02 5.17342938e-04 1.34574497e-04 1.23570822e-02
      -4.41963226e-03 -2.08206307e-02 -2.25107111e-02 -3.86624783e-02
      -2.78791003e-02 4.73847473e-03 -1.33302771e-02 -2.85522658e-02
      -2.30957903e-02 -2.05061566e-02 -2.26291232e-02 -1.77187845e-02
      -2.38002613e-02 -2.83107311e-02 -3.25869326e-03 7.30792154e-03
      -1.08297588e-02 -2.39922311e-02 -1.20056393e-02 -7.54940808e-02
      -2.64121313e-03 -1.26501208e-03 -2.13506515e-03 2.54084845e-03
      4.76758480e-02 -3.24138463e-03 -1.06850518e-02 -1.44318687e-02
      -4.80819345e-02 -1.26296431e-02 -2.89852009e-03 -3.40929418e-03
      4.08044942e-02 2.32046712e-02 -1.98766608e-02 -2.00846940e-02
      -2.22127456e-02 -6.29741475e-02 -1.22245029e-02 9.33047011e-03
      -1.05997235e-04 1.31550729e-02 4.85670380e-02 -2.68706493e-03
      -1.08611537e-02 -1.76733453e-02 -7.61686042e-02 -3.63953188e-02
      2.89763492e-02 2.89804414e-02 3.83306183e-02 1.48126874e-02
      3.88484672e-02 6.43587112e-02 6.89018099e-03 -2.80390563e-03
      -2.68915743e-02 -5.54356091e-02 -1.41786952e-02 5.26473206e-03
      2.51663886e-02 6.74737431e-03 4.38567363e-02 -8.16645275e-04
      7.84007926e-03 -2.37480309e-02 -3.54143195e-02 -3.09239775e-02
      2.14423407e-02 -1.38506182e-02 1.75397806e-02 3.82346436e-02
      1.99978077e-03 3.85155715e-02 1.39770462e-04 2.42923796e-02
      -1.33739607e-02 -1.84756536e-02 -5.84872346e-03 -3.67712765e-03
      1.46533241e-02 0. 2.13910267e-02 -3.45171127e-03 -4.50017722e-03
      -1.07017197e-02 -2.06687693e-02 2.55132671e-02 1.06762664e-03
      5.24683157e-03 -2.98309224e-05 -2.13266132e-04 -1.46401881e-05
      -1.91186657e-04 -3.68728139e-03 1.51156085e-02 1.76020134e-02
      -2.06775311e-02 5.73305460e-03 -1.49154657e-05 -1.26300165e-06 0.
      0. -6.37702923e-03 4.36632428e-03 -2.15607993e-02 9.95596685e-03
      4.35288716e-03 0. 7.43640179e-04 0. 0. -9.43919818e-04
      -3.25153284e-02 -2.92911008e-02 -4.35760664e-03 7.65183009e-03 0.
      3.95520583e-05 0. -1.30502140e-05 -2.61588651e-03 -4.20950092e-02
      1.28947422e-02 1.19261863e-02 3.39705460e-02 -3.48996604e-04
      -1.09937449e-03 0. 1.47236632e-02 -1.37082795e-02 -2.49852776e-03
      -5.43871522e-03 -1.22145768e-02 3.06201465e-02 0. -2.01542221e-04
      -2.69923239e-05 1.31782359e-02 9.43935290e-03 -1.59324277e-02
      1.93352308e-02 4.21432123e-05 3.79257314e-02 0. 2.44916752e-02 0.
      1.80589184e-02 -1.24751581e-02 -1.30993389e-02 -2.07974780e-02
      -2.49407310e-02 9.42029816e-04 0. 2.99779065e-02 0. 2.64912657e-02
      1.47006074e-02 -1.91207863e-02 3.62647623e-02 -5.53715695e-03
      2.91188760e-03 0. 0. -4.38948846e-05 -8.56342260e-04
      -2.45088506e-02 1.62981730e-02 2.67374404e-02 -1.25956144e-02
      -4.62554250e-04 -1.02471102e-04 0. -2.36742126e-05 -1.15226816e-04
      -5.35967946e-03 7.73706613e-03 -1.78477410e-02 3.59224330e-04
      6.08096272e-03 0. 2.44129705e-03 0. 0. -1.74096506e-02
      -4.40921783e-02 -2.07796730e-02 -1.54886805e-02 -5.86567400e-03 0.
      1.08394045e-02 0. 0. -5.42478310e-03 -3.09655927e-02
      -2.40881206e-03 -6.78860676e-03 -5.29312994e-03 -2.82054655e-02
      -1.33422390e-02 -2.66956422e-03 3.58078405e-02 5.23371901e-03
      1.07624126e-03 1.41897611e-03 -1.33266184e-03 -1.87313091e-02
      -5.12670279e-02 4.71264677e-04 7.90610444e-03 3.62620689e-02
      1.74084287e-02 1.34758791e-02 -2.32650321e-02 -1.98493432e-02
      1.20413501e-03 -6.25343015e-03 3.00525967e-02 1.62304950e-05
      1.32622737e-02 -9.15607344e-03 -1.97584257e-02 -1.92547776e-02
      -1.97008941e-02 -6.74515439e-04 -1.84492785e-02 1.37347458e-02
      7.29193212e-03 2.09290963e-02 4.56823409e-03 -9.97569412e-03</_>
    <_>
      -6.97482657e-03 0. 0. 0. 0. 0. 0. 0. -6.97482657e-03
      -3.03622354e-02 -6.90298853e-03 -1.12955309e-02 -8.21201783e-03
      -6.39057532e-03 0. 0. 0. -2.50225253e-02 -1.88476983e-02
      -1.59291383e-02 -4.31178808e-02 -1.66098308e-02 -3.09344735e-02 0.
      0. 0. -1.88476983e-02 -6.09573908e-02 -5.14538027e-02
      -5.84222153e-02 -1.93058886e-02 -1.71186496e-02 0. -4.36973991e-04
      -6.82683801e-03 -4.12823148e-02 -3.92724127e-02 -1.65407881e-02
      -9.83955245e-03 -7.46803079e-03 -6.76161796e-03 -1.06390238e-04
      -3.61341954e-04 -2.72049831e-04 -3.11088860e-02 -6.17603436e-02
      -3.42353843e-02 -2.71035861e-02 -3.73401679e-03 -3.67073179e-03 0.
      -4.78502916e-04 -9.45789681e-04 -5.07534705e-02 -7.16358200e-02
      -4.47450988e-02 -2.52906624e-02 -1.86951198e-02 -3.26059461e-02
      -2.12780535e-04 -4.82242182e-03 -1.97641943e-02 -5.20109572e-02
      -9.69083086e-02 -6.65827021e-02 -4.28521223e-02 -8.69174954e-03
      -3.24056037e-02 0. -4.71641746e-04 -6.74707757e-04 -9.18667540e-02
      -5.28949127e-02 -9.04962607e-03 -2.42875759e-02 0. -1.56262133e-03
      -1.78194561e-04 -9.66467615e-03 -4.79492638e-03 -5.95563576e-02
      -6.56445920e-02 -3.31280977e-02 -4.00844887e-02 0. 0. 0.
      -1.43733900e-02 -8.41415208e-03 -6.70065433e-02 -7.23484680e-02
      -6.66997349e-03 -1.09233847e-02 -3.24418652e-03 -1.11146318e-02
      -9.25522763e-04 -2.55162884e-02 -1.40198683e-02 -8.35055485e-02
      -8.53018388e-02 -3.13757136e-02 -3.91573720e-02 -7.15844706e-03
      -2.37406157e-02 -4.18212818e-04 -1.66163146e-02 -1.33285411e-02
      -8.60357732e-02 -7.87611306e-02 -1.56595744e-02 -1.42414067e-02 0.
      0. 0. -1.34240821e-04 -4.52048145e-04 -7.81155601e-02
      -8.12171251e-02 -2.92885527e-02 -1.73724573e-02 0. 0. 0.
      -7.31913780e-04 -5.41190337e-03 -8.07763264e-02 -5.41325510e-02
      -2.27350034e-02 -1.52370110e-02 -1.74057073e-04 -1.17201288e-03 0.
      -1.68234517e-03 -3.60080861e-02 -6.86158091e-02 -5.08633517e-02
      -3.22139263e-02 -1.89734567e-02 0. -3.02508386e-04 0.
      -5.62926801e-03 -4.56915163e-02 -6.20216243e-02 -6.21299595e-02
      -7.81595474e-04 0. 0. 0. -2.69459357e-04 -4.25908193e-02
      -3.23515907e-02 -6.61403611e-02 -4.89810184e-02 0. 0. 0. 0.
      -1.30162656e-03 -5.52527010e-02 -4.49436903e-02 -4.91069481e-02
      -3.13662142e-02 -7.74605898e-03 -2.17533228e-03 -6.40727012e-05
      -5.22358418e-02 -1.75567847e-02 -7.20169097e-02 -4.49336655e-02
      -3.25600654e-02 -4.25829999e-02 0. 0. 0. -2.55391672e-02
      -1.96874645e-02 -3.75764444e-02 -2.91079171e-02 -3.85221578e-02
      -1.17298616e-04 -9.06225201e-03 -4.60632667e-02 -1.18257878e-02
      -5.99809140e-02 0. 0. 0. -1.17298616e-04 -4.63970983e-03
      -1.60234496e-02 -2.74173468e-02 -3.32139544e-02 -5.11467680e-02
      -2.48732953e-03 -8.45349685e-04 -2.17321212e-05 -3.30712809e-03
      -6.50380366e-03 -9.97191109e-03 -2.07947623e-02 -5.17576374e-03
      -7.50351772e-02 -3.27066611e-03 -1.01185059e-02 -1.57439115e-03
      -2.33138283e-03 -1.01190927e-02 -1.13751981e-02 -1.73758883e-02
      -3.47552933e-02 -5.66507205e-02 -5.29553229e-03 -7.82485120e-03
      -1.34430709e-03 -6.32888544e-03 -2.27903016e-02 -2.67251339e-02
      -5.20555265e-02 -2.73154378e-02 -5.20546287e-02 0. 0.
      -9.06612899e-04 -2.29497589e-02 -2.40222644e-02 -2.71910671e-02
      -4.63203527e-02 -3.68581875e-03 -2.35143341e-02 0. 0. 0.
      -9.27362218e-03 -3.05474102e-02 -1.83585584e-02 -1.76999643e-02
      -2.76506972e-03 -5.73514104e-02 0. 0. -6.01600949e-03
      -3.15797925e-02 -3.05953138e-02 -2.57041436e-02 -3.20362076e-02
      -4.17440943e-03 -5.66257760e-02 0. 0. -8.93466116e-04
      -2.01101582e-02 -2.80179139e-02 -8.27362482e-03 -1.86971817e-02
      -4.98412646e-06 -2.24118046e-02 -1.07630854e-03 -6.51855767e-03
      -1.67035237e-02 -4.75264266e-02 -2.97738500e-02 -1.42933242e-02
      -1.63148846e-02 0. -2.54883450e-02 -7.65192695e-03 -4.86093247e-03
      -3.15090381e-02 -5.22217117e-02 -1.82443559e-02 -1.20066069e-02
      -1.57648250e-02 -2.28552730e-03 -1.57471113e-02 -1.33934163e-03
      -5.15081175e-03 -1.22235520e-02 -2.65795570e-02 -1.24853831e-02
      -7.61465495e-03 -8.57764576e-03 -1.11770153e-03 -1.15308175e-02
      -1.38705201e-03 -6.05980307e-03 -2.40822658e-02 -3.29284146e-02
      -1.85068864e-02 -8.37300438e-03 -1.23811606e-02 -3.75211607e-06 0.
      0. -5.46702882e-04 -1.83210764e-02 -3.82200964e-02 -8.20517261e-03
      -3.11457756e-04 -1.05485575e-04 0. -1.04602259e-04 -9.58072706e-05
      -2.19382886e-02 -2.19382886e-02 -2.65872814e-02 -1.08698132e-02
      -2.76127900e-03 -3.32759484e-03 -3.00064257e-05 -1.66459824e-04 0.
      -5.30841004e-04 -1.19843278e-02 -2.55828742e-02 -9.64717008e-03
      -2.37626280e-03 -1.03281916e-03 0. 0. -4.28789854e-03
      -2.19382886e-02 -2.11613048e-02 -2.69937441e-02 -6.66756462e-03
      -2.71685375e-03 -9.48250946e-03 0. -1.17161898e-02 -1.56309567e-02
      -3.38144414e-02 -5.84739354e-03 -7.22089270e-03 -9.09364782e-03
      -7.18104606e-03 -1.06300069e-02 -3.60202626e-04 -4.98780347e-02
      -5.15005225e-03 -2.81833857e-02 -7.04191672e-03 -9.09364782e-03
      -8.06740113e-03 -6.28783973e-03 -1.00725088e-02 -3.24858323e-04
      -1.85378343e-02 -2.71605346e-02 -3.09632365e-02 -5.62234502e-03
      -8.21290165e-03 3.51626746e-04 -6.65992685e-03 -1.02825724e-02
      -1.37012254e-03 -4.78071570e-02 -2.24831495e-02 -2.80715730e-02
      -1.15866819e-02 9.81909223e-04 1.36626232e-03 0. -6.98014069e-03
      1.61143637e-03 -7.94637948e-02 -1.31264981e-02 -8.74205772e-03
      1.14295881e-05 3.16622271e-03 1.92521745e-03 -6.05717287e-05
      -4.84006293e-03 -6.74018578e-04 -5.45051098e-02 -2.93938462e-02
      -1.91826615e-02 3.80421930e-04 5.52513869e-03 2.63625532e-02
      1.80141963e-02 3.25262249e-02 4.88314545e-03 -6.49797246e-02
      -2.08834782e-02 -2.04477888e-02 -3.82824428e-03 2.42821518e-02
      -2.14180648e-02 2.33760420e-02 2.80788746e-02 3.18195147e-04
      -3.21139246e-02 -3.69553417e-02 -4.74156663e-02 -1.17123369e-02
      -1.81482155e-02 -9.46501549e-03 -4.10005625e-04 -5.03388606e-03
      -2.67338846e-03 -6.89807832e-02 -8.42407055e-04 -6.17152965e-03
      -1.02738813e-02 -2.84840986e-02 -8.95514432e-03 -4.74808039e-04
      -8.93564336e-03 -9.35969874e-03 -4.49929126e-02 -8.35574232e-04
      -1.96053390e-03 -1.56802032e-02 -2.72494797e-02 4.37968522e-02
      -4.50719800e-03 -1.43878944e-02 -1.62062179e-02 -5.97770177e-02
      -6.33621030e-03 -1.13544324e-02 -2.64223274e-02 2.12473180e-02
      4.33874056e-02 -2.43853382e-03 -1.15892077e-02 -9.82328970e-03
      -4.96055968e-02 -2.18541618e-03 -9.32156481e-03 -2.61679105e-02
      2.04242021e-02 -1.72864050e-02 -1.41585153e-02 -1.55074913e-02
      -2.23734602e-03 -1.71719380e-02 -6.07322669e-04 -6.56370074e-03
      -1.71045319e-03 -1.19444998e-02 -2.52295434e-02 -1.32249743e-02
      -8.75955820e-03 0. -3.27516464e-03 -6.00892003e-04 -5.05928416e-03
      -3.24968435e-03 -2.57870425e-02 8.52965117e-02 -2.31681000e-02
      -2.99820080e-02 -1.01657188e-03 -2.01805215e-02 -1.08789548e-03
      -1.02454713e-02 -3.62103479e-03 9.90610495e-02 7.40166306e-02
      1.98250376e-02 4.38425690e-02 0. -2.07245611e-02 -6.95670373e-04
      -2.10042596e-02 -1.01130158e-02 7.26175308e-02 6.77017542e-03
      -5.31752361e-03 -7.23786093e-03 -2.15041637e-05 -2.49124086e-03
      -3.86941625e-04 -8.65371621e-05 -8.19886383e-03 -6.16491726e-03
      2.01134123e-02 -1.70345884e-02 -1.32799614e-02 -2.46474869e-03
      -7.49577375e-05 -1.10378768e-03 -2.05504592e-03 -4.05963976e-03
      1.47168273e-02 9.41137448e-02 1.93587765e-02 1.64771713e-02
      -1.24477701e-05 -5.81512135e-03 0. 0. -1.55762620e-02
      8.20587501e-02 8.64410549e-02 9.94081143e-03 5.99980215e-03 0. 0.
      0. -2.23450037e-03 -5.93807036e-03 8.64410549e-02 4.54136096e-02
      -1.78228959e-03 -1.03487018e-02 -2.14298740e-02 -2.48155873e-02
      -7.32416147e-03 -1.26152020e-02 -4.38745366e-03 4.54136096e-02
      4.38955650e-02 -3.37079680e-03 -4.08422528e-03 -1.23982793e-02
      -6.40423149e-02 -2.97703315e-03 -1.26152020e-02 -6.09356258e-03
      4.42507714e-02 8.90343711e-02 2.86962911e-02 9.51914210e-03
      -2.14298740e-02 -7.21153617e-03 0. 2.77457330e-02 2.31517293e-02
      8.90343711e-02 8.56033862e-02 5.53829188e-04 -2.39667408e-02
      -1.76430251e-02 -6.89053014e-02 -1.55512855e-04 8.40160400e-02
      7.85836652e-02 8.30798894e-02 2.93250941e-02 1.43283755e-01
      1.90698400e-01 2.09273994e-02 1.17523342e-01 -1.50590984e-03
      -9.66620352e-03 1.24425674e-02 3.55589949e-02 1.48785383e-01
      6.70622811e-02 9.06567797e-02 -1.35758286e-03 3.20972875e-02
      -4.23183572e-03 -3.89058068e-02 -2.52474416e-02 1.58579648e-01
      1.55430613e-02 5.69138750e-02 1.21703580e-01 4.93427599e-03
      1.67778298e-01 1.86823383e-02 1.65807441e-01 4.65368330e-02
      1.77830961e-02 2.70790271e-02 1.68967675e-02 4.71195988e-02
      1.22065330e-03 1.08501367e-01 1.34708872e-03 4.11183685e-02
      3.25475633e-03 2.11771727e-02 1.97163045e-01 3.18415929e-03
      2.86126304e-02 -5.11833653e-03 -1.46607924e-02 -9.55450290e-04
      -8.95541068e-03 -9.52972192e-03 1.83769614e-01 2.32566506e-01
      3.51942256e-02 1.02657285e-02 -1.27646868e-04 -7.95377418e-03
      -2.85179680e-03 -1.00912135e-02 -9.86597873e-03 2.31454208e-01
      1.82798728e-02 4.71082516e-04 -1.49134519e-02 -1.24043715e-03
      2.56673712e-02 0. -2.56133126e-03 -3.86596099e-03 2.06629764e-02
      6.60521537e-02 -8.80496111e-03 -2.79657473e-03 0. 9.34201851e-02
      -1.60309440e-03 -1.00912135e-02 -7.49427127e-03 6.50667027e-02
      1.50004178e-01 2.34244168e-02 7.52250031e-02 -4.42365743e-03
      -1.78291909e-02 -2.32469384e-03 3.72961164e-02 1.42945005e-02
      1.44747987e-01 1.74943447e-01 7.63340667e-03 6.26314580e-02
      -9.61812271e-04 -2.45464053e-02 -6.21431274e-03 2.07100920e-02
      9.01834853e-03 1.76139832e-01 1.35500491e-01 4.92536575e-02
      7.75881112e-02 -1.99707132e-03 6.20042421e-02 -1.42201199e-03
      3.59686390e-02 3.20614874e-02 1.37057900e-01 9.09698159e-02
