<?xml version="1.0"?>
<opencv_storage>
<opencv_ml_svm>
  <format>3</format>
  <svmType>C_SVC</svmType>
  <kernel>
    <type>INTER</type>
    <gamma>1.0000000000000001e-05</gamma></kernel>
  <C>1.0000000000000001e-01</C>
  <term_criteria><iterations>10000</iterations></term_criteria>
  <var_count>900</var_count>
  <class_count>3</class_count>
  <class_labels type_id="opencv-matrix">
    <rows>3</rows>
    <cols>1</cols>
    <dt>i</dt>
    <data>
      0 1 3</data></class_labels>
  <sv_total>352</sv_total>
  <support_vectors>
    <_>
      0. 0. 0. 0. 0. 0. 0. 0. 0. 0. 0. 0. 0. 9.66390729e-01 0. 0. 0. 0.
      0. 0. 0. 0. 0. 0. 0. 0. 0. 0. 0. 0. 0. 2.37588719e-01 0. 0. 0. 0.
      3.20337042e-02 0. 0. 0. 4.75806333e-02 1.12386076e-02
      2.88724989e-01 2.88724989e-01 2.47928634e-01 8.70232135e-02 0. 0.
      0. 0. 0. 2.39606395e-01 2.88724989e-01 2.88724989e-01
      4.63915542e-02 0. 0. 0. 0. 0. 2.37681136e-01 2.41540700e-01
      2.88724989e-01 2.88724989e-01 0. 0. 0. 0. 0. 2.88724989e-01
      2.88724989e-01 2.88724989e-01 1.05856270e-01 1.82065293e-02 0. 0.
      0. 0. 0. 1.99716110e-02 1.07426703e-01 3.08007270e-01
      3.64130773e-02 0. 0. 0. 0. 0. 0. 2.04490244e-01 3.57876301e-01
      2.70989209e-01 0. 0. 0. 0. 1.02132221e-03 3.17119241e-01
      3.57876301e-01 3.57876301e-01 3.57876301e-01 0. 0. 0. 0. 0.
      1.43385306e-01 3.57876301e-01 2.60807663e-01 2.10964113e-01
      8.87277573e-02 1.27526661e-02 2.85458378e-02 0. 0. 0.
      2.60807663e-01 2.60807663e-01 2.60807663e-01 2.60807663e-01
      2.60807663e-01 1.87940493e-01 0. 0. 0. 2.43869737e-01
      2.60807663e-01 2.60807663e-01 1.77455559e-01 2.55053397e-02
      1.13574319e-01 0. 0. 0. 2.60807663e-01 2.60807663e-01
      1.35928601e-01 1.86476156e-01 4.95409295e-02 1.64973512e-02 0. 0.
      0. 2.60807663e-01 0. 0. 0. 0. 9.95024860e-01 0. 0. 0. 0. 0. 0. 0.
      0. 0. 0. 0. 0. 0. 0. 0. 0. 0. 0. 0. 0. 0. 0. 0. 0. 0. 0. 0. 0. 0.
      0. 0. 0. 0. 0. 0. 0. 0. 0. 0. 0. 0. 0. 0. 0. 0. 0. 0. 0. 0. 0. 0.
      0. 0. 0. 0. 0. 0. 0. 0. 0. 0. 0. 9.95024860e-01 0. 0. 0. 0.
      1.50978684e-01 0. 0. 0. 0. 0. 0. 0. 1.50978684e-01 9.44144130e-02
      0. 0. 0. 0. 0. 0. 0. 9.44144130e-02 3.59134436e-01 9.30064768e-02
      3.03292144e-02 1.44574016e-01 0. 0. 1.43755963e-02 3.59134436e-01
      3.59134436e-01 2.63952464e-01 0. 3.52137759e-02 2.38145798e-01
      3.59134436e-01 0. 2.87512019e-02 3.59134436e-01 3.59134436e-01 0.
      0. 0. 0. 0. 0. 0. 0. 0. 0. 0. 0. 0. 0. 0. 0. 0. 0. 0. 0. 0. 0. 0.
      0. 0. 0. 0. 0. 0. 0. 0. 0. 0. 0. 0. 0. 0. 0. 0. 0. 0. 0. 0. 0. 0.
      0. 0. 0. 0. 0. 0. 0. 0. 0. 0. 0. 0. 0. 0. 0. 0. 0. 0. 0. 0. 0. 0.
      0. 0. 0. 0. 0. 0. 0. 0. 0. 0. 0. 0. 0. 0. 0. 0. 0. 0. 0. 0. 0. 0.
      0. 0. 0. 0. 0. 0. 0. 0. 0. 0. 0. 0. 0. 0. 0. 0. 0. 0. 0. 0. 0. 0.
      2.94781048e-02 3.38019617e-02 0. 0. 0. 0. 0. 5.80261350e-02
      4.37959343e-01 2.68421233e-01 9.52900052e-02 0. 0. 0. 0.
      1.71375964e-02 0. 0. 2.25234538e-01 2.99538434e-01 0. 0. 0.
      1.71375964e-02 0. 2.90130749e-02 4.37959343e-01 4.37959343e-01
      4.37959343e-01 0. 0. 0. 0. 0. 0. 3.15452702e-02 2.00877839e-04
      3.36417556e-01 5.68550453e-02 8.75573307e-02 2.92601902e-02 0.
      1.88039675e-01 9.86286905e-03 6.30905554e-02 4.01755766e-04
      3.36417556e-01 1.13710128e-01 1.75114721e-01 5.85203990e-02
      8.80521312e-02 3.04759271e-03 0. 0. 0. 3.36417556e-01
      2.84275301e-02 1.75114721e-01 1.18972719e-01 1.36885837e-01
      3.36417556e-01 7.18824938e-02 0. 0. 2.85000980e-01 5.68550788e-02
      3.36417556e-01 2.37945527e-01 3.36417556e-01 2.84322292e-01
      1.20392404e-01 4.83536273e-02 0. 0. 0. 5.85456751e-02
      6.00462630e-02 2.84322292e-01 2.84322292e-01 4.34823073e-02
      1.00500613e-01 2.32917532e-01 8.30575973e-02 0. 1.17091380e-01
      1.20092571e-01 2.84322292e-01 2.16407984e-01 2.40784883e-01
      9.67072919e-02 0. 0. 0. 1.17091380e-01 1.20092571e-01
      2.84322292e-01 2.84322292e-01 2.17411574e-02 5.08337207e-02
      2.15730354e-01 4.15288061e-02 0. 2.34182850e-01 2.40185201e-01
      2.84322292e-01 2.55431145e-01 2.94230389e-03 2.47787661e-03 0. 0.
      0. 2.04619050e-01 3.24597001e-01 3.29921454e-01 3.29921454e-01 0.
      0. 0. 0. 0. 7.59702474e-02 7.79174417e-02 3.29921454e-01
      2.85058022e-01 5.88460965e-03 4.95575508e-03 0. 0. 0.
      1.02309547e-01 1.62298545e-01 3.27031583e-01 3.29921454e-01
      7.34897936e-03 6.18899381e-03 0. 0. 0. 3.79851237e-02
      3.89587283e-02 3.29921454e-01 9.35165137e-02 0. 0. 0.
      4.59660999e-02 2.10472584e-01 2.98926115e-01 4.76935990e-02
      9.35165137e-02 0. 0. 0. 0. 2.29830537e-02 0. 0. 0. 0.
      4.67582680e-02 3.92148569e-02 2.45784745e-01 1.73055425e-01
      4.44872856e-01 4.20945287e-01 4.44872856e-01 9.53872353e-02
      4.67582680e-02 0. 0. 0. 0. 4.01382625e-01 0. 0. 0. 0.
      6.17770059e-03 0. 0. 0. 2.68129140e-01 2.90867448e-01
      1.97160363e-01 4.84722154e-03 6.17770059e-03 5.35674170e-02 0. 0.
      0. 2.57568777e-01 2.87421465e-01 2.90867448e-01 1.77253604e-01
      2.90867448e-01 0. 0. 9.26314741e-02 2.90867448e-01 2.90867448e-01
      2.90867448e-01 1.78749532e-01 2.42361124e-03 0. 5.27164117e-02 0.
      0. 7.87124559e-02 2.90867448e-01 1.10677667e-01 1.45047251e-02
      2.32328344e-02 2.19653234e-01 3.10495853e-01 0. 0. 0. 0. 0. 0.
      1.31259844e-01 3.10495853e-01 3.10495853e-01 1.33048341e-01
      2.59798735e-01 2.98093766e-01 3.10045816e-02 0. 0. 2.62519807e-01
      3.10495853e-01 1.83121711e-01 0. 0. 0. 0. 0. 0. 6.56299368e-02
      3.10495853e-01 3.10495853e-01 6.57306761e-02 0. 3.72513458e-02
      1.00685460e-02 0. 0. 1.31259918e-01 3.10495853e-01 3.42036396e-01
      3.57396645e-03 0. 0. 2.49237265e-03 0. 0. 4.04335886e-01
      4.04335886e-01 4.04335886e-01 2.08516434e-01 0. 0. 0. 0. 0.
      2.01370820e-01 4.04335886e-01 9.75919515e-02 0. 0. 0.
      1.24618667e-03 0. 0. 0. 9.75919515e-02 2.46904492e-01 0. 0. 0. 0.
      0. 0. 0. 2.46904492e-01 3.88998926e-01 9.30079371e-02
      4.48646257e-03 0. 0. 0. 0. 3.88998926e-01 3.88998926e-01
      3.88998926e-01 3.88998926e-01 4.31395173e-02 0. 0. 0. 0.
      2.29145676e-01 3.88998926e-01 5.01531474e-02 0. 0. 0. 0. 0. 0. 0.
      5.01531474e-02 1.00306325e-01 0. 0. 0. 0. 0. 0. 0. 1.00306325e-01
      2.67025918e-01 5.16347349e-01 7.63647735e-01 0. 0. 0. 0. 0.
      2.67025918e-01 0. 0. 0. 0. 0. 0. 0. 0. 0. 0. 0. 0. 0. 0. 0. 0. 0.
      0. 0. 0. 0. 0. 0. 0. 0. 0. 0. 1.94800403e-02 1.94468856e-01
      3.60335410e-01 3.60335410e-01 3.60335410e-01 9.30113792e-02
      2.45045144e-02 0. 1.94800403e-02 2.67722527e-03 0. 0.
      2.44166747e-01 3.60335410e-01 2.08223462e-02 0. 0. 2.67722527e-03
      2.59164646e-02 9.72344577e-02 3.60335410e-01 3.03439409e-01
      3.60335410e-01 0. 0. 0. 2.59164646e-02 5.35445241e-03 0. 0.
      7.46438503e-02 3.08841523e-02 0. 0. 0. 5.35445241e-03
      7.17496406e-03 0. 0. 0. 0. 0. 0. 0. 7.17496406e-03 1.55083701e-01
      0. 0. 0. 0. 0. 0. 0. 1.55083701e-01 1.43499328e-02 3.97685081e-01
      6.29710546e-03 0. 3.95531297e-01 0. 0. 0. 1.43499328e-02
      3.97685081e-01 3.97685081e-01 1.25942146e-02 0. 3.97685081e-01 0.
      0. 0. 3.97685081e-01 1.79521933e-01 1.38088316e-01 1.75087631e-01
      0. 0. 0. 0. 0. 9.57331136e-02 2.75821447e-01 1.50412351e-01
      1.71710178e-01 0. 0. 0. 1.06817514e-01 2.41719484e-01
      2.75821447e-01 2.75821447e-01 2.75821447e-01 2.75821447e-01 0. 0.
      0. 0. 0. 4.84129377e-02 2.75821447e-01 2.75821447e-01
      2.75821447e-01 0. 0. 0. 2.13635117e-01 2.75821447e-01
      2.26933971e-01 5.91491982e-02 0. 0. 0. 4.09567170e-03 0. 0.
      4.16635610e-02 3.40460151e-01 2.62606563e-03 0. 0. 0.
      8.19134526e-03 0. 0. 2.08317861e-02 5.43223359e-02 1.06544144e-01
      0. 0. 0. 1.13001145e-01 0. 3.49953890e-01 3.49953890e-01
      3.49953890e-01 1.80260614e-01 0. 0. 0. 3.49953890e-01 0.
      3.49953890e-01 3.49953890e-01 2.83653200e-01 0. 0. 0. 0. 0. 0. 0.
      0. 0. 0. 0. 0. 0. 0. 0. 0. 0. 0. 0. 0. 0. 0. 0. 0. 0. 0. 0. 0. 0.
      0. 0. 0. 0. 0. 0. 0.</_>
    <_>
      0. 0. 0. 0. 0. 0. 0. 0. 0. 0. 0. 0. 0. 0. 0. 0. 0. 0. 0. 0. 0. 0.
      0. 0. 0. 0. 0. 0. 0. 0. 0. 0. 0. 0. 0. 0. 5.70318922e-02 0. 0. 0.
      2.40658924e-01 2.77857184e-01 3.32852960e-01 6.47070110e-02
      5.70318922e-02 3.32852960e-01 0. 0. 0. 1.99293435e-01
      1.38928607e-01 3.32852960e-01 1.29414082e-01 3.32852960e-01
      1.14063822e-01 0. 0. 0. 0. 1.37999803e-01 1.17219284e-01
      3.23535129e-02 1.14063822e-01 3.32852960e-01 0. 0. 0. 0.
      6.89999014e-02 2.03830600e-01 6.47070482e-02 3.32852960e-01
      3.50182027e-01 0. 0. 0. 0. 0. 0. 0. 3.50182027e-01 3.50182027e-01
      7.96828941e-02 7.76912868e-02 0. 0. 0. 0. 0. 3.50182027e-01
      3.50182027e-01 0. 0. 0. 0. 0. 0. 0. 3.50182027e-01 3.50182027e-01
      3.98414545e-02 3.88456546e-02 0. 0. 0. 0. 0. 3.50182027e-01
      3.11828822e-01 3.11828822e-01 2.36271784e-01 0. 3.11828822e-01 0.
      0. 0. 2.19652299e-02 2.95918167e-01 1.58470646e-01 8.21412802e-02
      0. 3.11828822e-01 0. 0. 0. 1.77401200e-01 2.80825704e-01
      3.91085036e-02 3.59946527e-02 0. 1.62119493e-01 0. 0. 0.
      3.23572941e-02 3.11828822e-01 0. 0. 0. 3.11828822e-01 0. 0. 0.
      3.11828822e-01 0. 0. 0. 0. 6.59840882e-01 0. 0. 0. 0. 0. 0. 0. 0.
      0. 0. 0. 0. 0. 0. 0. 0. 0. 7.46431351e-01 0. 0. 0. 0. 0. 0. 0. 0.
      0. 0. 0. 0. 0. 0. 0. 0. 0. 1.46008590e-02 0. 0. 0. 0.
      2.80853659e-02 1.46704778e-01 4.45152044e-01 2.08538413e-01
      4.40081693e-02 0. 0. 0. 2.80853659e-02 0. 0. 0. 0. 3.16162795e-01
      0. 0. 0. 0. 1.40426839e-02 1.83903396e-01 4.45152044e-01
      4.45152044e-01 4.45152044e-01 0. 0. 0. 1.40426839e-02
      1.16507083e-01 3.58462892e-02 4.77477312e-02 0. 2.09868699e-01
      1.36782601e-01 2.75270373e-01 2.04234645e-01 1.16507083e-01
      7.66183308e-04 0. 0. 0. 2.95134336e-01 1.89887822e-01
      1.55600324e-01 1.02117352e-01 7.66183308e-04 2.11133827e-02
      5.87579841e-03 2.85296440e-02 0. 3.00392449e-01 2.73565322e-01
      3.00392449e-01 9.41473171e-02 2.11133827e-02 2.33309083e-02
      3.95247303e-02 0. 0. 2.99194455e-01 3.00392449e-01 3.00392449e-01
      3.00392449e-01 0. 0. 0. 0. 0. 0. 0. 0. 0. 0. 0. 0. 0. 0. 0. 0. 0.
      0. 0. 4.80863661e-01 2.88391411e-02 2.81183589e-02 0. 0. 0. 0.
      1.09979965e-01 4.80863661e-01 4.80863661e-01 9.04281065e-02 0. 0.
      0. 0. 0. 2.19960034e-01 4.80863661e-01 0. 0. 0. 0. 0. 0. 0. 0. 0.
      0. 0. 0. 0. 0. 0. 0. 0. 0. 4.05505866e-01 0. 0. 0. 0. 0.
      1.14300624e-01 1.20393962e-01 4.05505866e-01 4.05505866e-01
      1.37660787e-01 4.29706462e-02 0. 0. 0. 3.54143888e-01
      4.05505866e-01 4.05505866e-01 0. 0. 0. 0. 0. 0. 0. 0. 0. 0. 0. 0.
      0. 0. 0. 0. 0. 0. 5.75371921e-01 0. 0. 0. 0. 0. 5.75371921e-01
      1.05452863e-02 5.75371921e-01 2.21907627e-02 0. 0. 0. 0. 0. 0. 0.
      2.21907627e-02 5.86149376e-03 0. 0. 9.40483510e-02 3.09052765e-01
      4.94753346e-02 0. 0. 5.86149376e-03 1.88308524e-03 0.
      1.36817247e-01 3.28144372e-01 3.28144372e-01 9.89507064e-02
      1.60995707e-01 1.73401907e-01 4.50238362e-02 6.20586090e-02 0. 0.
      1.31261535e-02 3.28144372e-01 9.89507064e-02 0. 0. 6.20586090e-02
      4.99352738e-02 0. 0. 7.58676603e-02 3.28144372e-01 1.97901487e-01
      3.21991533e-01 3.28144372e-01 3.10103863e-01 1.69621602e-01
      2.60904105e-03 0. 0. 0. 0. 0. 2.26394255e-02 2.37785354e-01
      2.16286734e-01 3.77251953e-02 0. 0. 0. 0. 0. 4.52788658e-02
      1.89519271e-01 3.26782823e-01 2.77213514e-01 0. 0. 0. 0.
      1.71127226e-02 3.26782823e-01 3.26782823e-01 3.26782823e-01
      3.26782823e-01 2.96359533e-03 0. 0. 0. 8.55636224e-03
      3.26782823e-01 3.26782823e-01 1.62684143e-01 0. 0. 0. 0. 0. 0. 0.
      2.78263777e-01 2.42980972e-01 0. 0. 0. 0. 0. 0. 1.32650156e-02
      3.38494897e-01 3.64584297e-01 0. 0. 0. 0. 0. 0. 2.74061084e-01
      3.64584297e-01 3.64584297e-01 0. 0. 0. 0. 0. 0. 3.34469378e-01
      3.64584297e-01 1.28495350e-01 0. 0. 0. 0. 0. 0. 0. 1.33388028e-01
      2.34947398e-01 0. 0. 0. 0. 0. 0. 0. 2.34947398e-01 4.61164206e-01
      0. 0. 0. 0. 0. 0. 0. 4.61164206e-01 4.61164206e-01 0. 0. 0. 0. 0.
      0. 0. 4.61164206e-01 9.89390071e-03 0. 9.43462178e-02
      1.35420397e-01 3.49094838e-01 2.84573019e-01 1.19427450e-01
      1.96513440e-02 9.89390071e-03 0. 0. 0. 2.75401920e-02
      3.49094838e-01 7.18127042e-02 0. 0. 0. 2.92561114e-01
      2.93843150e-01 1.88692525e-01 3.49094838e-01 3.49094838e-01 0. 0.
      0. 1.21236734e-01 3.94835789e-03 0. 0. 1.89535365e-01
      3.49094838e-01 0. 0. 0. 3.94835789e-03 9.15565789e-02 0. 0. 0.
      6.32328868e-01 0. 0. 0. 9.15565789e-02 0. 0. 0. 0. 0. 0. 0. 0. 0.
      2.97692746e-01 0. 0. 0. 6.32328868e-01 0. 0. 0. 2.97692746e-01 0.
      0. 0. 0. 0. 0. 0. 0. 0. 0. 0. 0. 0. 0. 0. 0. 0. 0. 0. 0. 0. 0. 0.
      0. 0. 0. 0. 1.41707957e-01 0. 0. 0. 0. 0. 0. 0. 1.41707957e-01
      6.90270603e-01 0. 0. 0. 0. 0. 0. 0. 6.90270603e-01 0. 0. 0. 0. 0.
      0. 0. 0. 0. 0. 0. 0. 0. 0. 0. 0. 0. 0. 2.73394641e-02 0. 0. 0. 0.
      0. 0. 0. 2.73394641e-02 7.04086900e-01 0. 0. 0. 0. 0. 0. 0.
      7.04086900e-01 0. 0. 0. 0. 0. 0. 0. 0. 0. 0. 0. 0. 0. 0. 0. 0. 0.
      0. 7.02273428e-01 0. 0. 0. 0. 0. 0. 0. 7.02273428e-01 0. 0. 0. 0.
      0. 0. 0. 0. 0. 0. 0. 0. 0. 0. 0. 0. 0. 0. 0. 0. 0. 0. 0. 0. 0. 0.
      0. 0. 0. 0. 0. 0. 0. 0. 0. 0. 0. 0. 0. 0. 0. 0. 0. 0. 0. 0. 0. 0.
      0. 0. 0. 0. 0. 0. 0. 0. 0. 0. 1.81202531e-01 0. 0. 0. 0. 0. 0. 0.
      0. 0. 0. 0. 0. 0. 0. 0. 0. 0. 9.78470623e-01 0. 0. 0. 0.
      2.64146298e-01 3.09842497e-01 3.09842497e-01 3.22539248e-02
      5.38701937e-03 0. 0. 0. 8.79829377e-03 3.09842497e-01
      3.09842497e-01 1.57796174e-01 8.69198237e-03 2.79077655e-03 0.
      6.33151177e-03 1.23621941e-01 3.09842497e-01 7.63299167e-02
      2.25655004e-01 3.09842497e-01 3.09119403e-01 1.76959440e-01 0. 0.
      0. 1.65707003e-02 2.47663677e-01 8.50326046e-02 1.29418239e-01
      1.73839703e-02 0. 0. 0. 0. 2.00386122e-01 3.11490893e-01
      6.89313486e-02 1.27567142e-01 9.28890333e-03 1.55957285e-02 0. 0.
      0. 3.11490893e-01 3.11490893e-01 2.73732185e-01 3.11490893e-01
      3.11490893e-01 9.47675481e-02 0. 0. 2.49049496e-02 2.79160202e-01
      3.11490893e-01 0. 0. 0. 0. 0. 0. 0. 3.06474030e-01 3.07090670e-01
      6.79347366e-02 1.63994469e-02 0. 8.23624805e-03 0. 0. 0.
      1.94241434e-01 1.83206096e-01 0. 0. 0. 4.05911542e-03
      1.55590894e-02 2.63472110e-01 2.93310225e-01 2.57690221e-01
      1.43519908e-01 0. 0. 0. 9.40902345e-03 3.48110646e-02
      2.93310225e-01 2.93310225e-01 2.14740917e-01 8.97074118e-02 0. 0.
      0. 0. 0. 1.18001461e-01 2.46272951e-01 1.69236735e-01
      6.25474155e-02 0. 0. 0. 2.93310225e-01 2.93310225e-01
      2.93310225e-01 2.93310225e-01 2.04989463e-01 0. 0. 0. 0.
      1.28250048e-01 0. 0. 0. 0. 0. 0. 0. 0. 0. 0. 0. 0. 0. 0. 0. 0. 0.
      9.86766756e-01 0. 0. 0. 0. 0. 0. 0. 0. 0. 0. 0. 0. 0.</_>
    <_>
      0. 0. 0. 0. 0. 0. 0. 0. 0. 0. 0. 0. 0. 0. 0. 0. 0. 0.
      6.96634948e-01 0. 0. 0. 0. 0. 0. 0. 6.96634948e-01 1.05936900e-01
      0. 0. 0. 0. 0. 0. 0. 1.05936900e-01 0. 0. 0. 0. 2.49022454e-01
      1.69048414e-01 4.02906239e-02 1.34644201e-02 0. 1.48797452e-01 0.
      0. 0. 3.84611815e-01 3.38096917e-01 3.84611815e-01 3.84611815e-01
      3.84611815e-01 0. 0. 0. 0. 0. 0. 2.01453175e-02 6.73221145e-03 0.
      1.46433562e-01 0. 0. 0. 0. 0. 4.02906500e-02 6.45352527e-02
      3.84611815e-01 2.88466901e-01 0. 0. 0. 0. 0. 2.66935825e-01
      2.73778677e-01 2.88466901e-01 2.88466901e-01 8.65307450e-02
      8.43679830e-02 0. 0. 0. 2.87382096e-01 2.88466901e-01
      2.88466901e-01 2.10537076e-01 0. 0. 0. 0. 0. 1.33467942e-01
      1.36889368e-01 2.10537076e-01 2.88466901e-01 4.32653800e-02
      4.21840027e-02 0. 0. 0. 1.43691078e-01 1.47374585e-01
      2.88466901e-01 3.24665725e-01 1.42233476e-01 1.59928471e-01 0.
      2.04995591e-02 0. 0. 0. 3.24665725e-01 3.24665725e-01
      3.24665725e-01 3.24665725e-01 2.66759813e-01 1.95567086e-01 0. 0.
      0. 1.40649229e-01 3.24665725e-01 2.27394067e-02 2.12003272e-02 0.
      0. 0. 0. 0. 2.55949795e-01 3.24665725e-01 8.01135153e-02 0. 0. 0.
      0. 0. 0. 1.02903053e-01 0. 0. 0. 0. 0. 0. 0. 0. 0. 0. 0. 0. 0. 0.
      0. 0. 0. 0. 0. 0. 0. 0. 0. 0. 0. 0. 0. 0. 0. 0. 0. 0. 0. 0. 0. 0.
      1.74984653e-02 0. 0. 0. 2.54383415e-01 2.51500338e-01
      3.14705044e-01 1.49841309e-01 7.52145648e-02 0. 0. 0. 0.
      3.19800228e-01 2.04646409e-01 3.16994786e-01 2.69154701e-02
      7.70927779e-03 0. 0. 0. 0. 3.19800228e-01 1.88064680e-01
      3.19800228e-01 0. 0. 0. 0. 0. 0. 3.19800228e-01 2.26952150e-01
      3.19800228e-01 0. 0. 6.51192293e-02 1.70449495e-01 2.16774628e-01
      2.08560079e-01 1.09381497e-01 5.94167039e-03 6.65319040e-02
      9.58691761e-02 4.48135845e-02 3.89332958e-02 7.67660439e-02
      5.32745942e-02 4.75773355e-03 2.98611671e-01 2.58702636e-01
      3.47753525e-01 2.24689126e-01 7.94199184e-02 0. 2.49053780e-02
      1.82257265e-01 3.57660711e-01 3.57660711e-01 1.18833454e-02
      3.32659632e-02 1.55515084e-02 0. 0. 1.24526899e-02 2.66373008e-02
      9.51546989e-03 3.57660711e-01 2.53762364e-01 1.24576434e-01
      3.11030298e-02 0. 0. 0. 0. 0. 0. 0. 0. 0. 0. 0. 0. 0. 0. 0. 0. 0.
      0. 0. 3.83135319e-01 0. 0. 0. 0. 0. 0. 0. 3.83135319e-01
      5.91821432e-01 0. 0. 0. 0. 0. 0. 0. 5.91821432e-01 0. 0. 0. 0. 0.
      0. 0. 0. 0. 0. 0. 0. 0. 0. 0. 0. 0. 0. 7.02273428e-01 0. 0. 0. 0.
      0. 0. 0. 7.02273428e-01 0. 0. 0. 0. 0. 0. 0. 0. 0. 0. 0. 0. 0. 0.
      0. 0. 0. 0. 0. 0. 0. 0. 0. 0. 0. 0. 0. 0. 0. 0. 0. 0. 0. 0. 0. 0.
      0. 0. 0. 0. 0. 0. 0. 0. 0. 0. 0. 3.53184938e-01 1.23751566e-01
      1.68724492e-01 0. 0. 0. 0. 0. 0. 3.53501499e-01 1.86194941e-01
      3.53501499e-01 0. 0. 0. 0. 2.28191330e-03 2.74787303e-02
      3.53501499e-01 2.62085438e-01 1.66697860e-01 0. 0. 0.
      2.28191330e-03 0. 0. 3.53501499e-01 1.93479791e-01 3.53501499e-01
      4.14789766e-02 1.79063275e-01 0. 0. 0. 0. 7.60018453e-02
      2.06254162e-02 1.00397006e-01 0. 0. 0. 0. 1.01874657e-01 0. 0. 0.
      4.33295779e-02 8.81100744e-02 3.11742514e-01 1.03841998e-01
      1.94103673e-01 2.90814251e-01 2.71720111e-01 2.64928728e-01 0.
      5.05546629e-02 0. 3.05361450e-02 2.60608532e-02 2.90814251e-01
      4.06042725e-01 2.92532891e-01 2.85221279e-01 0. 0. 0. 0. 0.
      4.06042725e-01 2.19186962e-01 3.04277778e-01 5.98447630e-03 0. 0.
      0. 0. 1.09498203e-01 2.30674505e-01 3.27889144e-01 3.22777212e-01
      1.19689563e-02 0. 0. 0. 0. 0. 3.02011430e-01 3.29870671e-01
      8.83175209e-02 0. 0. 0. 0. 0. 1.12435766e-01 3.29870671e-01
      3.29870671e-01 1.40415296e-01 0. 0. 0. 0. 0. 1.11230902e-01
      3.29870671e-01 2.89793998e-01 0. 0. 0. 0. 0. 0. 1.16006240e-01
      3.27967286e-01 3.27967286e-01 3.65017727e-02 2.64819036e-03 0. 0.
      0. 4.24101064e-03 1.35003969e-01 3.27967286e-01 2.09632605e-01
      3.27967286e-01 8.31395760e-02 0. 0. 0. 0. 1.39129227e-02
      2.68722147e-01 3.27967286e-01 3.27967286e-01 5.13991117e-02 0. 0.
      0. 2.12050579e-03 2.92283464e-02 3.27967286e-01 0. 0.
      1.71463698e-01 6.09061979e-02 5.00431478e-01 9.75397378e-02
      3.31441700e-01 1.44285217e-01 0. 0. 0. 0. 0. 0. 0. 0. 0. 0. 0.
      2.81028867e-01 4.53650564e-01 1.21812433e-01 5.00431478e-01
      4.87698764e-02 1.37297422e-01 0. 0. 0. 0. 0. 0. 0. 0. 0. 0. 0.
      5.69489658e-01 7.99522549e-03 5.69489658e-01 0. 0. 0. 0. 0.
      5.69489658e-01 1.03183828e-01 0. 0. 0. 0. 0. 0. 0. 1.03183828e-01
      0. 0. 0. 0. 0. 0. 0. 0. 0. 0. 0. 0. 0. 0. 0. 0. 0. 0.
      4.98753130e-01 0. 0. 0. 0. 0. 0. 0. 4.98753130e-01 4.98753130e-01
      0. 0. 0. 0. 0. 0. 0. 4.98753130e-01 0. 0. 0. 0. 0. 0. 0. 0. 0. 0.
      0. 0. 0. 0. 0. 0. 0. 0. 4.98753130e-01 0. 0. 0. 0. 0. 0. 0.
      4.98753130e-01 4.98753130e-01 0. 0. 0. 0. 0. 0. 0. 4.98753130e-01
      0. 0. 0. 0. 0. 0. 0. 0. 0. 0. 0. 0. 0. 0. 0. 0. 0. 0.
      6.43766165e-01 0. 0. 0. 0. 0. 0. 0. 6.43766165e-01 2.86969453e-01
      0. 0. 0. 0. 0. 0. 0. 2.86969453e-01 0. 0. 0. 0. 0. 0. 0. 0. 0. 0.
      0. 0. 0. 0. 0. 0. 0. 0. 0. 0. 0. 0. 0. 0. 0. 0. 0. 0. 0. 0. 0. 0.
      0. 0. 0. 0. 0. 0. 0. 0. 0. 0. 0. 0. 0. 0. 0. 0. 0. 0. 0. 0. 0. 0.
      0. 0. 0. 0. 0. 0. 0. 0. 0. 0. 0. 0. 0. 0. 0. 0. 0. 0. 0. 0. 0. 0.
      0. 0. 0. 0. 0. 0. 0. 0. 0. 0. 0. 0. 0. 0. 2.27646604e-02
      8.53880718e-02 1.22872464e-01 0. 0. 0. 0. 0. 2.27646604e-02
      8.99279639e-02 3.90720636e-01 3.90720636e-01 0. 0. 0. 0. 0.
      8.99279639e-02 1.13823321e-02 2.71118194e-01 3.90720636e-01
      2.94773933e-03 3.28165114e-01 0. 0. 0. 1.13823321e-02
      4.61402126e-02 3.90720636e-01 3.90720636e-01 1.47386990e-03
      8.63660425e-02 0. 0. 0. 4.61402126e-02 3.70560229e-01 0. 0. 0. 0.
      0. 0. 0. 3.70560229e-01 3.70560229e-01 1.13455117e-01
      5.47284121e-03 0. 0. 0. 0. 0. 3.70560229e-01 2.92216331e-01 0. 0.
      0. 0. 0. 0. 0. 2.72242695e-01 3.70560229e-01 0. 0. 0. 0. 0. 0. 0.
      3.70560229e-01 4.84511591e-02 5.65875508e-03 0. 0. 0.
      6.62739854e-04 3.62629205e-01 3.33141416e-01 2.15280980e-01 0. 0.
      0. 0. 1.61294818e-01 1.32548017e-03 3.62629205e-01 1.57871008e-01
      4.54963520e-02 1.69280134e-02 0. 0. 0. 3.27561110e-01
      1.32548017e-03 3.62629205e-01 9.70243886e-02 6.10313229e-02 0. 0.
      0. 0. 3.62629205e-01 2.65096151e-03 3.62629205e-01 7.36688375e-02
      0. 0. 0. 0. 0. 0. 0. 0. 0. 0. 0. 0. 0. 0. 0. 0. 0. 0. 0. 0. 0. 0.
      0. 0. 0. 0. 0. 0. 0. 0. 0. 0. 0. 0. 0. 0. 0.</_>
    <_>
      0. 0. 0. 0. 0. 0. 0. 0. 0. 0. 0. 0. 0. 9.41691399e-01 0. 0. 0. 0.
      0. 0. 0. 0. 0. 0. 0. 0. 0. 0. 0. 0. 0. 3.22215080e-01 0. 0. 0. 0.
      2.29935184e-01 0. 0. 0. 6.51449943e-03 2.44752999e-04
      2.96851724e-01 2.75317192e-01 2.66469836e-01 1.12096943e-01 0. 0.
      0. 0. 0. 2.96851724e-01 2.96851724e-01 1.10454492e-01
      8.12262222e-02 0. 0. 0. 0. 0. 2.77863950e-01 2.48993188e-01
      9.94935483e-02 2.96851724e-01 0. 0. 0. 0. 0. 2.96851724e-01
      2.96851724e-01 2.96851724e-01 2.34438613e-01 0. 0. 0. 0. 0. 0. 0.
      2.33770072e-01 3.43021661e-01 0. 0. 0. 0. 0. 0. 0. 3.43783051e-01
      4.03271288e-01 0. 0. 0. 0. 0. 0. 0. 4.03271288e-01 4.03271288e-01
      0. 0. 0. 0. 0. 0. 0. 4.03271288e-01 2.74934024e-01 2.74934024e-01
      2.16114521e-01 4.94607463e-02 2.83140875e-02 0. 0. 0.
      1.33781537e-01 2.45477214e-01 2.18084842e-01 2.74934024e-01
      2.74934024e-01 1.95602462e-01 0. 0. 0. 1.11137584e-01
      2.74934024e-01 2.74934024e-01 2.26106256e-01 0. 0. 0. 0. 0.
      2.21354172e-01 2.74934024e-01 1.91449612e-01 2.35963151e-01
      9.48907286e-02 5.46270097e-03 0. 0. 0. 2.00900570e-01 0. 0. 0. 0.
      0. 0. 0. 0. 0. 0. 0. 0. 0. 0. 0. 0. 0. 0. 0. 0. 0. 0. 0. 0. 0. 0.
      0. 0. 0. 0. 0. 0. 0. 0. 0. 0. 0. 0. 0. 0. 0. 0. 0. 0. 0. 0. 0. 0.
      0. 0. 0. 0. 0. 0. 0. 0. 0. 0. 0. 0. 0. 0. 0. 0. 0. 0. 0.
      9.95024860e-01 0. 0. 0. 0. 0. 0. 0. 0. 0. 0. 0. 0. 0. 0. 0. 0. 0.
      0. 0. 0. 0. 0. 3.96868557e-01 9.62515622e-02 9.38459262e-02 0.
      3.96868557e-01 3.96868557e-01 1.92511111e-01 3.96868557e-01
      3.96868557e-01 8.65389779e-02 0. 0. 0. 3.10478896e-01
      2.04951078e-01 0. 0. 8.65389779e-02 0. 0. 0. 0. 0. 0. 0. 0. 0. 0.
      0. 0. 0. 0. 0. 0. 0. 0. 0. 0. 0. 0. 0. 0. 0. 0. 0. 0. 0. 0. 0. 0.
      0. 0. 0. 0. 0. 0. 0. 0. 0. 0. 0. 0. 0. 0. 0. 0. 0. 0. 0. 0. 0. 0.
      0. 0. 0. 0. 0. 0. 0. 0. 0. 0. 0. 0. 0. 0. 0. 0. 0. 0. 0. 0. 0. 0.
      0. 0. 0. 0. 0. 0. 0. 0. 0. 0. 0. 0. 0. 0. 0. 0. 0. 0. 0. 0. 0. 0.
      0. 0. 0. 0. 0. 0. 0. 0. 0. 0. 0. 0. 0. 0. 1.06326379e-02 0. 0. 0.
      0. 0. 0. 3.69333625e-01 3.94290954e-01 3.94290954e-01 0. 0. 0. 0.
      1.98554024e-02 9.89259854e-02 0. 0. 1.76948979e-01 0. 0. 0. 0.
      3.97108197e-02 1.97852060e-01 3.94290954e-01 3.94290954e-01
      3.94290954e-01 0. 0. 0. 0. 0. 0. 7.18371943e-02 3.23228449e-01
      3.23228449e-01 1.67199150e-01 1.21414410e-02 0. 0. 0. 0.
      3.59186009e-02 2.04380557e-01 3.23228449e-01 7.36922324e-02
      6.07072189e-03 0. 0. 0. 0. 3.59186009e-02 3.23228449e-01
      3.23228449e-01 1.28055483e-01 3.23228449e-01 1.62219584e-01
      1.17472815e-03 0. 0. 1.79593042e-02 1.99263692e-01 3.23228449e-01
      8.11611414e-02 2.98320889e-01 6.34462386e-02 0. 0. 0. 0. 0. 0. 0.
      0. 0. 0. 0. 0. 0. 0. 0. 0. 0. 0. 0. 3.77345443e-01 0. 0. 0. 0. 0.
      0. 0. 3.77345443e-01 5.95514297e-01 0. 0. 0. 0. 0. 0. 0.
      5.95514297e-01 0. 0. 0. 0. 0. 0. 0. 0. 0. 0. 0. 0. 0. 0. 0. 0. 0.
      0. 4.98753130e-01 0. 0. 0. 0. 0. 0. 0. 4.98753130e-01
      4.98753130e-01 0. 0. 0. 0. 0. 0. 0. 4.98753130e-01 0. 0. 0. 0. 0.
      0. 0. 0. 0. 0. 0. 0. 0. 0. 0. 0. 0. 0. 0. 0. 0. 0. 0. 0. 0. 0. 0.
      0. 0. 0. 0. 0. 0. 0. 0. 0. 0. 9.57453251e-03 3.22535187e-01
      2.81777412e-01 3.22535187e-01 0. 0. 0. 0. 3.32343578e-02
      1.91490687e-02 2.07223445e-01 1.40888736e-01 3.09467852e-01 0. 0.
      0. 3.32343578e-02 0. 0. 1.92175917e-02 1.19656183e-01
      3.22535187e-01 1.20339371e-01 3.22535187e-01 4.99336123e-02 0.
      1.16507739e-01 1.30410478e-01 1.97448745e-01 5.98280989e-02
      3.22535187e-01 6.01696968e-02 3.22535187e-01 9.98672619e-02
      1.16507739e-01 1.29482653e-02 0. 0. 0. 4.41843159e-02
      2.12837420e-02 3.87439467e-02 1.54131845e-01 1.29901869e-02
      3.16750973e-01 0. 0. 0. 2.20921654e-02 1.06418738e-02
      7.74879158e-02 3.16750973e-01 3.16750973e-01 1.40214330e-02
      3.16750973e-01 2.31113285e-01 0. 3.82960141e-02 0. 5.57020158e-02
      1.92152515e-01 1.39400549e-02 3.16750973e-01 3.16750973e-01
      2.92097121e-01 0. 1.91480108e-02 0. 6.81480989e-02 2.72550792e-01
      3.16750973e-01 3.32868457e-01 3.32868457e-01 0. 0. 0. 0. 0. 0.
      2.51103342e-01 3.32868457e-01 2.94230670e-01 1.06297672e-01 0. 0.
      0. 0. 0. 3.32868457e-01 3.32868457e-01 0. 0. 0. 0. 2.95958251e-01
      2.37806030e-02 4.98463772e-02 3.32868457e-01 2.17782885e-01 0. 0.
      0. 0. 1.47979155e-01 4.24126834e-02 4.93293889e-02 8.21035132e-02
      2.26812795e-01 0. 0. 0. 0. 0. 1.94178764e-02 2.47207418e-01
      3.00889850e-01 3.00889850e-01 0. 0. 0. 0. 0. 1.75966471e-01
      2.05814511e-01 3.00889850e-01 3.00889850e-01 1.42605215e-01
      5.89864105e-02 0. 0. 0. 6.98370785e-02 7.16273412e-02
      3.00889850e-01 3.00889850e-01 0. 0. 0. 0. 0. 2.29425579e-01
      3.00889850e-01 3.00889850e-01 7.16156373e-03 0. 0. 0.
      4.80793901e-02 1.60906032e-01 4.12782013e-01 1.64877504e-01
      7.16156373e-03 3.58078256e-03 0. 0. 0. 3.22121345e-02
      7.78531358e-02 0. 0. 3.58078256e-03 2.17807144e-02 1.14218391e-01
      2.04398081e-01 1.28025666e-01 4.12782013e-01 3.21812153e-01
      4.12782013e-01 2.19300851e-01 3.58078256e-03 1.79039151e-03 0. 0.
      6.40128553e-02 4.12782013e-01 1.55706331e-01 0. 0. 1.79039151e-03
      4.36641693e-01 0. 0. 0. 0. 0. 0. 0. 4.36641693e-01 5.53696156e-01
      0. 0. 0. 0. 0. 0. 0. 5.53696156e-01 0. 0. 0. 0. 0. 0. 0. 0. 0. 0.
      0. 0. 0. 0. 0. 0. 0. 0. 4.98753130e-01 0. 0. 0. 0. 0. 0. 0.
      4.98753130e-01 4.98753130e-01 0. 0. 0. 0. 0. 0. 0. 4.98753130e-01
      0. 0. 0. 0. 0. 0. 0. 0. 0. 0. 0. 0. 0. 0. 0. 0. 0. 0.
      4.47910458e-01 0. 0. 0. 3.66982520e-02 7.36710131e-02
      1.67807043e-01 7.28848949e-02 4.47910458e-01 4.47910458e-01
      3.47595721e-01 1.53605461e-01 0. 0. 0. 8.39035437e-02
      3.64424549e-02 4.47910458e-01 0. 0. 0. 0. 0. 0. 0. 0. 0. 0. 0. 0.
      0. 0. 0. 0. 0. 0. 5.08166075e-01 0. 0. 0. 0. 0. 0. 0.
      3.30547035e-01 5.59872806e-01 0. 0. 0. 0. 0. 0. 0. 5.59872806e-01
      0. 0. 0. 0. 0. 0. 0. 0. 0. 0. 0. 0. 0. 0. 0. 0. 0. 0.
      7.03882515e-01 0. 0. 0. 0. 0. 0. 0. 7.03882515e-01 3.21892835e-02
      0. 0. 0. 0. 0. 0. 0. 3.21892835e-02 0. 0. 0. 0. 0. 0. 0. 0. 0. 0.
      0. 0. 0. 0. 0. 0. 0. 0.</_>
    <_>
      0. 0. 0. 0. 0. 0. 0. 0. 0. 0. 0. 0. 0. 0. 0. 0. 0. 0. 0. 0. 0. 0.
      0. 0. 0. 0. 0. 0. 0. 0. 0. 0. 0. 0. 0. 0. 2.58537405e-03 0. 0. 0.
      1.54153571e-01 0. 3.73425841e-01 2.87939817e-01 1.33117512e-01
      3.38905543e-01 0. 0. 0. 7.86462575e-02 0. 3.73425841e-01
      3.73425841e-01 3.73425841e-01 5.17074950e-03 0. 0. 0.
      6.63076853e-03 0. 0. 2.62999404e-02 7.04368278e-02 2.12347880e-01
      0. 0. 0. 3.31538473e-03 0. 0. 5.25998995e-02 3.73425841e-01
      2.48215079e-01 0. 0. 0. 0. 0. 2.12442920e-01 3.30679983e-01
      3.30679983e-01 3.30679983e-01 0. 0. 0. 0. 0. 7.81963617e-02
      8.02009180e-02 3.30679983e-01 2.67909080e-01 0. 0. 0. 0. 0.
      1.06221482e-01 1.66350558e-01 3.27785462e-01 3.30679983e-01 0. 0.
      0. 0. 0. 3.90981883e-02 4.01004627e-02 3.30679983e-01
      3.21537226e-01 3.21537226e-01 1.13577329e-01 0. 0. 0. 0. 0.
      3.21537226e-01 3.21537226e-01 2.71450430e-01 3.21537226e-01
      6.29550815e-02 1.38513446e-01 0. 0. 0. 2.91583925e-01
      2.73754150e-01 1.37291968e-01 5.67886718e-02 0. 0. 0. 0. 0.
      2.24386454e-01 3.21537226e-01 2.56387312e-02 7.50228576e-03 0. 0.
      0. 0. 0. 1.83401823e-01 0. 0. 0. 0. 9.95024860e-01 0. 0. 0. 0. 0.
      0. 0. 0. 0. 0. 0. 0. 0. 0. 0. 0. 0. 0. 0. 0. 0. 0. 0. 0. 0. 0. 0.
      0. 0. 0. 0. 0. 0. 0. 0. 0. 0. 0. 0. 0. 0. 0. 0. 0. 4.05859947e-01
      0. 0. 0. 0. 0. 0. 0. 0. 0. 0. 0. 0. 0. 1.31244883e-01 0.
      1.57304570e-01 2.21706241e-01 8.47626388e-01 0. 0. 0.
      1.31244883e-01 2.25325808e-01 1.14227563e-01 5.93274944e-02 0. 0.
      7.59456598e-04 2.24382833e-01 8.97135586e-02 2.25325808e-01
      7.93100148e-02 0. 0. 0. 3.03716734e-02 1.51891354e-03
      2.91085750e-01 4.48567905e-02 7.93100148e-02 1.12662926e-01
      3.02220047e-01 3.03148001e-01 6.24443870e-04 3.08144242e-01
      1.68794498e-03 3.08144242e-01 2.48760015e-01 1.12662926e-01
      3.96550149e-02 3.68824340e-02 2.39337832e-01 1.24888832e-03
      3.08144242e-01 3.03782849e-03 3.08144242e-01 8.97136107e-02
      3.96550149e-02 0. 0. 0. 0. 0. 0. 0. 0. 0. 0. 0. 0. 0. 0. 0. 0. 0.
      0. 0. 0. 0. 0. 0. 0. 0. 0. 0. 0. 0. 0. 0. 0. 0. 0. 0. 0. 0. 0. 0.
      0. 0. 0. 0. 0. 0. 0. 0. 0. 0. 0. 0. 0. 0. 0. 0. 0. 0. 0. 0. 0. 0.
      0. 0. 0. 0. 0. 0. 0. 0. 0. 0. 0. 0. 0. 0. 0. 0. 0. 0. 0. 0. 0. 0.
      0. 0. 0. 0. 0. 0. 0. 0. 0. 0. 0. 0. 0. 0. 0. 0. 0. 0. 0. 0. 0. 0.
      0. 0. 0. 0. 9.42608400e-04 2.82063987e-03 1.00100823e-01
      2.96703547e-01 5.66251799e-02 0. 0. 0. 2.22552240e-01
      1.74817473e-01 2.96703547e-01 2.82443106e-01 2.96703547e-01
      1.13250405e-01 0. 0. 2.02731028e-01 3.80351692e-02 0. 0.
      1.50395101e-02 2.96703547e-01 1.59711793e-01 3.55729312e-02 0.
      3.80351692e-02 2.96703547e-01 2.54063848e-02 2.55790316e-02
      1.57457471e-01 2.96703547e-01 2.96703547e-01 9.87488553e-02
      2.95604626e-03 2.96703547e-01 2.64520440e-02 4.17701043e-02
      7.17475265e-02 7.34552592e-02 1.19247176e-01 2.41266355e-01
      2.19981626e-01 1.43165395e-01 2.83097271e-02 2.41266355e-01
      7.00560957e-02 1.40861094e-01 1.46910578e-01 1.35546535e-01
      1.52391881e-01 1.64120033e-01 1.56215832e-01 2.41266355e-01
      1.16365701e-01 1.19978957e-01 1.49864554e-01 5.45749068e-02
      4.43036966e-02 1.94514334e-01 1.61997616e-01 2.41266355e-01
      1.79898143e-01 2.41266355e-01 1.65073663e-01 2.41266355e-01
      1.09149836e-01 2.04615518e-01 1.56425133e-01 2.41266355e-01
      1.96138531e-01 2.41266355e-01 3.88435945e-02 8.00490305e-02
      7.80483484e-02 0. 2.80678183e-01 5.41583113e-02 2.90628746e-02
      3.01022343e-02 4.06175628e-02 2.80678183e-01 1.60098121e-01
      1.56096756e-01 0. 1.89214215e-01 1.08316667e-01 0. 0.
      2.80678183e-01 0. 4.00245227e-02 3.90241817e-02 6.69378042e-02
      2.80678183e-01 1.61337629e-01 2.80678183e-01 1.32553846e-01
      3.05044707e-02 2.42349342e-01 8.00490752e-02 7.80483931e-02 0.
      2.80678183e-01 2.16633394e-01 2.80678183e-01 2.80678183e-01
      2.80678183e-01 4.06682529e-02 0. 1.45996613e-02 2.36626659e-02
      8.41588303e-02 9.02658179e-02 2.94233769e-01 1.37738138e-01
      5.55009246e-02 3.89196686e-02 7.96269998e-02 2.40425363e-01
      2.94233769e-01 2.24361151e-01 4.51329164e-02 8.85424018e-02
      1.82037335e-02 8.24613497e-02 2.12189272e-01 2.04487264e-01
      2.91993301e-02 2.94233769e-01 1.43572360e-01 1.83098719e-01
      2.94233769e-01 6.95359707e-02 5.34116961e-02 6.44201711e-02
      6.17536157e-02 2.17448086e-01 2.94233769e-01 2.94233769e-01
      1.41786113e-01 2.74620920e-01 6.79586455e-02 0. 1.92295223e-01 0.
      0. 0. 9.90994573e-02 0. 2.78428584e-01 2.73296326e-01
      1.92295223e-01 6.35406598e-02 0. 0. 0. 1.98198974e-01 0.
      8.41125920e-02 2.81090215e-02 6.35406598e-02 3.05060953e-01
      1.45501383e-02 3.05060953e-01 3.14323255e-03 3.05060953e-01 0.
      3.05060953e-01 2.10838065e-01 3.05060953e-01 9.57546979e-02 0.
      2.46802062e-01 1.57161651e-03 3.05060953e-01 0. 1.68225229e-01
      5.62180653e-02 3.39107700e-02 2.38056411e-03 0. 0. 0.
      7.03315914e-01 0. 0. 0. 2.38056411e-03 0. 0. 0. 0. 0. 0. 0. 0. 0.
      4.27864604e-02 0. 0. 0. 7.03315914e-01 0. 0. 0. 4.27864604e-02 0.
      0. 0. 0. 0. 0. 0. 0. 0. 1.03104353e-01 0. 0. 0. 0. 0. 0. 0.
      1.03104353e-01 5.22475064e-01 0. 0. 0. 5.22475064e-01
      2.74012625e-01 1.46237716e-01 0. 5.22475064e-01 0. 0. 0. 0. 0. 0.
      0. 0. 0. 1.70458302e-01 0. 0. 0. 0. 0. 0. 0. 1.70458302e-01
      1.78254303e-02 4.66252297e-01 3.56246889e-01 3.78725827e-01
      4.66252297e-01 0. 0. 0. 1.78254303e-02 3.80512744e-01 0. 0. 0. 0.
      0. 0. 0. 3.80512744e-01 0. 0. 0. 0. 0. 0. 0. 0. 0. 0. 0. 0. 0. 0.
      0. 0. 0. 0. 2.48926252e-01 0. 0. 0. 0. 0. 0. 0. 2.48926252e-01
      6.59351468e-01 0. 0. 0. 0. 0. 0. 0. 6.59351468e-01 0. 0. 0. 0. 0.
      0. 0. 0. 0. 0. 0. 0. 0. 0. 0. 0. 0. 0. 6.56360626e-01 0. 0. 0. 0.
      0. 0. 0. 6.56360626e-01 2.56737798e-01 0. 0. 0. 0. 0. 0. 0.
      2.56737798e-01 0. 0. 0. 0. 0. 0. 0. 0. 0. 0. 0. 0. 0. 0. 0. 0. 0.
      0. 7.04334378e-01 0. 0. 0. 0. 0. 0. 0. 7.04334378e-01 0. 0. 0. 0.
      0. 0. 0. 0. 0. 0. 0. 0. 0. 0. 0. 0. 0. 0. 0. 0. 0. 0. 0. 0. 0. 0.
      0. 2.22744886e-02 8.35494846e-02 1.20226756e-01 0. 0. 0. 0. 0.
      2.22744886e-02 3.16741228e-01 2.92764366e-01 2.67971516e-01 0. 0.
      0. 0. 0. 3.16741228e-01 1.11372452e-02 2.65280426e-01
      3.38214278e-01 2.88426830e-03 3.21099013e-01 0. 0. 0.
      1.11372452e-02 2.14451537e-01 3.38214278e-01 3.38214278e-01
      1.44213426e-03 8.45063925e-02 0. 0. 0. 2.14451537e-01
      2.95075744e-01 0. 0. 0. 0. 0. 5.55285588e-02 5.69518171e-02
      2.95075744e-01 2.54450232e-01 0. 0. 0. 0. 0. 1.73133165e-01
      2.95075744e-01 2.95075744e-01 2.95075744e-01 0. 0. 0. 0. 0.
      1.11057155e-01 1.13903664e-01 2.95075744e-01 2.95075744e-01 0. 0.
      0. 0. 0. 2.95075744e-01 2.95075744e-01 2.95075744e-01
      2.27506414e-01 0. 0. 0. 0. 0. 0. 0. 2.73041666e-01 1.40687898e-01
      0. 0. 0. 6.52828440e-03 0. 0. 4.99785356e-02 3.04133028e-01
      3.30937952e-01 0. 0. 0. 6.52828440e-03 0. 9.02927015e-03
      2.16203317e-01 3.30937952e-01 2.82501906e-01 0. 0. 0.
      2.73527503e-01 8.03719610e-02 3.30937952e-01 3.30937952e-01
      3.30937952e-01 0. 0. 0. 0. 0. 0. 0. 0. 0. 0. 0. 0. 0. 0. 0. 0. 0.
      0. 0. 0. 0. 0. 9.94866967e-01 0. 0. 0. 0. 0. 0. 0. 0. 0. 0. 0. 0.
      0.</_>
    <_>
      0. 0. 0. 0. 0. 0. 0. 0. 0. 0. 0. 0. 0. 9.94866967e-01 0. 0. 0. 0.
      0. 0. 0. 0. 0. 0. 0. 0. 0. 0. 0. 0. 0. 0. 0. 0. 0. 0.
      4.85818833e-02 0. 0. 0. 4.53869179e-02 6.27915980e-03
      3.04674953e-01 3.04674953e-01 3.04674953e-01 2.78725415e-01 0. 0.
      0. 2.07222067e-03 0. 3.04674953e-01 3.04674953e-01 3.04674953e-01
      4.46416587e-02 0. 0. 0. 0. 0. 0. 1.03586115e-01 2.14487731e-01
      3.04674953e-01 0. 0. 0. 0. 0. 1.43647701e-01 3.04674953e-01
      3.04674953e-01 3.06134433e-01 1.03416525e-01 0. 0. 0. 0. 0. 0.
      3.06134433e-01 3.06134433e-01 3.06134433e-01 2.34658986e-01 0. 0.
      0. 0. 0. 3.06134433e-01 3.06134433e-01 5.17082810e-02 0. 0. 0. 0.
      0. 0. 3.06134433e-01 3.06134433e-01 2.66976565e-01 1.17329501e-01
      0. 0. 0. 0. 0. 3.06134433e-01 3.57773989e-01 3.57773989e-01
      3.57773989e-01 0. 3.57773989e-01 0. 0. 0. 2.09381521e-01
      1.64599523e-01 1.49287194e-01 3.16458136e-01 0. 3.57773989e-01 0.
      0. 0. 3.19680944e-03 3.57773989e-01 6.50396347e-02 0. 0.
      6.39361888e-03 0. 0. 0. 1.48044825e-01 8.70949849e-02
      3.25198248e-02 0. 0. 1.27872424e-02 0. 0. 0. 6.39362121e-03 0. 0.
      0. 0. 0. 0. 0. 0. 0. 0. 0. 0. 0. 0. 0. 0. 0. 0. 0. 0. 0. 0. 0. 0.
      0. 0. 0. 0. 0. 0. 0. 0. 0. 0. 0. 0. 0. 0. 0. 0. 1.41377375e-01 0.
      0. 0. 0. 2.45072290e-01 4.60174158e-02 2.51476943e-01
      3.21809053e-01 4.40328211e-01 0. 0. 0. 1.25595346e-01 0. 0. 0.
      4.77791466e-02 3.12661231e-01 0. 0. 0. 0. 5.97384870e-02
      2.30087116e-02 2.12262407e-01 4.40328211e-01 4.40328211e-01 0. 0.
      0. 0. 8.41312036e-02 0. 0. 0. 4.68315743e-02 1.37792900e-01
      3.06192368e-01 3.06192368e-01 8.41312036e-02 3.00275050e-02 0. 0.
      0. 9.36631933e-02 6.88964650e-02 7.30934292e-02 0. 3.00275050e-02
      4.27034423e-02 9.63168591e-02 3.06192368e-01 3.06192368e-01
      3.06192368e-01 2.75585890e-01 3.06192368e-01 3.06192368e-01
      4.27034423e-02 1.50137534e-02 1.47621995e-02 6.66011050e-02
      2.37854913e-01 3.06192368e-01 1.37792960e-01 1.46186903e-01 0.
      1.50137534e-02 0. 0. 0. 0. 0. 0. 0. 0. 0. 0. 0. 0. 0. 0. 0. 0. 0.
      0. 0. 0. 0. 0. 0. 0. 0. 0. 0. 0. 0. 0. 0. 0. 0. 0. 0. 0. 0. 0. 0.
      0. 0. 0. 0. 0. 0. 0. 0. 0. 0. 0. 0. 0. 0. 0. 0. 0. 0. 0. 0. 0. 0.
      0. 0. 0. 0. 0. 0. 0. 0. 0. 0. 0. 0. 0. 0. 0. 0. 0. 0. 0. 0. 0. 0.
      0. 0. 0. 0. 0. 0. 0. 0. 0. 0. 0. 0. 0. 0. 0. 0. 0. 0. 0. 0. 0. 0.
      0. 0. 0. 0. 1.85418166e-02 3.20646763e-01 1.21176979e-02
      1.47340059e-01 0. 0. 0. 0. 0. 3.70836481e-02 3.20646763e-01
      4.41583917e-02 3.20646763e-01 0. 0. 0. 0. 2.74086781e-02
      3.70836481e-02 3.20646763e-01 2.70103384e-03 3.20646763e-01 0. 0.
      1.38475168e-02 2.63163745e-01 2.45307043e-01 7.41673186e-02
      3.20646763e-01 2.10053776e-03 2.67377883e-01 0. 7.77166560e-02
      1.91777349e-01 3.20646763e-01 0. 4.72283997e-02 6.46656305e-02
      2.14749619e-01 2.26180494e-01 1.74240485e-01 1.71123400e-01
      5.19609414e-02 0. 2.88983602e-02 2.61244088e-01 2.61244088e-01
      2.34872028e-01 1.12594560e-01 1.20576806e-01 6.39464334e-02
      3.37494314e-02 1.24408796e-01 2.61244088e-01 1.35831878e-01
      1.28521383e-01 1.07374832e-01 1.92238078e-01 0. 1.79749086e-01
      6.00691438e-02 2.17871204e-01 2.61244088e-01 2.61244088e-01
      2.61244088e-01 1.82421774e-01 1.74180001e-01 0. 1.23043872e-01
      6.40541613e-02 2.61244088e-01 6.33211434e-02 4.90902476e-02
      1.18405417e-01 2.46132519e-02 2.48767555e-01 3.89463454e-02
      1.09458975e-01 7.40172118e-02 1.00378424e-01 7.91804790e-02
      3.08762163e-01 3.08762163e-01 0. 8.63962173e-02 0. 0.
      2.45616622e-02 6.26844987e-02 3.37327868e-02 1.10256866e-01
      3.08762163e-01 8.05792660e-02 3.08762163e-01 1.71571329e-01
      5.41291013e-02 1.10673882e-01 6.51770458e-02 3.08762163e-01
      3.08762163e-01 3.08762163e-01 1.56763755e-02 8.65300670e-02
      1.58731297e-01 0. 4.91233394e-02 3.08762163e-01 3.14083904e-01
      1.27738297e-01 1.91268465e-03 0. 0. 0. 0. 1.20403834e-01
      3.14083904e-01 3.14083904e-01 3.14083904e-01 3.82537092e-03 0.
      1.16337854e-02 0. 0. 0. 2.09537163e-01 3.14083904e-01
      5.93087636e-02 0. 0. 0. 0. 4.50298116e-02 1.12116508e-01
      3.11429650e-01 3.14083904e-01 3.14083904e-01 1.30971283e-01 0.
      2.32675802e-02 0. 0. 0. 3.14083904e-01 6.67925701e-02 0.
      8.03681538e-02 4.23615783e-01 4.23615783e-01 3.57195400e-02
      1.19578958e-01 1.86286464e-01 6.50685802e-02 2.05163332e-03 0. 0.
      8.45050141e-02 2.68618613e-01 1.78597718e-02 0. 0. 2.05163332e-03
      1.10600919e-01 1.43235609e-01 7.54316524e-02 4.23615783e-01
      4.23615783e-01 0. 2.58052088e-02 1.74806768e-03 1.35857882e-02 0.
      0. 0. 6.43507764e-02 2.99127340e-01 0. 0. 0. 0. 1.38552219e-01 0.
      0. 0. 6.40520036e-01 0. 0. 0. 1.38552219e-01 1.13145277e-01 0. 0.
      0. 0. 0. 0. 0. 1.13145277e-01 2.33533844e-01 0. 0. 0.
      6.40520036e-01 0. 0. 0. 2.33533844e-01 0. 0. 0. 0. 0. 0. 0. 0. 0.
      4.98753130e-01 0. 0. 0. 0. 0. 0. 0. 4.98753130e-01 4.98753130e-01
      0. 0. 0. 0. 0. 0. 0. 4.98753130e-01 0. 0. 0. 0. 0. 0. 0. 0. 0. 0.
      0. 0. 0. 0. 0. 0. 0. 0. 4.98753130e-01 0. 0. 0. 0. 0. 0. 0.
      4.98753130e-01 4.98753130e-01 0. 0. 0. 0. 0. 0. 0. 4.98753130e-01
      0. 0. 0. 0. 0. 0. 0. 0. 0. 0. 0. 0. 0. 0. 0. 0. 0. 0.
      4.98753130e-01 0. 0. 0. 0. 0. 0. 0. 4.98753130e-01 4.98753130e-01
      0. 0. 0. 0. 0. 0. 0. 4.98753130e-01 0. 0. 0. 0. 0. 0. 0. 0. 0. 0.
      0. 0. 0. 0. 0. 0. 0. 0. 7.03209341e-01 0. 0. 0. 0. 0. 0. 0.
      7.03209341e-01 0. 0. 0. 0. 0. 0. 0. 0. 0. 0. 0. 0. 0. 0. 0. 0. 0.
      0. 0. 0. 0. 0. 0. 0. 0. 0. 0. 0. 0. 0. 0. 0. 0. 0. 0. 0. 0. 0. 0.
      0. 0. 0. 0. 0. 0. 0. 0. 0. 0. 0. 0. 0. 0. 0. 0. 0. 0. 0.
      9.95024860e-01 0. 0. 0. 0. 2.59986371e-01 2.51595844e-02
      2.32184321e-01 4.91052903e-02 0. 0. 0. 0. 1.73932910e-01
      3.34641814e-01 1.25797959e-02 8.60861465e-02 0. 0. 0. 0. 0.
      3.34641814e-01 2.65058726e-01 2.27770895e-01 3.34641814e-01
      2.94210732e-01 1.33464828e-01 0. 0. 0. 9.29516852e-02
      3.34641814e-01 2.51595993e-02 1.72172353e-01 8.38344768e-02
      4.36926596e-02 0. 0. 0. 3.34641814e-01 2.98087329e-01 0. 0. 0. 0.
      0. 0. 5.93965277e-02 2.98087329e-01 2.98087329e-01 0. 0. 0. 0. 0.
      1.34774685e-01 2.98087329e-01 2.98087329e-01 2.98087329e-01 0. 0.
      0. 0. 0. 0. 1.18793100e-01 2.98087329e-01 2.98087329e-01 0. 0. 0.
      0. 0. 2.69549459e-01 2.98087329e-01 2.98087329e-01 1.38381615e-01
      0. 0. 0. 0. 0. 0. 2.96072718e-02 3.30790371e-01 1.50308087e-02 0.
      0. 0. 0. 0. 0. 5.92145622e-02 1.44249156e-01 3.30790371e-01 0. 0.
      0. 5.88790216e-02 0. 3.30790371e-01 3.30790371e-01 3.30790371e-01
      1.20064896e-02 0. 0. 0. 3.30790371e-01 0. 3.30790371e-01
      3.30790371e-01 2.70443261e-01 0. 0. 0. 0. 0. 0. 0. 0. 0. 0. 0. 0.
      0. 0. 0. 0. 0. 0. 0. 0. 0. 0. 0. 0. 0. 0. 0. 0. 0. 0. 0. 0. 0. 0.
      0. 0.</_>
    <_>
      0. 0. 0. 0. 0. 0. 0. 0. 0. 0. 0. 0. 0. 0. 0. 0. 0. 0. 0. 0. 0. 0.
      0. 0. 0. 0. 0. 0. 0. 0. 0. 0. 0. 0. 0. 0. 0. 0. 0. 0. 0. 0. 0. 0.
      0. 0. 0. 0. 0. 0. 0. 0. 0. 0. 4.98753130e-01 0. 0. 0. 0. 0. 0. 0.
      4.98753130e-01 4.98753130e-01 0. 0. 0. 0. 0. 0. 0. 4.98753130e-01
      0. 0. 0. 0. 0. 0. 0. 0. 0. 0. 0. 0. 0. 0. 0. 0. 0. 0. 0. 0. 0. 0.
      0. 0. 0. 0. 0. 0. 0. 0. 0. 0. 0. 0. 0. 0. 0. 0. 0. 0. 0. 0. 0. 0.
      0. 0. 0. 0. 0. 0. 0. 0. 0. 0. 0. 0. 0. 0. 0. 0. 0. 0. 0. 0. 0. 0.
      0. 0. 0. 0. 0. 0. 0. 0. 0. 0. 0. 0. 0. 0. 0. 0. 0. 0. 0. 0. 0. 0.
      0. 0. 0. 0. 0. 0. 0. 0. 0. 0. 0. 0. 0. 0. 0. 0. 0. 0. 0. 0. 0. 0.
      0. 0. 0. 0. 0. 0. 0. 0. 5.65247871e-02 1.69143498e-01 0.
      4.52355444e-01 0. 0. 0. 0. 0. 0. 0. 0. 1.59571588e-01 0. 0. 0. 0.
      0. 5.16340196e-01 5.16340196e-01 0. 4.46918249e-01 0. 0. 0. 0.
      1.76666547e-02 9.65083018e-02 2.88788706e-01 0. 2.88468271e-01 0.
      2.33864132e-02 7.81534892e-03 1.76666547e-02 8.83332826e-03
      1.50230139e-01 3.60947818e-01 0. 3.60947818e-01 0. 4.67728451e-02
      1.56307034e-02 8.83332826e-03 0. 8.08685720e-02 2.41988659e-01 0.
      3.60947818e-01 0. 7.10416436e-02 2.37409305e-02 0. 1.08053163e-01
      1.61737204e-01 3.60947818e-01 0. 3.60947818e-01 0. 1.42083347e-01
      4.74818796e-02 1.08053163e-01 0. 0. 0. 0. 0. 0. 0. 0. 0. 0. 0. 0.
      0. 0. 0. 0. 0. 0. 4.98753130e-01 0. 0. 0. 0. 0. 0. 0.
      4.98753130e-01 4.98753130e-01 0. 0. 0. 0. 0. 0. 0. 4.98753130e-01
      0. 0. 0. 0. 0. 0. 0. 0. 0. 0. 0. 0. 0. 0. 0. 0. 0. 0.
      4.98753130e-01 0. 0. 0. 0. 0. 0. 0. 4.98753130e-01 4.98753130e-01
      0. 0. 0. 0. 0. 0. 0. 4.98753130e-01 0. 0. 0. 0. 0. 0. 0. 0. 0. 0.
      0. 0. 0. 0. 0. 0. 0. 0. 7.04615593e-01 0. 0. 0. 0. 0. 0. 0.
      7.04615593e-01 0. 0. 0. 0. 0. 0. 0. 0. 0. 0. 4.11779508e-02
      1.23219974e-01 0. 3.47345531e-01 0. 0. 0. 0. 0. 8.23559314e-02
      2.46440023e-01 0. 3.47345531e-01 0. 0. 0. 0. 3.17754522e-02 0. 0.
      0. 3.47345531e-01 0. 1.96807891e-01 6.57697394e-02 3.17754522e-02
      3.47345531e-01 0. 0. 0. 3.47345531e-01 0. 3.47345531e-01
      1.50049061e-01 3.47345531e-01 3.29564996e-02 0. 0. 0. 0. 0. 0. 0.
      3.29564996e-02 1.72179192e-01 0. 0. 0. 0. 0. 0. 0. 1.72179192e-01
      4.09405857e-01 1.13585994e-01 3.39891315e-01 0. 0. 0.
      5.74462079e-02 1.91975161e-02 4.09405857e-01 4.09405857e-01
      1.15110010e-01 3.44451725e-01 0. 0. 0. 0. 0. 4.09405857e-01
      1.99181736e-01 7.51367584e-03 2.24837530e-02 0. 1.25501245e-01 0.
      2.77300291e-02 9.26691294e-03 1.99181736e-01 2.97256440e-01
      1.50273563e-02 4.49675247e-02 0. 2.51002520e-01 0. 5.40107191e-02
      1.80494804e-02 2.97256440e-01 2.97256440e-01 1.06793232e-01
      2.97256440e-01 0. 2.97256440e-01 0. 0. 0. 2.97256440e-01
      2.45280400e-01 7.21635520e-02 2.15940028e-01 0. 2.97256440e-01 0.
      1.64070174e-01 5.48293740e-02 2.45280400e-01 1.93070352e-01
      1.95313804e-02 5.84452525e-02 0. 0. 0. 5.67280427e-02
      1.89575646e-02 1.93070352e-01 1.95660844e-01 3.07418518e-02
      9.19912308e-02 0. 1.31815314e-01 0. 1.10491134e-01 3.69242877e-02
      1.95660844e-01 3.21755022e-01 7.47773796e-02 2.23761559e-01 0. 0.
      0. 1.39722273e-01 4.66927290e-02 3.21755022e-01 3.21755022e-01
      7.57806897e-02 2.26763844e-01 0. 3.21755022e-01 0. 3.21755022e-01
      2.05551371e-01 3.21755022e-01 1.40965879e-01 0. 0. 0.
      3.70360792e-01 0. 1.71426535e-01 5.72877750e-02 1.40965879e-01
      1.11831706e-02 0. 0. 0. 3.70360792e-01 0. 0. 0. 1.11831706e-02
      3.70360792e-01 0. 0. 0. 3.70360792e-01 0. 2.69820690e-01
      9.01693478e-02 3.70360792e-01 9.92510989e-02 0. 0. 0.
      3.70360792e-01 0. 0. 0. 9.92510989e-02 0. 0. 0. 0. 0. 0. 0. 0. 0.
      0. 0. 0. 0. 0. 0. 0. 0. 0. 0. 0. 0. 0. 0. 0. 0. 0. 0. 0. 0. 0. 0.
      0. 0. 0. 0. 0. 4.98753130e-01 0. 0. 0. 0. 0. 0. 0. 4.98753130e-01
      4.98753130e-01 0. 0. 0. 0. 0. 0. 0. 4.98753130e-01 0. 0. 0. 0. 0.
      0. 0. 0. 0. 0. 0. 0. 0. 0. 0. 0. 0. 0. 0. 0. 0. 0. 0. 0. 0. 0. 0.
      7.04615593e-01 0. 0. 0. 0. 0. 0. 0. 7.04615593e-01 0. 0. 0. 0. 0.
      0. 0. 0. 0. 0. 0. 0. 0. 0. 0. 0. 0. 0. 4.98753130e-01 0. 0. 0. 0.
      0. 0. 0. 4.98753130e-01 4.98753130e-01 0. 0. 0. 0. 0. 0. 0.
      4.98753130e-01 0. 0. 0. 0. 0. 0. 0. 0. 0. 0. 0. 0. 0. 0. 0. 0. 0.
      0. 0. 0. 0. 0. 0. 0. 0. 0. 0. 0. 0. 0. 0. 0. 0. 0. 0. 0. 0. 0. 0.
      0. 0. 0. 0. 0. 0. 0. 0. 0. 0. 0. 0. 0. 0. 0. 0. 0. 0. 0. 0. 0. 0.
      0. 0. 0. 0. 0. 0. 0. 0. 0. 0. 0. 0. 0. 0. 0. 0. 0. 0. 0. 0. 0. 0.
      0. 0. 0. 0. 0. 0. 0. 5.53262830e-02 0. 0. 0. 0. 0. 0. 0.
      5.53262830e-02 2.89048761e-01 0. 0. 0. 0. 0. 0. 0. 2.89048761e-01
      1.10652603e-01 9.41577107e-02 2.81755805e-01 0. 3.67397994e-01 0.
      0. 0. 1.10652603e-01 3.67397994e-01 1.88315481e-01 3.67397994e-01
      0. 3.67397994e-01 0. 0. 0. 3.67397994e-01 1.91673815e-01 0. 0. 0.
      0. 0. 0. 0. 1.91673815e-01 2.81299084e-01 0. 0. 0. 0. 0. 0. 0.
      2.81299084e-01 4.37006474e-01 0. 0. 0. 0. 0. 0. 0. 4.37006474e-01
      4.37006474e-01 0. 0. 0. 0. 0. 0. 0. 4.37006474e-01 2.12676749e-01
      0. 0. 0. 0. 0. 0. 0. 2.12676749e-01 5.48379458e-02 0. 0. 0. 0. 0.
      0. 0. 5.48379458e-02 3.64595711e-01 0. 0. 0. 1.12618938e-01 0.
      3.64595711e-01 3.03204954e-01 3.64595711e-01 1.09675929e-01 0. 0.
      0. 3.64595711e-01 0. 3.64595711e-01 3.26429278e-01 1.09675929e-01
      0. 0. 0. 0. 0. 0. 0. 0. 0. 0. 0. 0. 0. 0. 0. 0. 0. 0. 0. 0. 0. 0.
      0. 0. 0. 0. 0. 0. 0. 0. 0. 0. 0. 0. 0. 0.</_>
    <_>
      0. 0. 0. 0. 0. 0. 0. 0. 0. 0. 0. 0. 0. 0. 0. 0. 0. 0. 0. 0. 0. 0.
      0. 0. 0. 0. 0. 0. 0. 0. 0. 0. 0. 0. 0. 0. 0. 0. 0. 0. 0. 0. 0. 0.
      0. 0. 0. 0. 0. 0. 0. 0. 0. 0. 0. 0. 0. 0. 0. 0. 0. 0. 0. 0. 0. 0.
      0. 0. 0. 0. 0. 0. 0. 0. 0. 0. 0. 0. 0. 0. 0. 0. 0. 0. 0. 0. 0. 0.
      0. 0. 0. 0. 0. 0. 0. 0. 0. 0. 0. 0. 0. 0. 0. 0. 0. 0. 0. 0. 0. 0.
      0. 0. 0. 0. 0. 0. 0. 0. 0. 0. 0. 0. 0. 0. 0. 0. 0. 0. 0. 0. 0. 0.
      0. 0. 0. 7.04615593e-01 0. 0. 0. 0. 0. 0. 0. 7.04615593e-01 0. 0.
      0. 0. 0. 0. 0. 0. 0. 0. 0. 0. 0. 0. 0. 0. 0. 0. 5.43577433e-01 0.
      0. 0. 0. 0. 0. 0. 5.43577433e-01 4.49231952e-01 0. 0. 0. 0. 0. 0.
      0. 4.49231952e-01 8.73308852e-02 2.10519806e-02 5.88353723e-02
      7.67522007e-02 3.30006599e-01 0. 0. 0. 5.45579009e-03
      2.82948226e-01 4.62995656e-02 1.17670797e-01 1.53504461e-01
      3.30006599e-01 0. 1.12379948e-02 2.68070728e-01 3.30006599e-01 0.
      0. 3.30006599e-01 1.38610154e-01 3.30006599e-01 0. 0. 0. 0.
      3.01643815e-02 0. 2.67686903e-01 1.26869276e-01 3.30006599e-01 0.
      2.24759988e-02 2.49684025e-02 1.58806100e-01 6.79674074e-02 0. 0.
      0. 6.34578168e-01 1.17246322e-01 6.01668917e-02 0. 6.79674074e-02
      0. 0. 0. 0. 0. 0. 0. 0. 0. 0. 0. 3.86426270e-01 8.95131379e-02
      6.34578168e-01 5.86231761e-02 3.00834514e-02 0. 0. 0. 0. 0. 0. 0.
      0. 0. 0. 0. 0. 0. 0. 0. 0. 0. 0. 0. 0. 0. 0. 0. 0. 3.01991045e-01
      0. 0. 0. 0. 0. 0. 0. 0. 0. 0. 0. 0. 0. 9.76562947e-02
      4.23879437e-02 6.63816273e-01 0. 6.63816273e-01 0. 0. 0.
      9.76562947e-02 3.00820678e-01 3.78319055e-01 3.78319055e-01
      6.70833420e-03 0. 0. 0. 0. 6.43766746e-02 3.78319055e-01
      3.78319055e-01 2.97693729e-01 2.69259866e-02 0. 0. 0. 0.
      1.80322051e-01 5.23633882e-02 1.42057240e-01 3.78319055e-01
      3.73538882e-02 3.64735611e-02 0. 0. 0. 3.17166857e-02
      1.46808699e-01 2.17498615e-02 6.50837943e-02 0. 0. 0. 0. 0.
      1.05515279e-01 1.99240185e-02 0. 0. 0. 2.43103400e-01
      1.50805846e-01 1.99801832e-01 1.31422831e-02 1.49778547e-02 0. 0.
      0. 0. 4.63590384e-01 3.01611781e-01 3.40613931e-01 6.57114293e-03
      0. 0. 0. 0. 0. 4.63590384e-01 6.40393719e-02 1.02851773e-02 0. 0.
      0. 0. 0. 0. 4.63590384e-01 1.28078789e-01 2.05703601e-02 0. 0. 0.
      0. 0. 1.97919346e-02 4.86989498e-01 0. 0. 0. 0. 0. 0. 0.
      9.89596918e-03 4.86989498e-01 0. 0. 0. 0. 0. 0. 0. 0.
      4.86989498e-01 1.22179696e-03 1.91852897e-01 0. 0. 0. 0. 0. 0.
      4.86989498e-01 6.10898598e-04 9.59264636e-02 0. 0. 0. 0. 0.
      6.73470739e-03 3.89687181e-01 5.12559526e-02 2.00700283e-01 0. 0.
      0. 0. 0. 0. 0. 0. 0. 0. 0. 2.49278620e-01 0. 0. 0. 3.89687181e-01
      7.61946812e-02 2.17442200e-01 1.55933917e-01 2.49278620e-01
      2.68372446e-01 3.89687181e-01 3.89687181e-01 0. 0. 0. 0. 0.
      2.68372446e-01 1.85570661e-02 2.29816049e-01 3.43906730e-01 0.
      1.41190020e-02 0. 0. 0. 7.42194941e-03 1.79282799e-02
      3.43906730e-01 3.43906730e-01 1.42609375e-02 7.05950242e-03 0. 0.
      0. 1.48336859e-02 5.53432368e-02 3.43906730e-01 3.43906730e-01
      5.41012622e-02 0. 0. 0. 0. 1.53006474e-02 3.12146805e-02
      3.36836517e-01 3.43906730e-01 1.18687712e-01 3.11608702e-01 0. 0.
      0. 2.96673849e-02 1.22403771e-01 2.99562126e-01 2.80682385e-01
      2.32327580e-01 8.30888003e-02 0. 0. 0. 2.39254404e-02
      2.45316222e-01 2.10675970e-01 7.27416649e-02 5.39100589e-03
      3.47842306e-01 3.08061033e-01 1.66267809e-03 2.48253033e-01
      8.33926946e-02 7.03101009e-02 1.07069038e-01 2.57451504e-01
      2.86205083e-01 2.23960251e-01 0. 0. 0. 1.97737571e-02
      3.93340960e-02 1.13581717e-02 3.39878537e-02 1.07820155e-02
      3.47842306e-01 1.33392721e-01 0. 0. 1.77649204e-02 0. 0.
      1.63435116e-01 1.55806139e-01 3.05940837e-01 8.28613490e-02
      1.22523084e-02 0. 0. 0. 0. 3.05940837e-01 3.05940837e-01
      3.05940837e-01 1.65722758e-01 2.45046262e-02 0. 0. 0. 0.
      9.81095806e-03 6.63501322e-02 3.05940837e-01 2.25786522e-01
      2.97665864e-01 0. 0. 0. 0. 1.96219236e-02 1.32700309e-01
      3.05940837e-01 3.05940837e-01 3.05940837e-01 0. 0. 0. 0. 0. 0.
      1.75946131e-01 1.76336482e-01 3.29502553e-01 0. 0. 1.23903751e-02
      0. 0. 0. 2.25419834e-01 3.29502553e-01 3.29502553e-01
      2.41336331e-01 4.92766201e-02 0. 0. 0. 0. 2.35719271e-02
      1.41942710e-01 6.13607392e-02 0. 0. 2.31681198e-01 0. 0. 0.
      1.17859645e-02 3.29502553e-01 3.29502553e-01 3.29502553e-01
      3.05453688e-01 8.70563164e-02 0. 0. 0. 0. 0. 0. 1.49823269e-02
      2.88635373e-01 1.60066500e-01 1.44106727e-02 0. 0. 0. 0. 0. 0.
      1.68679297e-01 7.03810602e-02 0. 0. 0. 0. 0. 1.93147182e-01
      3.64401370e-01 3.64401370e-01 3.64401370e-01 3.64401370e-01
      5.14579080e-02 0. 0. 0. 9.65736061e-02 3.64401370e-01
      3.64401370e-01 1.61125977e-02 1.90106675e-01 3.84677947e-01
      2.40557417e-02 1.69320330e-02 0. 0. 0. 1.61125977e-02
      7.60250678e-03 3.84677947e-01 3.84677947e-01 2.85216346e-02
      1.90757774e-02 0. 0. 0. 0. 2.43045539e-01 1.04798503e-01
      3.84677947e-01 2.40309209e-01 3.99554074e-02 0. 0. 0.
      2.44565934e-01 6.62326021e-03 1.27511561e-01 3.84677947e-01
      9.69604403e-02 5.08671440e-02 0. 0. 0. 2.82200589e-03 0. 0. 0. 0.
      1.91470503e-03 0. 0. 0. 0. 0. 0. 0. 0. 5.46982825e-01
      1.46289766e-01 2.34950762e-02 0. 0. 0. 0. 0. 0. 0. 0. 0. 0. 0. 0.
      0. 0. 0. 5.46982825e-01 2.95680612e-01 5.33923209e-01
      3.34388576e-02 2.41189543e-02 0. 0. 1.31349847e-01 3.56457829e-02
      4.61483687e-01 0. 0. 0. 0. 0. 0. 2.62699753e-01 7.12915808e-02
      4.61483687e-01 0. 0. 0. 0. 5.54655120e-02 1.35338306e-01
      2.03031441e-03 0. 4.61483687e-01 0. 7.39227310e-02 1.28009900e-01
      5.54655120e-02 0. 6.76691681e-02 1.01515732e-03 0. 4.61483687e-01
      0. 0. 0. 0. 0. 0. 0. 0. 0. 0. 0. 0. 0. 0. 0. 0. 0. 0. 0. 0. 0. 0.
      0. 0. 0. 0. 0. 0. 0. 0. 0. 0. 0. 0. 0. 0. 0. 0. 0. 0.
      3.04390490e-01 0. 0. 0. 0. 0. 0. 0. 3.04390490e-01 6.35745823e-01
      0. 0. 0. 0. 0. 0. 0. 6.35745823e-01 0. 0. 0. 0. 0. 0. 0. 0. 0. 0.
      0. 0. 0. 0. 0. 0. 0. 0. 0. 0. 0. 0. 0. 0. 0. 0. 0. 0. 0. 0. 0. 0.
      0. 0. 0. 0. 0. 0. 0. 0. 0. 0. 0. 0. 0. 0. 0. 0. 0. 0. 0. 0. 0. 0.
      0. 0. 0. 0. 0. 0. 0. 0. 0. 0. 0. 0. 0. 0. 0. 0. 0. 0. 0. 0. 0. 0.
      0. 0. 0. 0. 0. 0. 0. 0. 0. 0. 0. 0. 0. 0. 5.25452673e-01 0. 0. 0.
      0. 0. 0. 0. 5.25452673e-01 4.70399559e-01 0. 0. 0. 0. 0. 0. 0.
      4.70399559e-01 0. 0. 0. 0. 0. 0. 0. 0. 0. 0. 0. 0. 0. 0. 0. 0. 0.
      0.</_>
    <_>
      0. 0. 0. 0. 0. 0. 0. 0. 0. 0. 0. 0. 0. 0. 0. 0. 0. 0. 0. 0. 0. 0.
      0. 0. 0. 0. 0. 0. 0. 0. 0. 0. 0. 0. 0. 0. 0. 0. 0. 0. 0. 0. 0. 0.
      0. 0. 0. 0. 0. 0. 0. 0. 0. 0. 0. 0. 0. 0. 0. 0. 0. 0. 0. 0. 0. 0.
      0. 0. 0. 0. 0. 0. 0. 0. 0. 0. 0. 0. 0. 0. 0. 0. 0. 0. 0. 0. 0. 0.
      0. 0. 0. 0. 0. 0. 0. 0. 0. 0. 0. 0. 0. 0. 0. 0. 0. 0. 0. 0. 0. 0.
      0. 0. 0. 0. 0. 0. 0. 0. 0. 0. 0. 0. 0. 0. 0. 0. 3.89634743e-02 0.
      0. 0. 0. 0. 0. 0. 3.89634743e-02 4.97993469e-01 4.97993469e-01
      4.97993469e-01 0. 0. 0. 0. 0. 4.97993469e-01 0. 0. 0. 0. 0. 0. 0.
      0. 0. 0. 0. 0. 0. 0. 0. 0. 0. 0. 4.33605283e-01 0. 0. 0. 0. 0.
      2.35798657e-01 4.33605283e-01 4.33605283e-01 4.33605283e-01 0. 0.
      0. 0. 0. 0. 0. 4.33605283e-01 0. 4.53197584e-03 1.23373903e-01
      1.41293317e-01 8.35638046e-02 0. 0. 0. 0. 1.61384359e-01
      2.93344826e-01 3.38231504e-01 3.31883550e-01 1.65714622e-01 0. 0.
      0. 1.38777411e-02 0. 9.06395447e-03 3.38231504e-01 1.28497139e-01
      3.38231504e-01 0. 0. 0. 0. 2.80735064e-02 2.73734126e-02
      3.38231504e-01 3.38231504e-01 3.38231504e-01 0. 0. 0.
      9.93043883e-04 3.79240625e-02 1.31086096e-01 2.10243404e-01
      3.49668086e-01 3.53420764e-01 7.13700354e-02 5.46441153e-02
      3.48591268e-01 1.53797910e-01 1.22560076e-02 0. 0. 0.
      3.53420764e-01 3.56850252e-02 2.73220614e-02 0. 1.22560076e-02
      4.90240380e-02 2.62172252e-01 3.53420764e-01 2.17749029e-01
      3.53420764e-01 0. 0. 3.12441844e-03 6.26809746e-02 2.45120227e-02
      0. 0. 0. 1.80249199e-01 0. 0. 0. 2.45120227e-02 0. 0. 0. 0. 0. 0.
      0. 0. 0. 6.43253848e-02 8.91815647e-02 0. 0. 0. 0. 0. 0. 0. 0. 0.
      0. 2.70137154e-02 1.16009705e-01 0. 0. 0. 0. 1.28650814e-01
      5.79466879e-01 5.79466879e-01 4.75380778e-01 2.32019514e-01 0. 0.
      0. 0. 1.88315772e-02 3.61632556e-01 3.61632556e-01 1.86350681e-02
      1.46630034e-03 0. 0. 0. 4.39890148e-03 9.77412015e-02
      3.61632556e-01 3.61632556e-01 9.31753591e-03 7.33150402e-04 0. 0.
      0. 8.57578777e-03 1.40194044e-01 3.61632556e-01 3.61632556e-01
      3.72701474e-02 7.52823835e-04 0. 0. 0. 1.40194044e-01
      2.35603198e-01 9.75474566e-02 1.99253649e-01 1.86350793e-02 0. 0.
      0. 0. 2.35603198e-01 1.66641138e-02 1.54018076e-03 2.28080034e-01
      7.78793171e-02 3.24678868e-01 2.76700817e-02 1.11471124e-01 0.
      5.23929000e-02 6.29255956e-04 0. 3.24678868e-01 1.55758694e-01
      3.24678868e-01 5.53401820e-02 2.22942322e-01 0. 1.88104566e-02 0.
      0. 6.44248202e-02 5.15226126e-02 3.24678868e-01 1.20940164e-01
      3.24678868e-01 0. 0. 0. 0. 1.28849700e-01 1.03045262e-01
      3.24678868e-01 2.41880432e-01 3.24678868e-01 0. 0. 0. 0. 0. 0.
      3.68144035e-01 8.23438242e-02 1.21757854e-02 0. 0. 0. 0. 0. 0.
      3.68144035e-01 1.64687708e-01 2.43515801e-02 0. 0. 0. 0. 0. 0.
      3.68144035e-01 2.33471751e-01 3.06576133e-01 0. 0. 0. 0. 0. 0.
      3.68144035e-01 3.68144035e-01 3.68144035e-01 0. 0. 0. 0. 0. 0.
      3.08772087e-01 2.35716507e-01 3.04107755e-01 0. 0. 0. 0. 0. 0.
      2.80940104e-02 2.45003011e-02 0. 0. 0. 0. 0. 0. 0. 1.77203372e-01
      3.08772087e-01 3.08772087e-01 3.08772087e-01 3.66097912e-02
      2.95979291e-01 2.29587823e-01 1.61530375e-01 0. 1.07277572e-01
      4.90006171e-02 2.57749140e-01 3.02139878e-01 3.08772087e-01
      8.26518610e-03 1.69593275e-01 3.90926093e-01 7.79738650e-02
      4.00884449e-02 0. 0. 0. 8.26518610e-03 0. 9.35078785e-02
      3.90926093e-01 2.58935332e-01 8.93719867e-02 0. 0. 0. 0.
      5.16708344e-02 3.01109493e-01 3.90926093e-01 2.81513631e-01
      6.19040057e-02 0. 0. 0. 9.88708343e-03 0. 2.19685942e-01
      3.90926093e-01 1.26612365e-01 1.53715387e-01 0. 0. 0. 0.
      3.01667955e-04 1.35771036e-01 3.20533246e-01 4.22449499e-01
      1.84545964e-01 0. 0. 0. 0. 0. 8.49857405e-02 1.23017974e-01
      2.96298545e-02 4.48356003e-01 1.02848075e-02 4.07824218e-02
      4.18278724e-02 0. 0. 7.97090530e-02 3.29479903e-01 2.92023927e-01
      1.80606350e-01 0. 0. 0. 0. 0. 0. 0. 1.48149291e-02 4.48356003e-01
      0. 0. 0. 0. 0. 0. 1.19437948e-01 2.33590323e-02 3.12706918e-01
      1.60449222e-01 0. 0. 0. 0. 0. 2.38875955e-01 4.67180796e-02
      3.80646676e-01 3.20898592e-01 0. 0. 0. 0. 0. 2.31609568e-01
      1.47487188e-03 3.80646676e-01 5.84516153e-02 9.52175260e-02 0. 0.
      0. 0. 3.80646676e-01 2.94974493e-03 3.80646676e-01 1.16903283e-01
      1.90435126e-01 0. 0. 2.00295541e-03 0. 0. 0. 2.48538166e-01
      1.82672143e-01 0. 0. 2.00295541e-03 4.00591223e-03 0. 0. 0.
      4.07760203e-01 4.07760203e-01 4.07760203e-01 2.70899534e-01
      4.00591223e-03 4.00591223e-03 0. 0. 0. 2.02310905e-02
      5.58444709e-02 0. 0. 4.00591223e-03 8.01182631e-03 0. 0. 0.
      3.27566527e-02 1.20761588e-01 4.07760203e-01 3.78075868e-01
      8.01182631e-03 1.34789333e-01 0. 0. 0. 0. 0. 1.28832879e-03
      1.77578945e-02 1.34789333e-01 2.14975908e-01 0. 5.00511229e-02
      4.81937416e-02 0. 0. 0. 0. 2.14975908e-01 4.42191273e-01 0. 0. 0.
      0. 0. 2.57665804e-03 1.08048916e-01 4.42191273e-01 4.42191273e-01
      2.20336154e-01 1.00102291e-01 9.63875279e-02 0. 0. 0. 0.
      4.42191273e-01 1.27154797e-01 3.06977063e-01 3.06977063e-01 0.
      2.26443866e-03 0. 0. 0. 1.01091668e-01 1.32176831e-01
      3.06977063e-01 3.06977063e-01 9.65601131e-02 2.98634078e-02 0. 0.
      0. 1.00484909e-02 3.06977063e-01 3.06977063e-01 3.06977063e-01
      2.62920335e-02 7.83138257e-03 0. 0. 0. 2.97378629e-01
      9.45715159e-02 2.99314737e-01 3.06977063e-01 0. 5.50807873e-03 0.
      0. 0. 3.35073322e-02 0. 0. 0. 0. 2.10620579e-03 0. 0. 0. 0. 0. 0.
      0. 0. 5.95156968e-01 1.60921052e-01 2.58449540e-02 0. 0. 0. 0. 0.
      0. 0. 0. 0. 0. 0. 2.94311587e-02 0. 0. 0. 5.95156968e-01
      3.21842223e-01 6.78190067e-02 3.86201411e-01 2.94311587e-02
      4.40942943e-02 4.51477133e-02 2.82806009e-01 2.70996034e-01
      2.82806009e-01 0. 0. 5.69321169e-03 8.24438408e-03 0.
      1.35059571e-02 2.82806009e-01 2.82806009e-01 2.82806009e-01 0. 0.
      0. 0. 2.55889654e-01 2.82806009e-01 2.82806009e-01 1.24348573e-01
      2.65699476e-01 0. 0. 1.13864262e-02 9.94695127e-02 2.64242338e-03
      2.10696936e-01 2.09443614e-01 1.72626376e-01 2.82806009e-01 0. 0.
      0. 2.64242338e-03 0. 0. 0. 0. 0. 0. 0. 0. 0. 0. 0. 0. 0. 0. 0. 0.
      0. 0. 0. 0. 0. 0. 0. 0. 0. 0. 0. 0. 0. 0. 0. 0. 0. 0. 0. 0. 0. 0.
      0. 0. 0. 0. 0. 0. 0. 0. 0. 0. 0. 0. 0. 0. 0. 0. 0. 0. 0. 0. 0. 0.
      0. 0. 0. 0. 0. 0. 0. 0. 0. 0. 0. 0. 0. 0. 0. 0. 0. 0. 0. 0. 0. 0.
      0. 0. 0. 0. 0. 0. 0. 0. 0. 0. 0. 0. 0. 0. 0. 0. 0. 0. 0. 0. 0. 0.
      0. 0. 0. 0. 0. 0. 0. 0. 0. 0. 0. 0. 0. 0. 0. 0. 0. 0. 0. 0. 0. 0.
      0. 0. 0. 0. 0. 0. 0. 0. 0. 0. 0. 0. 0. 0. 0. 0. 0. 0. 0. 0. 0. 0.
      0. 0. 0. 0. 0. 0. 0. 0. 0. 0. 0. 0. 0. 0. 0. 0. 0. 0. 0. 0. 0. 0.
      0. 0. 0. 0. 0. 0. 0. 0. 0. 0.</_>
    <_>
      0. 0. 0. 0. 0. 0. 0. 0. 0. 0. 0. 0. 0. 0. 0. 0. 0. 0. 0. 0. 0. 0.
      0. 0. 0. 0. 0. 0. 0. 0. 0. 0. 0. 0. 0. 0. 2.28217706e-01 0. 0. 0.
      1.12826794e-01 0. 1.22794457e-01 3.62191886e-01 3.62191886e-01
      3.62191886e-01 0. 0. 0. 2.59246584e-02 0. 0. 1.69213831e-01
      3.62191886e-01 8.53630304e-02 0. 0. 0. 0. 0. 0. 0. 8.53630304e-02
      3.29162270e-01 0. 0. 0. 3.62191886e-01 0. 0. 0. 3.29162270e-01
      3.86103719e-01 8.21634158e-02 0. 0. 0. 0. 0. 1.30388448e-02
      3.86103719e-01 3.86103719e-01 4.10817191e-02 0. 0. 0. 0. 0.
      3.86103719e-01 3.86103719e-01 2.56689787e-01 0. 0. 0.
      5.57194129e-02 0. 0. 0. 1.68721408e-01 1.93883508e-01 0. 0. 0. 0.
      0. 0. 4.90869917e-02 3.23561817e-01 3.70984405e-01 3.24648887e-01
      0. 0. 0. 0. 0. 0. 3.70984405e-01 3.70984405e-01 3.70984405e-01 0.
      1.00218020e-01 1.67757481e-01 0. 0. 0. 3.70984405e-01
      2.30586514e-01 2.80178655e-02 0. 0. 0. 0. 0. 0. 1.17556654e-01
      2.19987109e-01 0. 0. 0. 0. 0. 0. 0. 2.19987109e-01 0. 0. 0. 0.
      2.22510807e-02 0. 0. 0. 0. 1.42257661e-01 0. 0. 0. 5.34562051e-01
      0. 0. 0. 1.42257661e-01 0. 0. 0. 0. 0. 0. 0. 0. 0. 4.37137693e-01
      0. 0. 0. 5.34562051e-01 0. 0. 0. 4.37137693e-01 0. 0. 0. 0. 0. 0.
      0. 0. 0. 0. 0. 0. 0. 0. 0. 0. 0. 0. 1.04918599e-01 0. 0. 0. 0. 0.
      0. 0. 1.04918599e-01 4.93218511e-01 4.93218511e-01 4.93218511e-01
      0. 0. 0. 0. 0. 4.93218511e-01 0. 0. 0. 0. 0. 0. 0. 0. 0.
      1.79622471e-02 0. 0. 0. 0. 0. 0. 0. 1.79622471e-02 4.20914173e-01
      0. 0. 0. 4.20914173e-01 4.20914173e-01 4.20914173e-01
      7.55468309e-02 4.20914173e-01 0. 0. 0. 0. 3.21867853e-01 0. 0. 0.
      0. 0. 0. 0. 0. 0. 0. 0. 0. 0. 0. 0. 0. 0. 0. 0. 0. 0. 0. 0. 0. 0.
      0. 0. 0. 0. 0. 0. 0. 0. 0. 0. 0. 0. 0. 0. 0. 0. 0. 0. 0. 0. 0. 0.
      0. 0. 0. 0. 0. 0. 0. 0. 0. 0. 0. 3.95170122e-01 2.21181229e-01 0.
      0. 0. 0. 0. 0. 2.64609843e-01 4.24458742e-01 4.24458742e-01
      4.24458742e-01 0. 0. 0. 0. 0. 4.24458742e-01 0. 0. 0. 0. 0. 0. 0.
      0. 0. 0. 0. 0. 0. 0. 0. 0. 0. 0. 4.24224287e-01 0. 0. 0. 0. 0.
      1.72930792e-01 5.98439686e-02 4.24224287e-01 4.24224287e-01 0. 0.
      0. 3.29340786e-01 0. 3.45861733e-01 1.19687982e-01 4.24224287e-01
      0. 9.39470716e-03 3.03774923e-01 1.88676879e-01 3.03774923e-01 0.
      0. 0. 0. 3.33514553e-03 7.78942257e-02 3.03774923e-01
      1.52175784e-01 3.03774923e-01 0. 0. 0. 3.33514553e-03 0. 0.
      2.06466064e-01 2.97129571e-01 3.03774923e-01 1.24835841e-01
      3.03774923e-01 2.85385959e-02 0. 5.74519411e-02 0. 1.03233047e-01
      1.48564816e-01 3.03774923e-01 6.24179393e-02 3.03774923e-01
      5.70772141e-02 5.74519411e-02 0. 0. 2.68842075e-02 1.83040351e-01
      3.48737776e-01 8.17963183e-02 2.20992774e-01 3.18071619e-02 0. 0.
      0. 0. 0. 8.36319998e-02 0. 5.07795475e-02 1.59035865e-02 0.
      1.81638766e-02 0. 0. 0. 1.62982315e-01 1.35649696e-01
      3.48737776e-01 3.48737776e-01 1.56867430e-01 3.48737776e-01
      2.15062201e-01 1.03740739e-02 0. 6.21866388e-03 0. 2.23417640e-01
      3.48737776e-01 3.48737776e-01 2.29260951e-01 8.42601731e-02
      1.12590984e-01 1.29133761e-02 0. 0. 0. 0. 2.53370944e-02
      1.28471717e-01 3.40769410e-01 3.40769410e-01 2.72885300e-02
      3.13006574e-03 0. 0. 0. 6.75201118e-02 3.40769410e-01
      3.40769410e-01 1.62367538e-01 6.45669037e-03 0. 0. 0. 0.
      1.09118097e-01 3.40769410e-01 3.40769410e-01 3.40769410e-01
      1.29133845e-02 1.38897309e-02 0. 0. 0. 2.23814547e-01
      2.30483517e-01 1.69188544e-01 2.17277095e-01 2.11173261e-04
      5.60830906e-03 0. 0. 0. 1.45887315e-01 2.78132021e-01
      1.44400597e-01 1.60208747e-01 0. 0. 3.54531445e-02 3.76129150e-02
      0. 2.78132021e-01 2.78132021e-01 2.78132021e-01 2.78132021e-01 0.
      2.80415500e-03 0. 0. 0. 4.21344154e-02 2.78132021e-01
      2.78132021e-01 2.78132021e-01 1.08236834e-01 2.78132021e-01
      7.09063187e-02 7.52258599e-02 0. 2.78132021e-01 3.59670492e-03 0.
      0. 1.68335307e-02 2.28474647e-01 1.45454943e-01 7.81905279e-03
      3.09616956e-03 3.59670492e-03 0. 0. 0. 1.55286804e-01
      3.63548934e-01 3.63548934e-01 2.63472944e-01 1.54808513e-03 0. 0.
      0. 0. 1.76452547e-01 3.63548934e-01 4.08803001e-02 0. 0. 0. 0. 0.
      2.79792726e-01 3.63548934e-01 3.63548934e-01 2.24557772e-01
      8.20950344e-02 0. 0. 0. 0. 0. 0. 0. 0. 0. 1.57883137e-01
      9.31962729e-02 2.34425738e-01 0. 0. 0. 0. 0. 5.41156173e-01
      5.41156173e-01 5.41156173e-01 0. 0. 0. 0. 0. 0. 0. 0. 0.
      1.17212892e-01 0. 0. 0. 0. 0. 0. 0. 1.17212892e-01 4.54174042e-01
      0. 0. 0. 0. 0. 0. 0. 4.54174042e-01 4.54174042e-01 0. 0. 0. 0. 0.
      0. 0. 4.54174042e-01 1.64259285e-01 0. 0. 0. 0. 0. 0. 0.
      1.64259285e-01 2.41251796e-01 0. 0. 0. 0. 0. 0. 0. 2.41251796e-01
      4.03737754e-01 4.03737754e-01 1.01614399e-02 0. 0. 0. 0. 0.
      3.83752704e-01 4.03737754e-01 4.03737754e-01 1.45915166e-01 0. 0.
      0. 0. 0. 3.81716430e-01 1.21282995e-01 0. 0. 0. 0. 0. 0. 0.
      1.21282995e-01 9.02910251e-03 0. 0. 0. 0. 0. 0. 0. 9.02910251e-03
      6.00890769e-03 0. 0. 0. 0. 0. 0. 0. 6.00890769e-03 2.03972340e-01
      0. 0. 2.14819506e-01 5.23196638e-01 0. 3.06797117e-01
      5.23196638e-01 4.51624155e-01 0. 0. 0. 0. 0. 0. 0. 0. 0.
      1.01986192e-01 0. 0. 0. 0. 0. 0. 0. 2.25812122e-01 2.96847433e-01
      1.73986610e-02 1.71126992e-01 0. 4.24302854e-02 9.71862208e-03
      2.86202854e-03 2.46698692e-01 2.96847433e-01 2.96847433e-01
      1.81697354e-01 2.96847433e-01 0. 2.96847433e-01 1.97953030e-01 0.
      0. 2.84449250e-01 2.96057075e-01 0. 0. 0. 0. 0. 0. 5.74610755e-03
      2.96847433e-01 2.96847433e-01 7.34500140e-02 1.43478131e-02 0. 0.
      0. 0. 0. 2.03618109e-01 0. 0. 0. 0. 0. 0. 0. 0. 0. 0. 0. 0. 0. 0.
      0. 0. 0. 0. 0. 0. 0. 0. 0. 0. 0. 0. 0. 0. 0. 0. 0. 0. 0. 0. 0. 0.
      0. 0. 0. 0. 0. 0. 0. 0. 0. 1.00087933e-01 0. 0. 0. 0. 0. 0. 0.
      1.00087933e-01 4.30455595e-01 1.40270919e-01 0. 0. 3.91967118e-01
      0. 0. 0. 2.63992012e-01 4.30455595e-01 4.30455595e-01 0. 0.
      2.57768422e-01 0. 0. 0. 3.32171947e-01 1.36641175e-01 0. 0. 0. 0.
      0. 0. 0. 1.36641175e-01 2.14704722e-01 1.53204584e-02 0. 0. 0. 0.
      0. 0. 1.73387200e-01 4.57601517e-01 0. 0. 0. 0. 0. 0. 0.
      4.57601517e-01 4.57601517e-01 2.09988490e-01 0. 0. 0. 0. 0. 0.
      4.57601517e-01 1.05792657e-01 0. 0. 0. 0. 0. 0. 2.36358084e-02
      1.71429738e-01 8.55551884e-02 0. 0. 0. 0. 0. 0. 0. 8.55551884e-02
      3.81557435e-01 0. 0. 0. 2.38647498e-02 0. 0. 3.89337867e-01
      3.89337867e-01 2.58039206e-01 0. 0. 0. 3.48218888e-01 0. 0.
      3.89337867e-01 3.89337867e-01 0. 0. 0. 0. 0. 0. 0. 0. 0.
      3.40769261e-01 0. 0. 0. 4.36834812e-01 0. 0. 0. 3.40769261e-01 0.
      0. 0. 0. 9.51222796e-03 0. 0. 0. 0. 4.36834812e-01 0. 0. 0.
      4.36834812e-01 0. 0. 0. 4.36834812e-01</_>
    <_>
      0. 0. 0. 0. 0. 0. 0. 0. 0. 0. 0. 0. 0. 0. 0. 0. 0. 0. 0. 0. 0. 0.
      0. 0. 0. 0. 0. 0. 0. 0. 0. 0. 0. 0. 0. 0. 0. 0. 0. 0. 0. 0. 0. 0.
      0. 0. 0. 0. 0. 0. 0. 0. 0. 0. 0. 0. 0. 0. 0. 0. 0. 0. 0. 0. 0. 0.
      0. 0. 0. 0. 0. 0. 0. 0. 0. 0. 0. 0. 0. 0. 0. 0. 0. 0. 0. 0. 0. 0.
      0. 0. 0. 0. 0. 0. 0. 0. 0. 0. 0. 0. 0. 0. 0. 0. 0. 0. 0. 0. 0. 0.
      0. 0. 0. 0. 0. 0. 0. 0. 0. 0. 0. 0. 0. 0. 0. 0. 0. 0. 0. 0. 0. 0.
      0. 0. 0. 4.98753130e-01 4.98753130e-01 4.98753130e-01 0. 0. 0. 0.
      0. 4.98753130e-01 0. 0. 0. 0. 0. 0. 0. 0. 0. 0. 0. 0. 0. 0. 0. 0.
      0. 0. 4.25339460e-01 9.66969356e-02 0. 0. 0. 0. 0. 4.25339460e-01
      4.25339460e-01 4.25339460e-01 0. 0. 0. 0. 0. 0. 2.86063492e-01
      4.25339460e-01 0. 0. 3.36502641e-02 1.63379595e-01 1.20408326e-01
      0. 0. 0. 0. 1.65941328e-01 2.92308033e-01 3.34795862e-01
      3.34795862e-01 2.87670702e-01 0. 0. 0. 1.42696034e-02 0. 0.
      5.02307191e-02 3.34795862e-01 3.34795862e-01 0. 0. 0. 0.
      2.88662110e-02 9.50656179e-03 2.87080973e-01 3.34795862e-01
      3.34795862e-01 0. 0. 0. 1.02108414e-03 1.19355442e-02 0. 0. 0.
      5.04082143e-01 2.84757823e-01 2.02581808e-01 8.49718004e-02
      6.69477284e-02 0. 0. 0. 0. 2.56728023e-01 0. 0. 0. 0. 0. 0.
      7.49568939e-02 1.71452016e-01 5.04082143e-01 1.42378956e-01
      2.24634036e-02 7.95437675e-03 0. 0. 0. 0. 0. 4.80659515e-01 0. 0.
      0. 0. 0. 0. 0. 0. 0. 0. 0. 0. 0. 0. 1.66046798e-01 7.70787895e-02
      0. 0. 0. 0. 0. 0. 0. 0. 0. 0. 0. 0. 0. 0. 0. 0. 3.32093745e-01
      5.96829593e-01 3.71255428e-01 5.96829593e-01 0. 0. 0. 0.
      2.81066358e-01 3.69507402e-01 3.69507402e-01 6.26781024e-03 0. 0.
      0. 0. 6.01491742e-02 3.69507402e-01 3.69507402e-01 1.50642961e-01
      0. 0. 0. 0. 0. 1.68480635e-01 5.78120872e-02 1.77474648e-01
      3.69507402e-01 3.13390559e-03 5.61291352e-03 0. 0. 0.
      3.85212190e-02 2.82611489e-01 2.03215852e-02 6.08098581e-02 0. 0.
      0. 0. 0. 2.44029745e-01 1.69731937e-02 3.04257637e-03
      7.23174727e-03 0. 1.68385774e-01 5.73317334e-02 2.69209165e-02
      1.59809701e-02 5.69036454e-02 2.79163942e-03 0. 0. 0.
      5.41948497e-01 4.75143939e-01 1.44378945e-01 3.19619514e-02
      2.27568708e-02 0. 0. 0. 0. 3.50440860e-01 0. 0. 0. 0. 0. 0. 0. 0.
      5.41948497e-01 0. 0. 0. 0. 0. 0. 2.14511231e-02 7.61972601e-03
      4.21685755e-01 0. 0. 0. 0. 0. 0. 4.29022647e-02 1.52394557e-02
      4.21685755e-01 0. 0. 0. 0. 0. 0. 0. 0. 4.21685755e-01
      6.82233945e-02 2.84306139e-01 0. 0. 0. 0. 0. 0. 4.21685755e-01
      1.36446834e-01 4.21685755e-01 0. 0. 0. 0. 2.41083913e-02
      2.44053807e-02 3.56695384e-01 8.47739726e-02 1.99504748e-01
      1.54981306e-02 0. 0. 0. 0. 0. 0. 0. 9.41847358e-03 3.14749638e-03
      0. 4.79435213e-02 0. 0. 0. 1.40576616e-01 8.25307146e-02
      3.56695384e-01 3.56695384e-01 6.41438514e-02 3.56695384e-01
      3.56695384e-01 8.89395326e-02 0. 0. 0. 2.61704594e-01
      2.74147153e-01 3.56695384e-01 2.84168959e-01 1.50889114e-01
      3.16306949e-01 1.78656336e-02 0. 0. 0. 0. 2.10231245e-02
      2.52903223e-01 2.89567709e-01 3.16306949e-01 1.25956610e-01
      4.99796197e-02 0. 0. 0. 2.11623386e-02 3.07086140e-01
      3.16306949e-01 3.16306949e-01 5.57273328e-02 0. 0. 0. 0.
      2.80789509e-02 3.16306949e-01 1.59478202e-01 3.16306949e-01
      2.78636720e-02 0. 0. 0. 0. 3.51057947e-02 0. 3.04647386e-02
      3.29972714e-01 2.57021338e-01 2.88153291e-01 0. 0. 0. 0.
      6.07392304e-02 1.03714220e-01 3.29972714e-01 8.72214586e-02
      3.29972714e-01 0. 3.75777337e-04 2.50488613e-02 6.07392304e-02 0.
      1.15419917e-01 3.29972714e-01 3.29972714e-01 3.29972714e-01 0. 0.
      0. 0. 0. 1.89445564e-03 8.75524580e-02 1.92736506e-01
      3.29972714e-01 0. 0. 0. 0. 0. 0. 0. 1.23341978e-01 3.39930326e-01
      0. 0. 0. 0. 0. 0. 2.22790688e-01 3.60352427e-01 3.60352427e-01 0.
      0. 0. 0. 0. 0. 0. 4.98388670e-02 3.60352427e-01 1.24379605e-01 0.
      0. 0. 0. 0. 9.07660946e-02 2.92411208e-01 3.60352427e-01
      3.60352427e-01 2.34588623e-01 0. 0. 1.70050003e-02 0. 0. 0.
      1.02193713e-01 1.97705463e-01 0. 0. 1.70050003e-02 3.63731496e-02
      0. 0. 0. 1.25490546e-01 4.62037802e-01 4.62037802e-01
      4.62037802e-01 3.63731496e-02 8.50250293e-03 0. 0. 0. 0. 0. 0. 0.
      8.50250293e-03 1.70050114e-02 0. 0. 0. 0. 2.17536628e-01
      4.62037802e-01 1.57863140e-01 1.70050114e-02 1.81566656e-01 0. 0.
      0. 2.56110705e-03 0. 2.30382420e-02 2.11280733e-02 2.86803544e-01
      1.12556182e-01 0. 0. 0. 0. 0. 0. 3.73467579e-02 3.74151647e-01
      3.74151647e-01 0. 0. 0. 0. 0. 3.92149985e-02 2.57454455e-01
      3.74151647e-01 3.13334763e-01 0. 0. 0. 0. 0. 6.73316559e-03
      3.74151647e-01 3.74151647e-01 2.61775732e-01 9.76304561e-02
      3.13155860e-01 6.53701797e-02 0. 0. 0. 0. 1.22268172e-02
      2.47041911e-01 3.13155860e-01 3.13155860e-01 3.47654261e-02 0. 0.
      0. 0. 1.17634181e-02 3.13155860e-01 2.65123606e-01 3.13155860e-01
      2.56596118e-01 3.33910473e-02 0. 0. 0. 7.55738392e-02
      3.13155860e-01 1.17832504e-01 3.13155860e-01 8.03105831e-02
      4.25100774e-02 0. 0. 0. 2.11473592e-02 7.21536763e-03
      1.20256208e-02 3.47887464e-02 0. 1.44307353e-02 0. 0. 0.
      7.21536763e-03 0. 0. 1.62968989e-02 3.20151448e-01 4.68845814e-01
      4.68845814e-01 9.64235589e-02 0. 0. 0. 0. 0. 0. 0. 0. 0. 0. 0. 0.
      0. 0. 0. 4.68845814e-01 4.68845814e-01 4.82117906e-02 0. 0.
      2.76053194e-02 3.82723995e-02 5.48518635e-02 1.22432217e-01
      1.32621467e-01 2.54524387e-02 3.47387488e-03 0. 0. 1.38026625e-02
      1.91362053e-02 3.20214510e-01 3.20214510e-01 3.20214510e-01
      1.87185127e-02 0. 0. 0. 2.89825588e-01 3.20214510e-01
      1.85606003e-01 1.38769343e-01 2.04814989e-02 4.69870716e-02
      7.28477463e-02 2.11140234e-02 1.79150373e-01 9.72323716e-02
      3.20214510e-01 3.20214510e-01 3.20214510e-01 2.27243662e-01 0. 0.
      0. 1.96088832e-02 0. 0. 0. 0. 0. 0. 0. 0. 0. 0. 0. 0. 0. 0. 0. 0.
      0. 0. 0. 0. 0. 0. 0. 0. 0. 0. 0. 0. 0. 0. 0. 0. 0. 0. 0. 0. 0. 0.
      0. 0. 0. 0. 0. 0. 0. 0. 0. 0. 0. 0. 0. 0. 0. 0. 0. 0. 0. 0. 0. 0.
      0. 0. 0. 0. 0. 0. 0. 0. 0. 0. 0. 0. 0. 0. 0. 0. 0. 0. 0. 0. 0. 0.
      0. 0. 0. 0. 0. 0. 0. 0. 0. 0. 0. 0. 0. 0. 0. 0. 0. 0. 0. 0. 0. 0.
      0. 0. 0. 0. 0. 0. 0. 0. 0. 0. 0. 0. 0. 0. 0. 0. 0. 0. 0. 0. 0. 0.
      0. 0. 0. 0. 0. 0. 0. 0. 0. 0. 0. 0. 0. 0. 0. 0. 0. 0.
      7.01958716e-01 0. 0. 0. 0. 0. 0. 0. 7.01958716e-01 6.06206320e-02
      0. 0. 0. 0. 0. 0. 0. 6.06206320e-02 0. 0. 0. 0. 0. 0. 0. 0. 0. 0.
      0. 0. 0. 0. 0. 0. 0. 0.</_>
    <_>
      0. 0. 0. 0. 0. 0. 0. 0. 0. 0. 0. 0. 0. 0. 0. 0. 0. 0. 0. 0. 0. 0.
      0. 0. 0. 0. 0. 0. 0. 0. 0. 0. 0. 0. 0. 0. 2.80006230e-01 0. 0. 0.
      1.38430133e-01 0. 1.50659710e-01 4.09015179e-01 4.09015179e-01
      4.09015179e-01 0. 0. 0. 3.18076387e-02 0. 0. 2.07612857e-01
      4.09015179e-01 1.04734123e-01 0. 0. 0. 0. 0. 0. 0. 1.04734123e-01
      2.64973938e-01 0. 0. 0. 0. 0. 0. 0. 2.64973938e-01 3.56257409e-01
      0. 0. 0. 0. 0. 0. 2.40990087e-01 3.56257409e-01 3.56257409e-01
      1.98148072e-01 0. 0. 0. 0. 0. 3.56257409e-01 3.56257409e-01
      9.13100839e-02 0. 0. 0. 0. 0. 0. 2.32551657e-02 1.82624176e-01
      3.04675102e-01 1.91209689e-02 0. 0. 0. 0. 0. 4.65103462e-02
      3.56257409e-01 4.06399697e-01 0. 0. 0. 0. 0. 0. 0. 4.06399697e-01
      4.06399697e-01 4.06399697e-01 3.25834076e-03 0. 6.71419725e-02 0.
      0. 0. 4.06399697e-01 1.78926170e-01 0. 0. 0. 0. 0. 0. 0.
      1.71642721e-01 2.28190795e-01 0. 0. 0. 0. 0. 0. 0. 2.28190795e-01
      0. 0. 0. 0. 5.75688422e-01 0. 0. 0. 0. 0. 0. 0. 0. 0. 0. 0. 0. 0.
      0. 0. 0. 0. 0. 0. 0. 0. 0. 5.75688422e-01 0. 0. 0. 0. 0. 0. 0.
      5.75688422e-01 0. 0. 0. 0. 0. 0. 0. 0. 0. 0. 0. 0. 0. 0. 0. 0. 0.
      0. 1.07392877e-01 0. 0. 0. 0. 0. 0. 0. 1.07392877e-01
      6.96412802e-01 0. 0. 0. 0. 0. 0. 0. 6.96412802e-01 0. 0. 0. 0. 0.
      0. 0. 0. 0. 0. 0. 0. 0. 0. 0. 0. 0. 0. 6.89534307e-01 0. 0. 0. 0.
      0. 0. 0. 6.89534307e-01 1.45260870e-01 0. 0. 0. 0. 0. 0. 0.
      1.45260870e-01 0. 0. 0. 0. 0. 0. 0. 0. 0. 0. 0. 0. 0. 0. 0. 0. 0.
      0. 0. 0. 0. 0. 0. 0. 0. 0. 0. 0. 0. 0. 0. 0. 0. 0. 0. 0. 0. 0. 0.
      0. 0. 0. 0. 0. 0. 0. 0. 0. 0. 0. 0. 0. 0. 0. 4.27925020e-01 0. 0.
      0. 0. 0. 0. 0. 4.27925020e-01 4.49718714e-01 3.43829453e-01
      3.26428473e-01 0. 0. 0. 0. 0. 4.49718714e-01 0. 0. 0. 0.
      8.00194070e-02 0. 0. 0. 0. 1.67204469e-01 0. 0. 0. 1.60038874e-01
      0. 6.23658225e-02 2.08415631e-02 1.42497987e-01 3.54245812e-01
      3.54245812e-01 0. 0. 0. 0. 1.54877156e-01 1.63133621e-01
      3.54245812e-01 3.54245812e-01 3.54245812e-01 0. 0. 0.
      2.05408737e-01 2.57148743e-01 0. 3.54245812e-01 0. 1.44245818e-01
      3.15608203e-01 1.82199366e-02 2.98614532e-01 1.28479347e-01 0. 0.
      0. 1.10532073e-02 1.98839039e-01 3.15608203e-01 3.32892910e-02
      2.08329156e-01 6.42396882e-02 0. 0. 1.10532073e-02 0.
      2.80356407e-02 1.77933946e-01 1.05019670e-03 3.15608203e-01
      3.15608203e-01 3.15608203e-01 4.26465692e-03 0. 8.07863008e-03
      5.60713001e-02 1.08488180e-01 5.25098469e-04 3.15608203e-01
      1.91755176e-01 3.15608203e-01 8.52931757e-03 8.07863008e-03
      2.40625464e-03 0. 3.57875198e-01 2.60262460e-01 2.23345935e-01
      9.96694565e-02 2.09964179e-02 0. 6.68608025e-03 0. 0. 0.
      4.86125834e-02 6.18055686e-02 0. 0. 0. 0. 2.16941074e-01 0.
      6.21147975e-02 7.25254044e-02 2.16909528e-01 1.97151691e-01
      3.57875198e-01 2.73391753e-01 3.57875198e-01 3.57875198e-01 0. 0.
      0. 6.53108023e-03 0. 0. 7.02629760e-02 3.57875198e-01
      9.27968100e-02 1.34856433e-01 1.17628053e-01 1.28170187e-02 0. 0.
      0. 0. 1.49175720e-02 1.03471942e-01 3.39396983e-01 3.39396983e-01
      2.56340485e-02 0. 0. 0. 0. 6.55245259e-02 3.39396983e-01
      3.39396983e-01 3.39396983e-01 6.40851120e-03 0. 0. 0. 0.
      4.11495715e-02 3.39396983e-01 3.39396983e-01 3.39396983e-01
      1.28170261e-02 0. 0. 0. 0. 1.28491163e-01 2.00060561e-01
      2.84862578e-01 2.28040680e-01 0. 0. 0. 0. 0. 8.54444057e-02
      2.97000110e-01 1.47594243e-01 2.00380892e-01 0. 3.07979919e-02
      2.70528290e-02 1.07272796e-01 1.10022716e-01 2.88826734e-01
      4.88223024e-02 2.97000110e-01 2.97000110e-01 7.31328316e-03
      1.37340091e-02 0. 0. 0. 4.26829793e-02 1.29265860e-01
      2.59219915e-01 2.97000110e-01 0. 2.97000110e-01 7.31485561e-02
      2.14545667e-01 2.20045522e-01 1.29265860e-01 4.03649919e-02 0. 0.
      0. 2.47353882e-01 1.67705230e-02 0. 0. 4.03649919e-02
      1.36507014e-02 0. 0. 0. 6.16567791e-01 5.38061447e-02 0. 0.
      1.36507014e-02 0. 0. 0. 8.14762525e-03 3.99265289e-01 0. 0. 0. 0.
      0. 0. 0. 7.78551623e-02 6.16567791e-01 0. 0. 0. 0. 0. 0. 0. 0.
      3.06517892e-02 1.02944121e-01 1.97579905e-01 7.04999790e-02 0.
      3.66532803e-01 0. 0. 0. 1.53258974e-02 2.05888301e-01
      4.73991007e-01 4.73991007e-01 4.73991007e-01 0. 0. 0. 0. 0. 0. 0.
      0. 0. 1.82270169e-01 0. 0. 0. 0. 0. 0. 0. 2.35636458e-01
      3.64658624e-01 0. 0. 0. 0. 0. 0. 1.88366786e-01 3.64658624e-01
      3.64658624e-01 1.13391466e-01 5.96524030e-03 0. 0. 0. 0. 0.
      3.64658624e-01 2.16133550e-01 0. 0. 0. 0. 0. 0. 4.56442358e-03
      3.21545184e-01 3.64658624e-01 0. 0. 0. 0. 0. 0. 0. 3.64658624e-01
      4.15823221e-01 4.15823221e-01 1.74287632e-02 0. 0. 0. 0. 0.
      4.15823221e-01 3.72576326e-01 4.15823221e-01 1.55207261e-01 0. 0.
      0. 0. 0. 2.73286104e-01 1.85194016e-01 1.37942676e-02 0. 0. 0. 0.
      0. 0. 1.65761828e-01 4.66622040e-02 0. 0. 0. 0. 0. 0. 0.
      4.66622040e-02 8.23305473e-02 0. 0. 0. 0. 0. 0. 0. 8.23305473e-02
      0. 0. 0. 0. 5.60383677e-01 5.60383677e-01 5.60383677e-01 0. 0. 0.
      0. 0. 0. 0. 0. 0. 0. 0. 0. 0. 0. 0. 1.96870178e-01 0. 0. 0. 0.
      3.40698212e-01 2.76545528e-02 2.51142621e-01 2.19439287e-02
      1.08948778e-02 4.32904490e-04 6.79768920e-02 0. 3.40698212e-01
      3.40698212e-01 3.24012078e-02 3.40698212e-01 3.40698212e-01
      9.49802175e-02 0. 0. 0. 1.16979063e-01 3.40698212e-01
      6.19130908e-03 0. 0. 0. 0. 0. 0. 2.98142940e-01 3.24343652e-01
      1.23826219e-02 0. 0. 4.15233485e-02 0. 0. 0. 1.06426857e-01 0. 0.
      0. 0. 0. 0. 0. 0. 0. 0. 0. 0. 0. 0. 0. 0. 0. 0. 0. 0. 0. 0. 0. 0.
      0. 0. 0. 0. 0. 0. 0. 0. 0. 0. 0. 0. 3.95334698e-02 0. 0. 0. 0. 0.
      0. 0. 3.95334698e-02 2.07287937e-01 0. 0. 0. 0. 0. 0. 0.
      2.07287937e-01 1.50396362e-01 3.85528535e-01 1.47470057e-01 0.
      3.60721231e-01 0. 0. 0. 7.90669695e-02 3.85528535e-01
      3.85528535e-01 7.37350434e-02 0. 2.02477276e-01 0. 0.
      2.92207867e-01 3.85528535e-01 8.12415853e-02 0. 0. 0. 0. 0. 0. 0.
      8.12415853e-02 2.05538616e-01 0. 0. 0. 0. 0. 0. 0. 2.05538616e-01
      4.36572284e-01 4.36572284e-01 0. 0. 5.85387312e-02 0.
      4.04856354e-03 8.39317665e-02 2.47819498e-01 4.36572284e-01
      2.51167953e-01 0. 0. 2.40342654e-02 0. 0. 0. 4.36572284e-01
      1.38118174e-02 0. 0. 0. 0. 0. 0. 0. 1.38118174e-02 0. 0. 0. 0. 0.
      0. 0. 0. 0. 4.03909534e-01 0. 0. 0. 1.29329026e-01 0. 0.
      4.03909534e-01 4.03909534e-01 4.03909534e-01 0. 0. 0.
      4.03909534e-01 0. 0. 0. 4.03909534e-01 0. 0. 0. 0. 0. 0. 0. 0. 0.
      2.34863728e-01 0. 0. 0. 2.96402335e-01 0. 0. 0. 2.34863728e-01 0.
      0. 0. 0. 0. 0. 0. 0. 0. 4.69727635e-01 0. 0. 0. 5.95474482e-01 0.
      0. 0. 4.69727635e-01</_>
    <_>
      0. 0. 0. 0. 0. 0. 0. 0. 0. 0. 0. 0. 0. 0. 0. 0. 0. 0. 0. 0. 0. 0.
      0. 0. 0. 0. 0. 0. 0. 0. 0. 0. 0. 0. 0. 0. 9.12872255e-02 0. 0. 0.
      2.16764450e-01 0. 5.85599476e-03 3.81371289e-01 3.86088729e-01
      4.18258250e-01 0. 0. 0. 1.39984220e-01 0. 1.17119951e-02
      4.18258250e-01 4.18258250e-01 1.04065370e-02 0. 0. 0. 0. 0. 0. 0.
      1.04065370e-02 2.24932745e-01 0. 0. 0. 0. 0. 0. 0. 2.24932745e-01
      4.50298876e-01 0. 0. 0. 0. 0. 0. 0. 4.50298876e-01 4.50298876e-01
      0. 0. 0. 0. 0. 0. 0. 4.50298876e-01 1.70902207e-01 0. 0. 0. 0. 0.
      0. 0. 1.70902207e-01 2.51008421e-01 0. 0. 0. 0. 0. 0. 0.
      2.51008421e-01 4.02644485e-01 5.76512218e-02 0. 0. 5.21548325e-03
      0. 0. 0. 4.02644485e-01 4.02644485e-01 4.02644485e-01
      2.94324961e-02 3.84414382e-02 1.89467922e-01 0. 0. 0.
      4.02644485e-01 1.91994324e-01 0. 0. 0. 0. 0. 0. 0. 1.91994324e-01
      1.87147245e-01 0. 0. 0. 0. 0. 0. 0. 1.87147245e-01 0. 0. 0. 0.
      9.86547828e-01 0. 0. 0. 0. 0. 0. 0. 0. 0. 0. 0. 0. 0. 0. 0. 0. 0.
      0. 0. 0. 0. 0. 0. 0. 0. 0. 0. 0. 0. 0. 0. 0. 0. 0. 0. 0. 0. 0. 0.
      0. 0. 0. 0. 0. 0. 0. 0. 0. 0. 1.11382529e-02 0. 0. 0. 0. 0. 0. 0.
      1.11382529e-02 5.12861431e-01 4.53375459e-01 5.12861431e-01 0. 0.
      0. 0. 0. 5.12861431e-01 0. 0. 0. 0. 0. 0. 0. 0. 0. 0. 0. 0. 0. 0.
      0. 0. 0. 0. 4.39294487e-01 0. 0. 0. 4.39294487e-01 1.21486381e-01
      4.39294487e-01 0. 4.39294487e-01 8.93160477e-02 0. 0. 0.
      4.39294487e-01 0. 0. 0. 8.93160477e-02 0. 0. 0. 0. 0. 0. 0. 0. 0.
      0. 0. 0. 0. 0. 0. 0. 0. 0. 0. 0. 0. 0. 0. 0. 0. 0. 0. 0. 0. 0. 0.
      0. 0. 0. 0. 0. 0. 0. 0. 0. 0. 0. 0. 0. 0. 3.54557447e-02 0. 0. 0.
      0. 0. 0. 0. 3.54557447e-02 2.69276857e-01 2.94791937e-01
      2.82755613e-01 0. 0. 0. 0. 0. 2.69276857e-01 4.42558199e-01
      4.42558199e-01 3.05971831e-01 0. 0. 0. 0. 0. 4.42558199e-01
      1.05313696e-01 0. 0. 0. 0. 0. 0. 0. 1.05313696e-01 3.15787308e-02
      0. 0. 0. 0. 0. 0. 0. 3.15787308e-02 3.91933471e-01 0. 0. 0. 0.
      4.18631323e-02 1.61372393e-01 3.91933471e-01 3.91933471e-01
      6.31574839e-02 0. 0. 0. 2.60138005e-01 8.37263018e-02
      3.22744936e-01 3.91933471e-01 3.83186907e-01 0. 3.62665504e-02
      1.32512316e-01 1.10673033e-01 3.29651147e-01 7.15824775e-04
      1.12402514e-01 0. 0. 0. 1.33222997e-01 3.29651147e-01
      2.23170653e-01 3.18097621e-01 1.43165013e-03 2.24805087e-01 0. 0.
      0. 0. 0. 5.53365350e-02 3.29651147e-01 1.01802692e-01
      3.29651147e-01 0. 0. 2.93461718e-02 0. 0. 1.10673107e-01
      3.29651147e-01 2.03605458e-01 3.29651147e-01 1.13127075e-01
      2.93461718e-02 1.70761496e-02 0. 0. 4.97010052e-02 3.56153160e-01
      1.57247305e-01 1.47178516e-01 3.31531838e-02 3.28119546e-02
      1.21432371e-01 0. 0. 8.62695277e-03 1.06622130e-01 1.00895045e-02
      4.96033058e-02 1.65765956e-02 1.39965534e-01 1.39285326e-01 0. 0.
      0. 1.63473681e-01 2.07040325e-01 3.56153160e-01 3.56153160e-01
      3.41066182e-01 3.56153160e-01 0. 0. 0. 2.71936543e-02
      5.04475320e-03 9.92066488e-02 2.15294614e-01 3.56153160e-01
      2.43840188e-01 2.04590380e-01 2.50602156e-01 1.49908410e-02 0. 0.
      0. 0. 2.38749254e-02 2.98005462e-01 2.98005462e-01 2.98005462e-01
      2.99816895e-02 1.04018375e-02 0. 0. 0. 2.84458883e-02
      2.98005462e-01 2.98005462e-01 2.98005462e-01 0. 0. 0. 0. 0.
      8.74101296e-02 2.98005462e-01 2.98005462e-01 2.98005462e-01
      1.22170639e-03 2.08036844e-02 0. 0. 0. 1.51506722e-01
      2.50569791e-01 3.08732092e-01 3.08732092e-01 1.24593442e-02 0. 0.
      0. 0. 1.25083327e-01 3.08732092e-01 8.18612054e-02 9.57772881e-02
      6.22967351e-03 1.77808657e-01 1.50821671e-01 9.48785767e-02
      2.91658133e-01 2.68970728e-01 1.26589045e-01 2.56511390e-01
      3.08732092e-01 2.58229785e-02 3.01999738e-03 0. 0. 0.
      7.30548874e-02 1.47299558e-01 3.48506197e-02 8.96159559e-02
      1.24593517e-02 3.08732092e-01 2.46970043e-01 4.74392958e-02
      1.45829082e-01 4.02311943e-02 1.27674150e-03 0. 2.25818250e-02
      8.30378979e-02 3.79622072e-01 5.06299175e-02 1.33609727e-01 0.
      1.27674150e-03 0. 0. 4.51636650e-02 1.66075841e-01 3.79622072e-01
      9.65049341e-02 2.67219573e-01 0. 0. 0. 0. 1.06539521e-02
      2.22084269e-01 3.79622072e-01 1.14258893e-01 6.68048784e-02 0. 0.
      0. 0. 2.13079117e-02 3.79622072e-01 3.79622072e-01 2.28517860e-01
      1.33609787e-01 0. 0. 8.01099613e-02 0. 0. 0. 0. 0. 0. 0.
      8.01099613e-02 4.95533943e-01 0. 0. 0. 0. 0. 4.95533943e-01
      4.95533943e-01 4.95533943e-01 0. 0. 0. 0. 0. 0. 0. 0. 0. 0. 0. 0.
      0. 0. 0. 0. 0. 0. 3.85943443e-01 0. 0. 0. 0. 0. 1.82408206e-02
      3.50451738e-01 3.85943443e-01 3.85943443e-01 2.77113110e-01
      4.23670188e-03 0. 0. 0. 1.03057884e-02 3.85943443e-01
      3.85943443e-01 9.15707182e-03 0. 0. 0. 0. 0. 0. 0. 9.15707182e-03
      1.59921706e-01 0. 0. 0. 0. 0. 0. 0. 1.59921706e-01 4.15524811e-01
      4.15524811e-01 3.82831842e-01 0. 0. 0. 0. 0. 4.15524811e-01
      4.15524811e-01 1.45779893e-01 1.42136246e-01 0. 0. 0. 0. 0.
      3.42331499e-01 0. 0. 0. 0. 0. 0. 0. 0. 0. 0. 0. 0. 0. 0. 0. 0. 0.
      0. 0. 0. 0. 0. 0. 0. 0. 0. 0. 0. 0. 0. 0. 5.75681269e-01
      4.97377710e-03 5.75681269e-01 5.75681269e-01 0. 0. 0. 0. 0. 0. 0.
      0. 0. 0. 0. 0. 0. 0. 0. 0. 0. 0. 0. 3.46000612e-01 3.46000612e-01
      1.97025433e-01 1.25409320e-01 2.36430243e-01 0. 1.12124323e-03
      1.35194704e-01 3.46000612e-01 1.94011822e-01 3.46000612e-01
      3.00845414e-01 6.39931113e-02 3.46000612e-01 0. 0. 0.
      1.22914106e-01 2.39092886e-01 0. 0. 0. 0. 0. 0. 0. 2.39092886e-01
      6.14570566e-02 0. 0. 0. 0. 0. 0. 0. 6.14570566e-02 0. 0. 0. 0. 0.
      0. 0. 0. 0. 0. 0. 0. 0. 0. 0. 0. 0. 0. 0. 0. 0. 0. 0. 0. 0. 0. 0.
      0. 0. 0. 0. 0. 0. 0. 0. 0. 6.81958953e-03 0. 0. 0. 0. 0. 0. 0.
      6.81958953e-03 1.47402436e-01 0. 0. 0. 0. 0. 0. 0. 1.47402436e-01
      3.86969239e-01 3.89780164e-01 5.98521065e-03 0. 3.45525086e-01 0.
      0. 0. 8.56670514e-02 3.97538871e-01 3.97538871e-01 1.19704250e-02
      0. 2.23136574e-01 0. 0. 0. 3.97538871e-01 1.34696424e-01 0. 0. 0.
      0. 0. 0. 0. 1.34696424e-01 1.97832093e-01 0. 0. 0. 0. 0. 0. 0.
      1.97832093e-01 4.69241917e-01 0. 0. 0. 0. 0. 0. 0. 4.69241917e-01
      4.69241917e-01 0. 0. 0. 0. 0. 0. 0. 4.69241917e-01 1.45945847e-01
      0. 0. 0. 0. 0. 0. 0. 1.45945847e-01 9.12671536e-02 0. 0. 0. 0. 0.
      0. 0. 9.12671536e-02 3.54751676e-01 0. 0. 0. 7.66513050e-02 0. 0.
      3.33353370e-01 3.54751676e-01 2.55153716e-01 0. 0. 0.
      3.54751676e-01 0. 3.54751676e-01 3.54751676e-01 3.54751676e-01 0.
      0. 0. 0. 0. 0. 0. 0. 0. 0. 0. 0. 0. 0. 0. 0. 0. 0. 0. 0. 0. 0. 0.
      0. 0. 0. 0. 5.75688422e-01 0. 0. 0. 5.75688422e-01 0. 0. 0.
      5.75688422e-01</_>
    <_>
      0. 0. 0. 0. 0. 0. 0. 0. 0. 0. 0. 0. 0. 0. 0. 0. 0. 0. 0. 0. 0. 0.
      0. 0. 0. 0. 0. 7.04615593e-01 0. 0. 0. 0. 0. 0. 0. 7.04615593e-01
      0. 0. 0. 0. 0. 0. 0. 0. 0. 0. 0. 0. 0. 0. 0. 0. 0. 0.
      7.04615593e-01 0. 0. 0. 0. 0. 0. 0. 7.04615593e-01 0. 0. 0. 0. 0.
      0. 0. 0. 0. 0. 0. 0. 0. 0. 0. 0. 0. 0. 0. 0. 0. 0. 0. 0. 0. 0. 0.
      0. 0. 0. 0. 0. 0. 0. 0. 0. 0. 0. 0. 0. 0. 0. 0. 0. 0. 0. 0. 0. 0.
      0. 0. 0. 0. 0. 0. 0. 0. 0. 0. 0. 0. 0. 0. 0. 0. 0. 0. 0. 0. 0. 0.
      0. 0. 5.77753603e-01 8.11236680e-01 0. 0. 0. 0. 0. 0. 0. 0. 0. 0.
      0. 0. 0. 0. 0. 0. 0. 0. 0. 0. 0. 0. 0. 0. 4.24497932e-01
      9.85791609e-02 0. 0. 0. 0. 0. 4.24497932e-01 4.24497932e-01
      4.24497932e-01 0. 0. 0. 0. 0. 0. 2.91631818e-01 4.24497932e-01 0.
      7.59946331e-02 2.25336164e-01 3.95602509e-02 3.26163381e-01 0. 0.
      0. 0. 5.21111339e-02 3.00457448e-01 3.26163381e-01 2.29003236e-01
      2.90609062e-01 0. 0. 8.54323059e-03 1.12310564e-02 0.
      1.16661470e-02 3.26163381e-01 1.72578648e-01 3.26163381e-01 0. 0.
      0. 0. 1.50081760e-03 6.84666559e-02 3.26163381e-01 1.88770384e-01
      3.26163381e-01 0. 0. 0. 0. 0. 0. 3.50579143e-01 3.50579143e-01
      3.50579143e-01 2.43585214e-01 1.67985886e-01 3.48528065e-02
      1.11600824e-01 0. 0. 0. 8.47934633e-02 3.25766593e-01
      1.79156102e-02 4.36424511e-03 1.45845790e-03 0. 4.44087619e-03
      9.44522917e-02 3.50579143e-01 3.50579143e-01 3.50579143e-01 0. 0.
      0. 0. 0. 0. 0. 6.45704344e-02 1.76278263e-01 0. 0. 0. 0. 0. 0. 0.
      0. 0. 0. 0. 0. 0. 0. 0. 0. 0. 1.90160960e-01 0. 0. 0. 0. 0. 0. 0.
      0. 0. 0. 0. 0. 0. 0. 1.81067646e-01 6.24568820e-01 6.24568820e-01
      3.80322069e-01 0. 0. 0. 0. 1.67146355e-01 3.77484411e-01
      3.77484411e-01 5.54530649e-03 0. 0. 0. 0. 7.02547356e-02
      3.77484411e-01 3.77484411e-01 4.46438864e-02 0. 0. 0. 0. 0.
      1.64538711e-01 6.94055036e-02 3.39506686e-01 3.77484411e-01
      3.08778211e-02 9.22238827e-03 0. 0. 0. 3.65852378e-02
      2.26674139e-01 1.48363665e-01 1.48688990e-03 0. 0. 0. 0. 0.
      1.61033601e-01 9.33638122e-03 1.87058328e-03 5.59749128e-03 0.
      4.07191277e-01 1.86441932e-04 2.92782970e-02 0. 4.36633229e-02
      5.94032172e-04 0. 0. 0. 5.23557127e-01 3.72883951e-04
      5.85566051e-02 0. 1.77575070e-02 0. 0. 0. 0. 5.23557127e-01 0. 0.
      0. 0. 0. 0. 0. 0. 5.23557127e-01 0. 0. 0. 0. 0. 0. 0.
      1.53955435e-02 3.81995201e-01 3.00701102e-03 3.81995201e-01 0. 0.
      0. 0. 0. 7.69777317e-03 3.81995201e-01 1.50350586e-03
      2.36088261e-01 0. 0. 0. 0. 0. 0. 3.81995201e-01 3.23733687e-03
      3.81995201e-01 0. 0. 0. 0. 0. 0. 3.81995201e-01 1.61866867e-03
      2.54171699e-01 0. 0. 0. 0. 0. 0. 3.56350064e-01 1.42344192e-01
      4.83330041e-02 0. 0. 0. 0. 0. 0. 1.76862553e-02 0. 0. 0. 0.
      2.29061812e-01 0. 0. 0. 2.61001438e-01 2.92065352e-01
      3.56350064e-01 2.88666487e-01 3.56350064e-01 3.56350064e-01
      1.95369259e-01 6.67536184e-02 0. 3.53725255e-02 0. 0.
      7.41886422e-02 3.56350064e-01 3.88949364e-02 3.69852662e-01
      3.69852662e-01 2.10825689e-02 0. 0. 0. 0. 3.88949364e-02
      8.38852897e-02 3.69852662e-01 3.69852662e-01 2.54738741e-02
      3.84037383e-02 0. 0. 0. 8.38852897e-02 7.58444369e-02
      3.69852662e-01 3.69852662e-01 4.29081470e-02 1.70694366e-01 0. 0.
      0. 7.03684017e-02 7.86753818e-02 1.58020109e-01 2.21883416e-01 0.
      1.66215479e-01 0. 0. 0. 7.86753818e-02 2.91272253e-01
      1.46380931e-01 2.91272253e-01 2.82177985e-01 1.09847941e-01 0. 0.
      0. 5.51660620e-02 2.91272253e-01 1.08157955e-01 9.77056175e-02 0.
      2.81450123e-01 2.91272253e-01 1.55161977e-01 1.44898534e-01
      8.55369344e-02 2.00189296e-02 9.59045291e-02 2.91272253e-01
      2.91240484e-01 1.50970474e-01 0. 0. 0. 2.00189296e-02
      4.00378704e-02 1.08558778e-02 2.14937434e-01 6.15561604e-02
      2.91272253e-01 1.61946297e-01 1.47968367e-01 0. 4.00378704e-02 0.
      0. 3.63289425e-03 1.39608681e-01 3.23875964e-01 1.33834168e-01
      2.14947164e-02 0. 0. 0. 0. 7.26579083e-03 2.79217452e-01
      3.72153491e-01 2.67668456e-01 4.29894514e-02 0. 0. 0. 0. 0.
      2.31638715e-01 3.72153491e-01 1.35629863e-01 2.17831172e-02 0. 0.
      0. 0. 0. 3.72153491e-01 3.72153491e-01 2.71259815e-01
      4.35662493e-02 0. 0. 2.02495488e-03 0. 0. 0. 2.44607076e-01
      3.76746096e-02 2.06024960e-01 9.45628583e-02 1.04262255e-01
      1.43172452e-02 0. 0. 0. 2.06370279e-01 3.28571439e-01
      3.28571439e-01 3.28571439e-01 2.90986091e-01 4.04991116e-03 0. 0.
      0. 5.19344816e-03 0. 0. 2.05990281e-02 5.51685654e-02
      4.10418659e-02 0. 0. 0. 1.70730203e-01 3.28571439e-01
      3.28571439e-01 3.04284513e-01 2.81079590e-01 9.78560373e-02 0. 0.
      0. 0. 0. 6.13452401e-03 3.25366110e-02 1.11002021e-01
      3.84976655e-01 2.51048468e-02 0. 0. 0. 0. 0. 0. 8.61336738e-02
      3.95550996e-01 4.85980324e-02 0. 0. 0. 0. 4.05777432e-03
      3.30124766e-01 3.95550996e-01 3.95550996e-01 3.95550996e-01 0. 0.
      0. 0. 0. 0. 2.82127172e-01 2.85229832e-01 1.87910542e-01
      2.85229832e-01 8.26710984e-02 4.02625129e-02 0. 0. 0.
      8.53425413e-02 2.85229832e-01 2.72806585e-01 2.85229832e-01
      2.85229832e-01 1.42057374e-01 0. 0. 0. 1.10822245e-01
      2.85229832e-01 2.62785852e-01 2.85229832e-01 3.38912271e-02 0. 0.
      0. 0. 1.99647292e-01 2.85229832e-01 7.32398033e-02 7.56695047e-02
      1.74171001e-01 3.07661686e-02 0. 0. 0. 1.89553365e-01 0. 0. 0. 0.
      2.20770459e-03 0. 0. 0. 0. 0. 0. 4.58322912e-01 7.34196603e-02
      4.58322912e-01 1.46199614e-01 6.32612854e-02 0. 0. 0. 0. 0. 0. 0.
      0. 0. 0. 0. 0. 0. 1.87148929e-01 1.19174982e-03 4.58322912e-01
      2.95169115e-01 4.58322912e-01 3.85558680e-02 2.78097801e-02 0. 0.
      0. 0. 4.04991686e-01 8.43351427e-03 0. 0. 0. 0. 0. 0. 0.
      4.04991686e-01 1.68670341e-02 0. 0. 0. 4.04991686e-01
      1.76280607e-02 1.67706847e-01 5.72645329e-02 2.83747196e-01 0.
      1.26397591e-02 3.82595472e-02 1.93346590e-01 2.49070138e-01
      1.34702567e-02 3.35413814e-01 1.14529096e-01 4.04991686e-01 0. 0.
      0. 2.13135406e-02 0. 0. 0. 0. 0. 0. 0. 0. 0. 0. 0. 0. 0. 0. 0. 0.
      0. 0. 0. 0. 0. 0. 0. 0. 0. 0. 0. 0. 0. 0. 0. 0. 0. 0. 0. 0. 0. 0.
      0. 0. 0. 0. 0. 0. 0. 0. 0. 0. 0. 0. 0. 0. 0. 0. 0. 0. 0. 0. 0. 0.
      0. 0. 0. 0. 0. 0. 0. 0. 0. 0. 0. 0. 0. 0. 0. 0. 0. 0. 0. 0. 0. 0.
      0. 0. 0. 0. 0. 0. 0. 0. 0. 0. 0. 0. 0. 0. 0. 0. 0. 0. 0. 0. 0. 0.
      0. 0. 0. 0. 0. 0. 0. 0. 0. 0. 0. 0. 0. 0. 0. 0. 0. 0. 0. 0. 0. 0.
      0. 0. 0. 0. 0. 0. 0. 0. 0. 0. 0. 0. 0. 0. 0. 0. 0. 0.
      4.98753130e-01 0. 0. 0. 0. 0. 0. 0. 4.98753130e-01 4.98753130e-01
      0. 0. 0. 0. 0. 0. 0. 4.98753130e-01 0. 0. 0. 0. 0. 0. 0. 0. 0. 0.
      0. 0. 0. 0. 0. 0. 0. 0.</_>
    <_>
      0. 0. 0. 0. 0. 0. 0. 0. 0. 0. 0. 0. 0. 0. 0. 0. 0. 0. 0. 0. 0. 0.
      0. 0. 0. 0. 0. 0. 0. 0. 0. 0. 0. 0. 0. 0. 1.10693492e-01 0. 0. 0.
      2.07615286e-01 0. 1.32376596e-01 4.18987423e-01 1.74722418e-01
      4.18987423e-01 0. 0. 0. 1.06120370e-01 0. 6.61883131e-02
      4.18987423e-01 4.18987423e-01 5.53467609e-02 0. 0. 0. 0. 0. 0. 0.
      5.53467609e-02 2.90202618e-01 0. 0. 0. 0. 0. 0. 0. 2.90202618e-01
      4.35866892e-01 8.56909975e-02 0. 0. 0. 0. 0. 1.35986507e-02
      4.35866892e-01 4.35866892e-01 4.28455099e-02 0. 0. 0. 0. 0. 0.
      4.35866892e-01 2.67710447e-01 0. 0. 0. 0. 0. 0. 0. 1.75965250e-01
      2.96522349e-01 0. 0. 0. 0. 0. 0. 0. 1.89221114e-01 4.06391144e-01
      0. 0. 0. 0. 0. 0. 0. 4.06391144e-01 4.06391144e-01 4.06391144e-01
      3.25904530e-03 0. 6.71564862e-02 0. 0. 0. 4.06391144e-01
      1.75304845e-01 0. 0. 0. 0. 0. 0. 0. 1.75304845e-01 2.28240132e-01
      0. 0. 0. 0. 0. 0. 0. 2.28240132e-01 0. 0. 0. 0. 9.95024860e-01 0.
      0. 0. 0. 0. 0. 0. 0. 0. 0. 0. 0. 0. 0. 0. 0. 0. 0. 0. 0. 0. 0. 0.
      0. 0. 0. 0. 0. 0. 0. 0. 0. 0. 0. 0. 0. 0. 0. 0. 0. 0. 0. 0. 0. 0.
      0. 0. 0. 0. 0. 0. 0. 0. 0. 0. 0. 0. 0. 7.04615593e-01 0. 0. 0. 0.
      0. 0. 0. 7.04615593e-01 0. 0. 0. 0. 0. 0. 0. 0. 0. 0. 0. 0. 0. 0.
      0. 0. 0. 0. 7.04615593e-01 0. 0. 0. 0. 0. 0. 0. 7.04615593e-01 0.
      0. 0. 0. 0. 0. 0. 0. 0. 0. 0. 0. 0. 0. 0. 0. 0. 0. 0. 0. 0. 0. 0.
      0. 0. 0. 0. 0. 0. 0. 0. 0. 0. 0. 0. 0. 0. 0. 0. 0. 0. 0. 0. 0. 0.
      0. 0. 0. 0. 0. 0. 0. 0. 0. 0. 0. 0. 0. 0. 0. 0. 0. 0.
      4.56267834e-01 0. 0. 0. 0. 0. 0. 0. 4.56267834e-01 4.56267834e-01
      2.92544425e-01 2.77738959e-01 0. 0. 0. 0. 0. 4.56267834e-01 0. 0.
      0. 0. 0. 0. 0. 0. 0. 0. 0. 0. 0. 0. 0. 0. 0. 0. 4.55516338e-01
      3.20510939e-02 3.12500335e-02 0. 0. 0. 0. 1.22228958e-01
      4.55516338e-01 4.55516338e-01 0. 0. 0. 0. 1.85948044e-01
      2.32786164e-01 2.44458020e-01 4.55516338e-01 0. 8.03576633e-02
      2.38273218e-01 4.18315008e-02 3.78001273e-01 0. 0. 0. 0.
      7.07266806e-03 2.74402291e-01 3.78001273e-01 2.53622502e-01
      3.35995317e-01 0. 0. 0. 0. 0. 1.23359282e-02 8.44173059e-02
      7.22431168e-02 3.78001273e-01 0. 7.75910541e-02 2.59295702e-02 0.
      5.80351055e-02 7.23974854e-02 1.68834671e-01 1.44486278e-01
      3.78001273e-01 0. 1.55182183e-01 5.18591665e-02 5.64481281e-02 0.
      0. 2.66642235e-02 1.81542605e-01 3.43262553e-01 1.76304623e-01
      3.61415222e-02 7.87627138e-03 1.68391061e-03 0. 0. 0. 0.
      1.29896969e-01 0. 0. 0. 0. 2.04873383e-01 0. 0. 0. 3.43262553e-01
      3.43262553e-01 1.15924045e-01 3.43262553e-01 3.13989937e-01
      3.43262553e-01 0. 0. 0. 1.00066416e-01 0. 1.22034820e-02
      2.05999196e-01 3.43262553e-01 1.49230480e-01 1.18731461e-01
      5.90953752e-02 0. 0. 0. 0. 0. 3.58335488e-02 9.54834968e-02
      3.46344590e-01 3.46344590e-01 2.68328711e-02 3.03989975e-03 0. 0.
      0. 5.83521500e-02 3.46344590e-01 3.46344590e-01 2.77047932e-01 0.
      0. 0. 0. 0. 5.22841774e-02 3.46344590e-01 3.46344590e-01
      3.46344590e-01 0. 0. 0. 0. 0. 1.51571229e-01 1.96880847e-01
      1.81584910e-01 2.16779038e-01 2.12461877e-04 1.19559877e-02 0. 0.
      0. 1.46777526e-01 2.88849413e-01 2.88849413e-01 2.47184515e-01 0.
      9.91946552e-03 5.64543940e-02 0. 0. 2.88849413e-01 1.23377338e-01
      2.88849413e-01 2.88849413e-01 1.88560749e-03 1.69299841e-02 0. 0.
      0. 4.23915237e-02 2.76834071e-01 2.88849413e-01 2.88849413e-01 0.
      1.57934889e-01 1.12908833e-01 0. 0. 2.76834071e-01 6.45731715e-03
      0. 0. 1.14285961e-01 1.65432975e-01 3.57276611e-02 3.47248698e-03
      0. 6.45731715e-03 1.68051745e-03 0. 2.50159711e-01 3.93263072e-01
      3.93263072e-01 3.92818227e-02 0. 0. 1.68051745e-03 0. 0.
      2.85517005e-03 1.41828448e-01 3.93263072e-01 7.12294206e-02
      6.94497628e-03 0. 0. 0. 0. 3.02682698e-01 3.93263072e-01
      3.93263072e-01 0. 0. 0. 0. 0. 0. 0. 0. 0. 0. 0. 1.86950520e-01
      1.10354349e-01 4.93109375e-01 0. 0. 0. 0. 0. 4.67413932e-01
      4.93109375e-01 4.93109375e-01 0. 0. 0. 0. 0. 0. 0. 0. 0. 0. 0. 0.
      0. 0. 0. 0. 0. 0. 3.89492899e-01 0. 0. 0. 0. 0. 0. 1.00201160e-01
      3.89492899e-01 3.69273365e-01 7.86346644e-02 1.15313672e-01 0. 0.
      0. 6.78116037e-03 3.89492899e-01 3.89492899e-01 1.07995443e-01 0.
      0. 0. 0. 0. 0. 0. 1.72689676e-01 1.71050444e-01 0. 0. 0. 0. 0. 0.
      3.02073322e-02 3.89492899e-01 4.33706522e-01 8.07772577e-02
      1.85028598e-01 2.43334239e-03 3.08294334e-02 0. 0. 0.
      4.33706522e-01 4.33706522e-01 4.11930352e-01 1.77823499e-01 0. 0.
      0. 0. 0. 4.33706522e-01 0. 0. 0. 0. 1.54147204e-02 0. 0. 0. 0. 0.
      0. 0. 0. 0. 0. 0. 0. 0. 1.13564581e-01 0. 0. 0. 0. 0. 0. 0.
      1.13564581e-01 0. 0. 0. 0. 9.82043684e-01 0. 0. 0. 0. 0. 0. 0. 0.
      0. 0. 0. 0. 0. 0. 0. 0. 0. 0. 0. 0. 0. 0. 3.53102565e-01
      3.31347436e-01 2.36102212e-02 6.73176497e-02 1.62886136e-04
      2.05676015e-02 0. 8.28013271e-02 3.53102565e-01 3.53102565e-01
      3.53102565e-01 4.72204611e-02 1.34635344e-01 3.53102565e-01 0. 0.
      0. 3.29068452e-01 2.09632963e-01 0. 0. 0. 0. 0. 0. 0.
      2.09632963e-01 1.31093815e-01 0. 0. 0. 0. 0. 0. 0. 1.31093815e-01
      0. 0. 0. 0. 0. 0. 0. 0. 0. 0. 0. 0. 0. 0. 0. 0. 0. 0. 0. 0. 0. 0.
      0. 0. 0. 0. 0. 0. 0. 0. 0. 0. 0. 0. 0. 0. 0. 0. 0. 0. 0. 0. 0. 0.
      0. 4.31655757e-02 0. 0. 0. 0. 0. 0. 0. 4.31655757e-02
      2.52225250e-01 0. 0. 0. 4.15904731e-01 0. 0. 0. 2.52225250e-01
      4.15904731e-01 4.15904731e-01 0. 0. 4.15904731e-01 0. 0. 0.
      4.15904731e-01 8.45112577e-02 0. 0. 0. 0. 0. 0. 0. 8.45112577e-02
      1.94961444e-01 0. 0. 0. 0. 0. 0. 0. 1.94961444e-01 4.10744816e-01
      4.10744816e-01 0. 0. 3.57571915e-02 0. 0. 5.98688908e-02
      4.10744816e-01 4.10744816e-01 2.38242656e-01 0. 0. 2.03396641e-02
      0. 0. 0. 4.10744816e-01 1.41145959e-01 0. 0. 0. 0. 0. 0. 0.
      1.41145959e-01 8.82655308e-02 0. 0. 0. 0. 0. 0. 0. 8.82655308e-02
